<?xml version="1.0"?>
<opencv_storage>
<cascade>
  <stageType>BOOST</stageType>
  <featureType>HAAR</featureType>
  <height>24</height>
  <width>24</width>
  <stageParams>
    <boostType>GAB</boostType>
    <minHitRate>9.9500000476837158e-01</minHitRate>
    <maxFalseAlarm>5.0000000000000000e-01</maxFalseAlarm>
    <weightTrimRate>9.4999998807907104e-01</weightTrimRate>
    <maxDepth>1</maxDepth>
    <maxWeakCount>100</maxWeakCount></stageParams>
  <featureParams>
    <maxCatCount>0</maxCatCount>
    <featSize>1</featSize>
    <mode>BASIC</mode></featureParams>
  <stageNum>20</stageNum>
  <stages>
    <!-- stage 0 -->
    <_>
      <maxWeakCount>9</maxWeakCount>
      <stageThreshold>-1.5756663084030151e+00</stageThreshold>
      <weakClassifiers>
        <_>
          <internalNodes>
            0 -1 114 -2.2008886933326721e-01</internalNodes>
          <leafValues>
            1.8518517911434174e-01 -7.7464789152145386e-01</leafValues></_>
        <_>
          <internalNodes>
            0 -1 356 -1.2138296663761139e-01</internalNodes>
          <leafValues>
            4.4599056243896484e-01 -4.0929737687110901e-01</leafValues></_>
        <_>
          <internalNodes>
            0 -1 137 5.6164026260375977e-02</internalNodes>
          <leafValues>
            1.4571307599544525e-01 -8.5650384426116943e-01</leafValues></_>
        <_>
          <internalNodes>
            0 -1 594 1.6124784015119076e-03</internalNodes>
          <leafValues>
            2.0448482036590576e-01 -5.7011270523071289e-01</leafValues></_>
        <_>
          <internalNodes>
            0 -1 141 2.9734487179666758e-04</internalNodes>
          <leafValues>
            2.1924294531345367e-01 -5.1949530839920044e-01</leafValues></_>
        <_>
          <internalNodes>
            0 -1 81 1.8073648971039802e-04</internalNodes>
          <leafValues>
            2.7839589118957520e-01 -4.2096182703971863e-01</leafValues></_>
        <_>
          <internalNodes>
            0 -1 611 1.4045325224287808e-04</internalNodes>
          <leafValues>
            2.5555819272994995e-01 -3.8997367024421692e-01</leafValues></_>
        <_>
          <internalNodes>
            0 -1 538 4.7984061529859900e-04</internalNodes>
          <leafValues>
            -2.2938011586666107e-01 4.3855774402618408e-01</leafValues></_>
        <_>
          <internalNodes>
            0 -1 32 3.3827114384621382e-04</internalNodes>
          <leafValues>
            2.0821942389011383e-01 -5.1454842090606689e-01</leafValues></_></weakClassifiers></_>
    <!-- stage 1 -->
    <_>
      <maxWeakCount>11</maxWeakCount>
      <stageThreshold>-1.4506844282150269e+00</stageThreshold>
      <weakClassifiers>
        <_>
          <internalNodes>
            0 -1 76 -7.6196521520614624e-02</internalNodes>
          <leafValues>
            1. -7.0648461580276489e-01</leafValues></_>
        <_>
          <internalNodes>
            0 -1 362 -5.7281091809272766e-02</internalNodes>
          <leafValues>
            1.9603280723094940e-01 -4.5957580208778381e-01</leafValues></_>
        <_>
          <internalNodes>
            0 -1 52 1.6338855493813753e-04</internalNodes>
          <leafValues>
            1.7301093041896820e-01 -5.0096768140792847e-01</leafValues></_>
        <_>
          <internalNodes>
            0 -1 618 4.4617697130888700e-04</internalNodes>
          <leafValues>
            2.1303814649581909e-01 -4.3980845808982849e-01</leafValues></_>
        <_>
          <internalNodes>
            0 -1 497 2.8253307100385427e-03</internalNodes>
          <leafValues>
            -1.5469254553318024e-01 6.7682009935379028e-01</leafValues></_>
        <_>
          <internalNodes>
            0 -1 18 1.9501638234942220e-05</internalNodes>
          <leafValues>
            2.6427093148231506e-01 -4.3171548843383789e-01</leafValues></_>
        <_>
          <internalNodes>
            0 -1 181 9.5607094466686249e-02</internalNodes>
          <leafValues>
            1.3806474208831787e-01 -8.2317823171615601e-01</leafValues></_>
        <_>
          <internalNodes>
            0 -1 368 -3.5263295285403728e-03</internalNodes>
          <leafValues>
            5.5547136068344116e-01 -1.9254648685455322e-01</leafValues></_>
        <_>
          <internalNodes>
            0 -1 107 -4.5899105316493660e-05</internalNodes>
          <leafValues>
            2.8656673431396484e-01 -3.4540838003158569e-01</leafValues></_>
        <_>
          <internalNodes>
            0 -1 306 -4.2405817657709122e-03</internalNodes>
          <leafValues>
            6.2246060371398926e-01 -1.7527276277542114e-01</leafValues></_>
        <_>
          <internalNodes>
            0 -1 282 -7.7934609726071358e-04</internalNodes>
          <leafValues>
            6.9057756662368774e-01 -1.2270727008581161e-01</leafValues></_></weakClassifiers></_>
    <!-- stage 2 -->
    <_>
      <maxWeakCount>13</maxWeakCount>
      <stageThreshold>-1.5690945386886597e+00</stageThreshold>
      <weakClassifiers>
        <_>
          <internalNodes>
            0 -1 191 -3.2057934999465942e-01</internalNodes>
          <leafValues>
            3.6111110448837280e-01 -7.3226952552795410e-01</leafValues></_>
        <_>
          <internalNodes>
            0 -1 467 -3.5807289183139801e-02</internalNodes>
          <leafValues>
            2.1004387736320496e-01 -4.6570175886154175e-01</leafValues></_>
        <_>
          <internalNodes>
            0 -1 203 -8.7736552814021707e-05</internalNodes>
          <leafValues>
            -4.6492552757263184e-01 1.9180169701576233e-01</leafValues></_>
        <_>
          <internalNodes>
            0 -1 613 2.2523594088852406e-04</internalNodes>
          <leafValues>
            1.7435114085674286e-01 -4.5749980211257935e-01</leafValues></_>
        <_>
          <internalNodes>
            0 -1 607 -8.2512054359540343e-04</internalNodes>
          <leafValues>
            -4.8340293765068054e-01 1.6425670683383942e-01</leafValues></_>
        <_>
          <internalNodes>
            0 -1 510 -1.1343896389007568e-02</internalNodes>
          <leafValues>
            6.7909002304077148e-01 -9.2554911971092224e-02</leafValues></_>
        <_>
          <internalNodes>
            0 -1 117 -2.6920699747279286e-04</internalNodes>
          <leafValues>
            -3.7972056865692139e-01 2.0054297149181366e-01</leafValues></_>
        <_>
          <internalNodes>
            0 -1 106 -5.8090247213840485e-02</internalNodes>
          <leafValues>
            -4.8134034872055054e-01 1.5624420344829559e-01</leafValues></_>
        <_>
          <internalNodes>
            0 -1 572 -7.5079791713505983e-04</internalNodes>
          <leafValues>
            -4.4952875375747681e-01 1.4458186924457550e-01</leafValues></_>
        <_>
          <internalNodes>
            0 -1 398 -1.6051539569161832e-04</internalNodes>
          <leafValues>
            2.8759390115737915e-01 -2.4237383902072906e-01</leafValues></_>
        <_>
          <internalNodes>
            0 -1 178 -2.4884377489797771e-04</internalNodes>
          <leafValues>
            -4.4275501370429993e-01 1.7247647047042847e-01</leafValues></_>
        <_>
          <internalNodes>
            0 -1 529 -3.6629252135753632e-02</internalNodes>
          <leafValues>
            6.5233612060546875e-01 -1.1800108104944229e-01</leafValues></_>
        <_>
          <internalNodes>
            0 -1 465 4.4756894931197166e-04</internalNodes>
          <leafValues>
            1.9980601966381073e-01 -4.1225245594978333e-01</leafValues></_></weakClassifiers></_>
    <!-- stage 3 -->
    <_>
      <maxWeakCount>15</maxWeakCount>
      <stageThreshold>-1.7594448328018188e+00</stageThreshold>
      <weakClassifiers>
        <_>
          <internalNodes>
            0 -1 154 -2.6981982588768005e-01</internalNodes>
          <leafValues>
            5.7746475934982300e-01 -7.4490702152252197e-01</leafValues></_>
        <_>
          <internalNodes>
            0 -1 28 -3.6189869046211243e-02</internalNodes>
          <leafValues>
            1.1941333860158920e-01 -4.8457312583923340e-01</leafValues></_>
        <_>
          <internalNodes>
            0 -1 133 -5.0221430137753487e-04</internalNodes>
          <leafValues>
            -4.8809996247291565e-01 1.5620985627174377e-01</leafValues></_>
        <_>
          <internalNodes>
            0 -1 80 1.3816321734338999e-04</internalNodes>
          <leafValues>
            -3.2248371839523315e-01 2.6231560111045837e-01</leafValues></_>
        <_>
          <internalNodes>
            0 -1 603 -2.3415923351421952e-04</internalNodes>
          <leafValues>
            -4.7228333353996277e-01 1.7899611592292786e-01</leafValues></_>
        <_>
          <internalNodes>
            0 -1 566 8.2471803762018681e-04</internalNodes>
          <leafValues>
            -3.4161570668220520e-01 2.7753570675849915e-01</leafValues></_>
        <_>
          <internalNodes>
            0 -1 30 -1.3315651449374855e-04</internalNodes>
          <leafValues>
            -4.3025845289230347e-01 1.8502147495746613e-01</leafValues></_>
        <_>
          <internalNodes>
            0 -1 365 3.0996620655059814e-02</internalNodes>
          <leafValues>
            -2.3372250795364380e-01 3.4609875082969666e-01</leafValues></_>
        <_>
          <internalNodes>
            0 -1 124 -1.2202622601762414e-03</internalNodes>
          <leafValues>
            -4.3337500095367432e-01 1.8701928853988647e-01</leafValues></_>
        <_>
          <internalNodes>
            0 -1 113 -2.8650339227169752e-03</internalNodes>
          <leafValues>
            -4.0216806530952454e-01 1.9325909018516541e-01</leafValues></_>
        <_>
          <internalNodes>
            0 -1 409 5.4111070930957794e-03</internalNodes>
          <leafValues>
            -1.8055075407028198e-01 5.3820508718490601e-01</leafValues></_>
        <_>
          <internalNodes>
            0 -1 539 -4.8384210094809532e-04</internalNodes>
          <leafValues>
            3.2607832551002502e-01 -2.3089416325092316e-01</leafValues></_>
        <_>
          <internalNodes>
            0 -1 287 2.7569546364247799e-04</internalNodes>
          <leafValues>
            1.3967561721801758e-01 -5.8519262075424194e-01</leafValues></_>
        <_>
          <internalNodes>
            0 -1 151 -2.1159972995519638e-02</internalNodes>
          <leafValues>
            2.4551774561405182e-01 -3.3721262216567993e-01</leafValues></_>
        <_>
          <internalNodes>
            0 -1 583 1.2554677959997207e-04</internalNodes>
          <leafValues>
            1.4903433620929718e-01 -4.7546672821044922e-01</leafValues></_></weakClassifiers></_>
    <!-- stage 4 -->
    <_>
      <maxWeakCount>21</maxWeakCount>
      <stageThreshold>-1.8470306396484375e+00</stageThreshold>
      <weakClassifiers>
        <_>
          <internalNodes>
            0 -1 196 -2.3759381473064423e-01</internalNodes>
          <leafValues>
            3.9473685622215271e-01 -7.3843413591384888e-01</leafValues></_>
        <_>
          <internalNodes>
            0 -1 606 -3.4581113141030073e-05</internalNodes>
          <leafValues>
            9.9105373024940491e-02 -4.9965927004814148e-01</leafValues></_>
        <_>
          <internalNodes>
            0 -1 291 -2.6477230712771416e-03</internalNodes>
          <leafValues>
            2.4228060245513916e-01 -3.0351275205612183e-01</leafValues></_>
        <_>
          <internalNodes>
            0 -1 452 1.8655317835509777e-03</internalNodes>
          <leafValues>
            -1.2639610469341278e-01 6.2265384197235107e-01</leafValues></_>
        <_>
          <internalNodes>
            0 -1 427 2.2444664500653744e-03</internalNodes>
          <leafValues>
            -1.5185698866844177e-01 5.1654458045959473e-01</leafValues></_>
        <_>
          <internalNodes>
            0 -1 138 2.1036952966824174e-04</internalNodes>
          <leafValues>
            2.0186492800712585e-01 -4.5969954133033752e-01</leafValues></_>
        <_>
          <internalNodes>
            0 -1 17 2.4117637425661087e-02</internalNodes>
          <leafValues>
            1.3099451363086700e-01 -7.6445358991622925e-01</leafValues></_>
        <_>
          <internalNodes>
            0 -1 294 -4.4878106564283371e-05</internalNodes>
          <leafValues>
            2.6671642065048218e-01 -3.5099166631698608e-01</leafValues></_>
        <_>
          <internalNodes>
            0 -1 341 8.5188131779432297e-03</internalNodes>
          <leafValues>
            -2.0290046930313110e-01 4.1540443897247314e-01</leafValues></_>
        <_>
          <internalNodes>
            0 -1 490 7.3548045475035906e-04</internalNodes>
          <leafValues>
            1.5295436978340149e-01 -4.3223819136619568e-01</leafValues></_>
        <_>
          <internalNodes>
            0 -1 577 1.2077020946890116e-03</internalNodes>
          <leafValues>
            -1.5062138438224792e-01 4.7276777029037476e-01</leafValues></_>
        <_>
          <internalNodes>
            0 -1 438 -1.1081238044425845e-03</internalNodes>
          <leafValues>
            -3.7405556440353394e-01 1.7791113257408142e-01</leafValues></_>
        <_>
          <internalNodes>
            0 -1 519 1.7789818812161684e-03</internalNodes>
          <leafValues>
            -1.3181674480438232e-01 5.5965316295623779e-01</leafValues></_>
        <_>
          <internalNodes>
            0 -1 11 -1.9725477322936058e-03</internalNodes>
          <leafValues>
            -4.7120913863182068e-01 1.5083439648151398e-01</leafValues></_>
        <_>
          <internalNodes>
            0 -1 50 -1.1286436021327972e-01</internalNodes>
          <leafValues>
            4.5441317558288574e-01 -1.6464173793792725e-01</leafValues></_>
        <_>
          <internalNodes>
            0 -1 15 1.2437725439667702e-02</internalNodes>
          <leafValues>
            1.6533528268337250e-01 -4.8972249031066895e-01</leafValues></_>
        <_>
          <internalNodes>
            0 -1 371 4.2446264997124672e-03</internalNodes>
          <leafValues>
            -1.1553520709276199e-01 6.4210641384124756e-01</leafValues></_>
        <_>
          <internalNodes>
            0 -1 236 1.7623894382268190e-03</internalNodes>
          <leafValues>
            1.5304459631443024e-01 -4.4843444228172302e-01</leafValues></_>
        <_>
          <internalNodes>
            0 -1 258 -1.8796460935845971e-03</internalNodes>
          <leafValues>
            3.6475700139999390e-01 -1.9831736385822296e-01</leafValues></_>
        <_>
          <internalNodes>
            0 -1 479 3.1731516122817993e-02</internalNodes>
          <leafValues>
            8.2011669874191284e-02 -8.0244845151901245e-01</leafValues></_>
        <_>
          <internalNodes>
            0 -1 502 -3.3609564416110516e-03</internalNodes>
          <leafValues>
            -7.2766184806823730e-01 7.2702340781688690e-02</leafValues></_></weakClassifiers></_>
    <!-- stage 5 -->
    <_>
      <maxWeakCount>66</maxWeakCount>
      <stageThreshold>-2.6024582386016846e+00</stageThreshold>
      <weakClassifiers>
        <_>
          <internalNodes>
            0 -1 58 -2.3524102568626404e-01</internalNodes>
          <leafValues>
            1.1249999701976776e-01 -7.8653848171234131e-01</leafValues></_>
        <_>
          <internalNodes>
            0 -1 319 2.7697978657670319e-04</internalNodes>
          <leafValues>
            -5.3070926666259766e-01 1.8916945159435272e-01</leafValues></_>
        <_>
          <internalNodes>
            0 -1 174 3.6857942177448422e-05</internalNodes>
          <leafValues>
            -3.8277187943458557e-01 3.0092361569404602e-01</leafValues></_>
        <_>
          <internalNodes>
            0 -1 426 -8.0393350799567997e-05</internalNodes>
          <leafValues>
            2.5607496500015259e-01 -3.4691542387008667e-01</leafValues></_>
        <_>
          <internalNodes>
            0 -1 420 -1.3455434702336788e-02</internalNodes>
          <leafValues>
            4.5975750684738159e-01 -1.7592982947826385e-01</leafValues></_>
        <_>
          <internalNodes>
            0 -1 69 1.6376812709495425e-04</internalNodes>
          <leafValues>
            1.8982836604118347e-01 -4.4032540917396545e-01</leafValues></_>
        <_>
          <internalNodes>
            0 -1 237 -4.3865875340998173e-05</internalNodes>
          <leafValues>
            2.8909960389137268e-01 -2.6139813661575317e-01</leafValues></_>
        <_>
          <internalNodes>
            0 -1 21 1.3322673738002777e-01</internalNodes>
          <leafValues>
            -1.2784385681152344e-01 7.1084213256835938e-01</leafValues></_>
        <_>
          <internalNodes>
            0 -1 36 -9.1924674052279443e-05</internalNodes>
          <leafValues>
            -4.5514652132987976e-01 1.8793949484825134e-01</leafValues></_>
        <_>
          <internalNodes>
            0 -1 525 -1.5420431736856699e-04</internalNodes>
          <leafValues>
            2.7144646644592285e-01 -2.7397063374519348e-01</leafValues></_>
        <_>
          <internalNodes>
            0 -1 585 1.3746980112046003e-03</internalNodes>
          <leafValues>
            1.1117797344923019e-01 -6.5518510341644287e-01</leafValues></_>
        <_>
          <internalNodes>
            0 -1 332 -3.8133581256261095e-05</internalNodes>
          <leafValues>
            2.7453038096427917e-01 -2.6372951269149780e-01</leafValues></_>
        <_>
          <internalNodes>
            0 -1 170 5.1203614566475153e-04</internalNodes>
          <leafValues>
            1.7922335863113403e-01 -4.0724158287048340e-01</leafValues></_>
        <_>
          <internalNodes>
            0 -1 586 -2.5953750591725111e-03</internalNodes>
          <leafValues>
            -7.1812027692794800e-01 9.0696416795253754e-02</leafValues></_>
        <_>
          <internalNodes>
            0 -1 457 8.7894953321665525e-04</internalNodes>
          <leafValues>
            -2.0307412743568420e-01 3.7729114294052124e-01</leafValues></_>
        <_>
          <internalNodes>
            0 -1 109 3.7334882654249668e-04</internalNodes>
          <leafValues>
            1.6917601227760315e-01 -4.0211281180381775e-01</leafValues></_>
        <_>
          <internalNodes>
            0 -1 359 -9.8430393263697624e-03</internalNodes>
          <leafValues>
            7.5791490077972412e-01 -8.9061237871646881e-02</leafValues></_>
        <_>
          <internalNodes>
            0 -1 448 -6.0641777236014605e-04</internalNodes>
          <leafValues>
            3.7423345446586609e-01 -1.6865724325180054e-01</leafValues></_>
        <_>
          <internalNodes>
            0 -1 507 -4.3269695015624166e-04</internalNodes>
          <leafValues>
            -4.8751080036163330e-01 1.3470065593719482e-01</leafValues></_>
        <_>
          <internalNodes>
            0 -1 407 -3.3793183974921703e-03</internalNodes>
          <leafValues>
            4.8893257975578308e-01 -1.3252386450767517e-01</leafValues></_>
        <_>
          <internalNodes>
            0 -1 411 9.4376632478088140e-04</internalNodes>
          <leafValues>
            1.3988193869590759e-01 -5.1484936475753784e-01</leafValues></_>
        <_>
          <internalNodes>
            0 -1 454 -4.0538210305385292e-04</internalNodes>
          <leafValues>
            3.9548757672309875e-01 -1.5615069866180420e-01</leafValues></_>
        <_>
          <internalNodes>
            0 -1 145 -2.7197068557143211e-03</internalNodes>
          <leafValues>
            -8.9424377679824829e-01 6.4328774809837341e-02</leafValues></_>
        <_>
          <internalNodes>
            0 -1 567 3.3527738414704800e-03</internalNodes>
          <leafValues>
            5.2992302924394608e-02 -8.1559002399444580e-01</leafValues></_>
        <_>
          <internalNodes>
            0 -1 86 8.3383023738861084e-03</internalNodes>
          <leafValues>
            -1.3586045801639557e-01 4.4415441155433655e-01</leafValues></_>
        <_>
          <internalNodes>
            0 -1 132 1.4970157644711435e-04</internalNodes>
          <leafValues>
            1.6378197073936462e-01 -3.8535192608833313e-01</leafValues></_>
        <_>
          <internalNodes>
            0 -1 349 4.3638567149173468e-05</internalNodes>
          <leafValues>
            -2.0082956552505493e-01 2.7777066826820374e-01</leafValues></_>
        <_>
          <internalNodes>
            0 -1 628 2.4022615980356932e-04</internalNodes>
          <leafValues>
            1.4895629882812500e-01 -4.1385364532470703e-01</leafValues></_>
        <_>
          <internalNodes>
            0 -1 204 -1.1417359113693237e-02</internalNodes>
          <leafValues>
            -8.3871459960937500e-01 7.5954630970954895e-02</leafValues></_>
        <_>
          <internalNodes>
            0 -1 143 -1.6550763975828886e-03</internalNodes>
          <leafValues>
            2.6700893044471741e-01 -2.1556349098682404e-01</leafValues></_>
        <_>
          <internalNodes>
            0 -1 205 -1.0505261889193207e-04</internalNodes>
          <leafValues>
            -3.7487179040908813e-01 1.3061641156673431e-01</leafValues></_>
        <_>
          <internalNodes>
            0 -1 292 -1.0797116160392761e-01</internalNodes>
          <leafValues>
            3.8002917170524597e-01 -1.3283737003803253e-01</leafValues></_>
        <_>
          <internalNodes>
            0 -1 388 -5.2785677835345268e-03</internalNodes>
          <leafValues>
            -3.6728489398956299e-01 1.3116706907749176e-01</leafValues></_>
        <_>
          <internalNodes>
            0 -1 393 4.2715873569250107e-03</internalNodes>
          <leafValues>
            -1.2388066947460175e-01 4.3159571290016174e-01</leafValues></_>
        <_>
          <internalNodes>
            0 -1 61 -9.2091941041871905e-05</internalNodes>
          <leafValues>
            -4.0859749913215637e-01 1.3755691051483154e-01</leafValues></_>
        <_>
          <internalNodes>
            0 -1 324 2.2702101618051529e-02</internalNodes>
          <leafValues>
            5.7836282998323441e-02 -9.2260295152664185e-01</leafValues></_>
        <_>
          <internalNodes>
            0 -1 235 7.2485883720219135e-04</internalNodes>
          <leafValues>
            -1.7871451377868652e-01 3.7435376644134521e-01</leafValues></_>
        <_>
          <internalNodes>
            0 -1 51 3.9770960574969649e-04</internalNodes>
          <leafValues>
            1.3382445275783539e-01 -4.1430467367172241e-01</leafValues></_>
        <_>
          <internalNodes>
            0 -1 367 -2.8021633625030518e-04</internalNodes>
          <leafValues>
            3.5996633768081665e-01 -1.3420738279819489e-01</leafValues></_>
        <_>
          <internalNodes>
            0 -1 177 -1.4368866686709225e-04</internalNodes>
          <leafValues>
            -4.5209494233131409e-01 1.2118420004844666e-01</leafValues></_>
        <_>
          <internalNodes>
            0 -1 374 -5.2519824355840683e-02</internalNodes>
          <leafValues>
            8.6373174190521240e-01 -6.1576031148433685e-02</leafValues></_>
        <_>
          <internalNodes>
            0 -1 54 1.8198003526777029e-03</internalNodes>
          <leafValues>
            1.0599061846733093e-01 -4.8524656891822815e-01</leafValues></_>
        <_>
          <internalNodes>
            0 -1 532 6.0789613053202629e-03</internalNodes>
          <leafValues>
            -1.4552053809165955e-01 3.9902821183204651e-01</leafValues></_>
        <_>
          <internalNodes>
            0 -1 95 -1.1703299242071807e-04</internalNodes>
          <leafValues>
            -4.1492450237274170e-01 1.2609341740608215e-01</leafValues></_>
        <_>
          <internalNodes>
            0 -1 98 5.0129403825849295e-04</internalNodes>
          <leafValues>
            9.9704198539257050e-02 -4.0294155478477478e-01</leafValues></_>
        <_>
          <internalNodes>
            0 -1 523 1.5456698602065444e-03</internalNodes>
          <leafValues>
            -1.6354969143867493e-01 3.7577894330024719e-01</leafValues></_>
        <_>
          <internalNodes>
            0 -1 530 -6.4777940511703491e-02</internalNodes>
          <leafValues>
            5.5610018968582153e-01 -7.8745529055595398e-02</leafValues></_>
        <_>
          <internalNodes>
            0 -1 609 -2.3133872309699655e-04</internalNodes>
          <leafValues>
            -3.5141956806182861e-01 1.3541114330291748e-01</leafValues></_>
        <_>
          <internalNodes>
            0 -1 423 4.6208579442463815e-04</internalNodes>
          <leafValues>
            -1.0906489938497543e-01 4.5641478896141052e-01</leafValues></_>
        <_>
          <internalNodes>
            0 -1 624 1.5505190822295845e-04</internalNodes>
          <leafValues>
            1.2726621329784393e-01 -4.2643740773200989e-01</leafValues></_>
        <_>
          <internalNodes>
            0 -1 500 1.8292419612407684e-02</internalNodes>
          <leafValues>
            -8.1531129777431488e-02 6.1246597766876221e-01</leafValues></_>
        <_>
          <internalNodes>
            0 -1 395 2.1979268640279770e-03</internalNodes>
          <leafValues>
            1.2531740963459015e-01 -3.5054123401641846e-01</leafValues></_>
        <_>
          <internalNodes>
            0 -1 517 1.5530746895819902e-04</internalNodes>
          <leafValues>
            -1.5119427442550659e-01 3.4916189312934875e-01</leafValues></_>
        <_>
          <internalNodes>
            0 -1 352 -4.2169429361820221e-03</internalNodes>
          <leafValues>
            -8.0049884319305420e-01 4.7388065606355667e-02</leafValues></_>
        <_>
          <internalNodes>
            0 -1 535 -1.4073873870074749e-02</internalNodes>
          <leafValues>
            -7.2540187835693359e-01 4.2352676391601563e-02</leafValues></_>
        <_>
          <internalNodes>
            0 -1 550 1.0250532068312168e-03</internalNodes>
          <leafValues>
            -9.3929193913936615e-02 4.7194728255271912e-01</leafValues></_>
        <_>
          <internalNodes>
            0 -1 634 -9.6924172248691320e-04</internalNodes>
          <leafValues>
            -3.9425742626190186e-01 1.0016634315252304e-01</leafValues></_>
        <_>
          <internalNodes>
            0 -1 67 -4.6032980084419250e-02</internalNodes>
          <leafValues>
            3.9121723175048828e-01 -9.5630399882793427e-02</leafValues></_>
        <_>
          <internalNodes>
            0 -1 173 -2.2579319775104523e-02</internalNodes>
          <leafValues>
            -7.1501654386520386e-01 5.6099701672792435e-02</leafValues></_>
        <_>
          <internalNodes>
            0 -1 63 1.1849364265799522e-02</internalNodes>
          <leafValues>
            6.4916945993900299e-02 -4.9004229903221130e-01</leafValues></_>
        <_>
          <internalNodes>
            0 -1 487 -1.4584574091713876e-04</internalNodes>
          <leafValues>
            3.4476602077484131e-01 -1.2334453314542770e-01</leafValues></_>
        <_>
          <internalNodes>
            0 -1 588 -2.8269239701330662e-03</internalNodes>
          <leafValues>
            -7.2487026453018188e-01 4.9107145518064499e-02</leafValues></_>
        <_>
          <internalNodes>
            0 -1 121 -6.5876748412847519e-03</internalNodes>
          <leafValues>
            5.4658925533294678e-01 -6.6866837441921234e-02</leafValues></_>
        <_>
          <internalNodes>
            0 -1 633 1.3766300980933011e-04</internalNodes>
          <leafValues>
            7.7060259878635406e-02 -4.6653991937637329e-01</leafValues></_>
        <_>
          <internalNodes>
            0 -1 478 -1.1710269609466195e-03</internalNodes>
          <leafValues>
            4.8580199480056763e-01 -6.9454781711101532e-02</leafValues></_>
        <_>
          <internalNodes>
            0 -1 353 9.4658433226868510e-05</internalNodes>
          <leafValues>
            8.1419579684734344e-02 -4.2801490426063538e-01</leafValues></_></weakClassifiers></_>
    <!-- stage 6 -->
    <_>
      <maxWeakCount>14</maxWeakCount>
      <stageThreshold>-1.6712795495986938e+00</stageThreshold>
      <weakClassifiers>
        <_>
          <internalNodes>
            0 -1 82 -3.8787551224231720e-02</internalNodes>
          <leafValues>
            4.7368422150611877e-01 -7.0395869016647339e-01</leafValues></_>
        <_>
          <internalNodes>
            0 -1 110 1.4493682829197496e-04</internalNodes>
          <leafValues>
            1.3483441434800625e-02 -5.7684373855590820e-01</leafValues></_>
        <_>
          <internalNodes>
            0 -1 593 -4.4418155448511243e-04</internalNodes>
          <leafValues>
            2.5939777493476868e-01 -2.7668198943138123e-01</leafValues></_>
        <_>
          <internalNodes>
            0 -1 635 -3.5693316021934152e-04</internalNodes>
          <leafValues>
            -3.6619934439659119e-01 1.8563298881053925e-01</leafValues></_>
        <_>
          <internalNodes>
            0 -1 166 -5.1291764248162508e-04</internalNodes>
          <leafValues>
            2.4909472465515137e-01 -2.8070002794265747e-01</leafValues></_>
        <_>
          <internalNodes>
            0 -1 526 2.4123041657730937e-04</internalNodes>
          <leafValues>
            1.6385012865066528e-01 -4.7720447182655334e-01</leafValues></_>
        <_>
          <internalNodes>
            0 -1 526 -1.0584247502265498e-04</internalNodes>
          <leafValues>
            -3.7797200679779053e-01 2.3353491723537445e-01</leafValues></_>
        <_>
          <internalNodes>
            0 -1 495 -2.7171224355697632e-03</internalNodes>
          <leafValues>
            2.7554789185523987e-01 -2.5473487377166748e-01</leafValues></_>
        <_>
          <internalNodes>
            0 -1 621 9.0248722699470818e-05</internalNodes>
          <leafValues>
            1.7430192232131958e-01 -3.7395200133323669e-01</leafValues></_>
        <_>
          <internalNodes>
            0 -1 150 -2.2665943833999336e-04</internalNodes>
          <leafValues>
            -3.7965735793113708e-01 1.6625514626502991e-01</leafValues></_>
        <_>
          <internalNodes>
            0 -1 78 -2.2726226598024368e-03</internalNodes>
          <leafValues>
            5.9658700227737427e-01 -1.1300378292798996e-01</leafValues></_>
        <_>
          <internalNodes>
            0 -1 152 -3.9630431274417788e-05</internalNodes>
          <leafValues>
            -3.2469519972801208e-01 2.3073188960552216e-01</leafValues></_>
        <_>
          <internalNodes>
            0 -1 69 -6.1189835832919925e-05</internalNodes>
          <leafValues>
            -3.1869083642959595e-01 1.8639223277568817e-01</leafValues></_>
        <_>
          <internalNodes>
            0 -1 461 -8.8103115558624268e-04</internalNodes>
          <leafValues>
            2.4487036466598511e-01 -2.7300572395324707e-01</leafValues></_></weakClassifiers></_>
    <!-- stage 7 -->
    <_>
      <maxWeakCount>32</maxWeakCount>
      <stageThreshold>-2.4863922595977783e+00</stageThreshold>
      <weakClassifiers>
        <_>
          <internalNodes>
            0 -1 449 -3.2615480013191700e-03</internalNodes>
          <leafValues>
            4.0594059228897095e-01 -7.6524114608764648e-01</leafValues></_>
        <_>
          <internalNodes>
            0 -1 455 1.0604523122310638e-03</internalNodes>
          <leafValues>
            -4.2421287298202515e-01 6.7993754148483276e-01</leafValues></_>
        <_>
          <internalNodes>
            0 -1 111 4.1889645217452198e-05</internalNodes>
          <leafValues>
            -3.8871788978576660e-01 4.3903681635856628e-01</leafValues></_>
        <_>
          <internalNodes>
            0 -1 476 -2.2493299911729991e-04</internalNodes>
          <leafValues>
            6.2570369243621826e-01 -2.3039926588535309e-01</leafValues></_>
        <_>
          <internalNodes>
            0 -1 317 4.3271013419143856e-04</internalNodes>
          <leafValues>
            -1.9402210414409637e-01 6.6294348239898682e-01</leafValues></_>
        <_>
          <internalNodes>
            0 -1 344 -2.4234203738160431e-04</internalNodes>
          <leafValues>
            6.4545750617980957e-01 -1.9631689786911011e-01</leafValues></_>
        <_>
          <internalNodes>
            0 -1 219 2.6053152978420258e-03</internalNodes>
          <leafValues>
            -1.2363011389970779e-01 7.7595067024230957e-01</leafValues></_>
        <_>
          <internalNodes>
            0 -1 233 4.6929251402616501e-03</internalNodes>
          <leafValues>
            -1.4027795195579529e-01 6.8193900585174561e-01</leafValues></_>
        <_>
          <internalNodes>
            0 -1 369 3.9881318807601929e-03</internalNodes>
          <leafValues>
            -1.3257856667041779e-01 6.6906911134719849e-01</leafValues></_>
        <_>
          <internalNodes>
            0 -1 40 7.2702839970588684e-03</internalNodes>
          <leafValues>
            2.1174719929695129e-01 -5.3095048666000366e-01</leafValues></_>
        <_>
          <internalNodes>
            0 -1 169 6.9950110628269613e-05</internalNodes>
          <leafValues>
            -3.4254789352416992e-01 3.4997418522834778e-01</leafValues></_>
        <_>
          <internalNodes>
            0 -1 240 5.7113451475743204e-05</internalNodes>
          <leafValues>
            1.9718256592750549e-01 -5.3685075044631958e-01</leafValues></_>
        <_>
          <internalNodes>
            0 -1 598 1.2919986620545387e-03</internalNodes>
          <leafValues>
            -1.4591456949710846e-01 6.9320118427276611e-01</leafValues></_>
        <_>
          <internalNodes>
            0 -1 101 -1.0864333489735145e-05</internalNodes>
          <leafValues>
            -5.0549989938735962e-01 1.9865420460700989e-01</leafValues></_>
        <_>
          <internalNodes>
            0 -1 456 6.5576052293181419e-04</internalNodes>
          <leafValues>
            -1.7525689303874969e-01 6.0088706016540527e-01</leafValues></_>
        <_>
          <internalNodes>
            0 -1 396 -2.0399200730025768e-03</internalNodes>
          <leafValues>
            7.5625777244567871e-01 -1.1162821948528290e-01</leafValues></_>
        <_>
          <internalNodes>
            0 -1 234 -9.8117881861981004e-05</internalNodes>
          <leafValues>
            -4.7012156248092651e-01 1.9102658331394196e-01</leafValues></_>
        <_>
          <internalNodes>
            0 -1 172 4.0697269141674042e-03</internalNodes>
          <leafValues>
            -9.4027481973171234e-02 9.4507205486297607e-01</leafValues></_>
        <_>
          <internalNodes>
            0 -1 404 6.2565761618316174e-04</internalNodes>
          <leafValues>
            -9.7098171710968018e-02 6.9037497043609619e-01</leafValues></_>
        <_>
          <internalNodes>
            0 -1 326 -6.7355528473854065e-02</internalNodes>
          <leafValues>
            -9.0806156396865845e-01 9.7908467054367065e-02</leafValues></_>
        <_>
          <internalNodes>
            0 -1 185 4.8712145537137985e-02</internalNodes>
          <leafValues>
            7.2046272456645966e-02 -8.9895331859588623e-01</leafValues></_>
        <_>
          <internalNodes>
            0 -1 508 8.1016687909141183e-04</internalNodes>
          <leafValues>
            -1.2946343421936035e-01 8.3644783496856689e-01</leafValues></_>
        <_>
          <internalNodes>
            0 -1 53 4.1405775118619204e-04</internalNodes>
          <leafValues>
            1.6143111884593964e-01 -6.2309539318084717e-01</leafValues></_>
        <_>
          <internalNodes>
            0 -1 424 4.8643059562891722e-04</internalNodes>
          <leafValues>
            -1.2695230543613434e-01 7.5939798355102539e-01</leafValues></_>
        <_>
          <internalNodes>
            0 -1 480 -1.7044643755070865e-04</internalNodes>
          <leafValues>
            5.6759363412857056e-01 -1.1861728876829147e-01</leafValues></_>
        <_>
          <internalNodes>
            0 -1 381 -4.6047521755099297e-04</internalNodes>
          <leafValues>
            -5.0163358449935913e-01 1.8104542791843414e-01</leafValues></_>
        <_>
          <internalNodes>
            0 -1 498 -2.0600750576704741e-03</internalNodes>
          <leafValues>
            7.4773138761520386e-01 -9.8524250090122223e-02</leafValues></_>
        <_>
          <internalNodes>
            0 -1 62 4.5830040471628308e-04</internalNodes>
          <leafValues>
            1.7570091784000397e-01 -5.0195831060409546e-01</leafValues></_>
        <_>
          <internalNodes>
            0 -1 224 1.4030078891664743e-03</internalNodes>
          <leafValues>
            -9.8644725978374481e-02 7.4136811494827271e-01</leafValues></_>
        <_>
          <internalNodes>
            0 -1 57 3.4103840589523315e-02</internalNodes>
          <leafValues>
            8.4779232740402222e-02 -8.4839987754821777e-01</leafValues></_>
        <_>
          <internalNodes>
            0 -1 299 -1.1094000656157732e-03</internalNodes>
          <leafValues>
            7.7334403991699219e-01 -9.6801534295082092e-02</leafValues></_>
        <_>
          <internalNodes>
            0 -1 625 1.2362427696643863e-05</internalNodes>
          <leafValues>
            1.7295919358730316e-01 -3.8063150644302368e-01</leafValues></_></weakClassifiers></_>
    <!-- stage 8 -->
    <_>
      <maxWeakCount>100</maxWeakCount>
      <stageThreshold>-2.8487164974212646e+00</stageThreshold>
      <weakClassifiers>
        <_>
          <internalNodes>
            0 -1 136 7.8119184763636440e-05</internalNodes>
          <leafValues>
            -8.7940841913223267e-01 -8.4112152457237244e-02</leafValues></_>
        <_>
          <internalNodes>
            0 -1 622 -3.6829889722866938e-05</internalNodes>
          <leafValues>
            2.6919591426849365e-01 -6.2814062833786011e-01</leafValues></_>
        <_>
          <internalNodes>
            0 -1 279 2.3010217119008303e-03</internalNodes>
          <leafValues>
            -2.8253418207168579e-01 7.0629823207855225e-01</leafValues></_>
        <_>
          <internalNodes>
            0 -1 179 -8.4520215750671923e-05</internalNodes>
          <leafValues>
            3.8637861609458923e-01 -3.6495584249496460e-01</leafValues></_>
        <_>
          <internalNodes>
            0 -1 472 5.6862877681851387e-03</internalNodes>
          <leafValues>
            -2.5905653834342957e-01 4.6749699115753174e-01</leafValues></_>
        <_>
          <internalNodes>
            0 -1 123 1.2267415877431631e-03</internalNodes>
          <leafValues>
            -1.1002962291240692e-01 8.6789107322692871e-01</leafValues></_>
        <_>
          <internalNodes>
            0 -1 418 -3.8470947183668613e-03</internalNodes>
          <leafValues>
            6.7171359062194824e-01 -1.2390431761741638e-01</leafValues></_>
        <_>
          <internalNodes>
            0 -1 47 -2.2051295265555382e-02</internalNodes>
          <leafValues>
            7.5831973552703857e-01 -1.0235350579023361e-01</leafValues></_>
        <_>
          <internalNodes>
            0 -1 419 -5.6518479250371456e-03</internalNodes>
          <leafValues>
            8.1396043300628662e-01 -8.6512237787246704e-02</leafValues></_>
        <_>
          <internalNodes>
            0 -1 186 -2.6512998156249523e-03</internalNodes>
          <leafValues>
            -3.6153715848922729e-01 2.4373361468315125e-01</leafValues></_>
        <_>
          <internalNodes>
            0 -1 125 5.6097730994224548e-03</internalNodes>
          <leafValues>
            -9.9566578865051270e-02 8.9832144975662231e-01</leafValues></_>
        <_>
          <internalNodes>
            0 -1 375 -3.1269532628357410e-03</internalNodes>
          <leafValues>
            5.5186885595321655e-01 -1.2707233428955078e-01</leafValues></_>
        <_>
          <internalNodes>
            0 -1 546 2.6842104271054268e-03</internalNodes>
          <leafValues>
            -1.1687017977237701e-01 6.1301457881927490e-01</leafValues></_>
        <_>
          <internalNodes>
            0 -1 506 -1.2099809828214347e-04</internalNodes>
          <leafValues>
            -4.4271925091743469e-01 2.1103891730308533e-01</leafValues></_>
        <_>
          <internalNodes>
            0 -1 281 -4.2018298991024494e-03</internalNodes>
          <leafValues>
            6.1000531911849976e-01 -1.0159213840961456e-01</leafValues></_>
        <_>
          <internalNodes>
            0 -1 105 -1.0657772691047285e-05</internalNodes>
          <leafValues>
            -4.3076452612876892e-01 1.8242670595645905e-01</leafValues></_>
        <_>
          <internalNodes>
            0 -1 430 -4.8501731362193823e-04</internalNodes>
          <leafValues>
            3.6220934987068176e-01 -1.8472947180271149e-01</leafValues></_>
        <_>
          <internalNodes>
            0 -1 600 2.1286882110871375e-04</internalNodes>
          <leafValues>
            1.4538066089153290e-01 -4.8830652236938477e-01</leafValues></_>
        <_>
          <internalNodes>
            0 -1 378 2.4369088932871819e-03</internalNodes>
          <leafValues>
            -9.7660034894943237e-02 7.2635430097579956e-01</leafValues></_>
        <_>
          <internalNodes>
            0 -1 293 8.4596676751971245e-03</internalNodes>
          <leafValues>
            -6.6275902092456818e-02 7.4133980274200439e-01</leafValues></_>
        <_>
          <internalNodes>
            0 -1 262 -1.2455366551876068e-02</internalNodes>
          <leafValues>
            -5.2366161346435547e-01 1.2141959369182587e-01</leafValues></_>
        <_>
          <internalNodes>
            0 -1 104 -2.1603021305054426e-03</internalNodes>
          <leafValues>
            5.3420066833496094e-01 -1.3349236547946930e-01</leafValues></_>
        <_>
          <internalNodes>
            0 -1 636 7.8415730968117714e-05</internalNodes>
          <leafValues>
            1.4719152450561523e-01 -4.2404136061668396e-01</leafValues></_>
        <_>
          <internalNodes>
            0 -1 589 -7.5114628998562694e-05</internalNodes>
          <leafValues>
            2.7131870388984680e-01 -2.3211032152175903e-01</leafValues></_>
        <_>
          <internalNodes>
            0 -1 619 5.0850081606768072e-05</internalNodes>
          <leafValues>
            1.3686202466487885e-01 -4.7188931703567505e-01</leafValues></_>
        <_>
          <internalNodes>
            0 -1 333 2.6131989434361458e-03</internalNodes>
          <leafValues>
            -1.0590647161006927e-01 5.7673650979995728e-01</leafValues></_>
        <_>
          <internalNodes>
            0 -1 1 -1.0936008038697764e-04</internalNodes>
          <leafValues>
            -5.1934027671813965e-01 1.2672246992588043e-01</leafValues></_>
        <_>
          <internalNodes>
            0 -1 214 -1.6510616987943649e-03</internalNodes>
          <leafValues>
            3.9339736104011536e-01 -1.6309069097042084e-01</leafValues></_>
        <_>
          <internalNodes>
            0 -1 604 1.1648843996226788e-02</internalNodes>
          <leafValues>
            9.3072220683097839e-02 -6.6962963342666626e-01</leafValues></_>
        <_>
          <internalNodes>
            0 -1 348 -7.0045742904767394e-04</internalNodes>
          <leafValues>
            7.3744064569473267e-01 -8.3196885883808136e-02</leafValues></_>
        <_>
          <internalNodes>
            0 -1 614 1.2099229934392497e-05</internalNodes>
          <leafValues>
            1.2382549047470093e-01 -3.8830783963203430e-01</leafValues></_>
        <_>
          <internalNodes>
            0 -1 72 2.1712984889745712e-02</internalNodes>
          <leafValues>
            -7.7561222016811371e-02 7.7457427978515625e-01</leafValues></_>
        <_>
          <internalNodes>
            0 -1 140 5.3217205277178437e-05</internalNodes>
          <leafValues>
            1.1415556073188782e-01 -4.4864884018898010e-01</leafValues></_>
        <_>
          <internalNodes>
            0 -1 533 1.2057202402502298e-03</internalNodes>
          <leafValues>
            -8.9065343141555786e-02 6.0221755504608154e-01</leafValues></_>
        <_>
          <internalNodes>
            0 -1 400 3.6719813942909241e-02</internalNodes>
          <leafValues>
            7.4238441884517670e-02 -7.1221542358398438e-01</leafValues></_>
        <_>
          <internalNodes>
            0 -1 460 -5.8305743150413036e-03</internalNodes>
          <leafValues>
            8.0567169189453125e-01 -6.4964964985847473e-02</leafValues></_>
        <_>
          <internalNodes>
            0 -1 88 8.9438271243125200e-04</internalNodes>
          <leafValues>
            1.2637253105640411e-01 -3.9359363913536072e-01</leafValues></_>
        <_>
          <internalNodes>
            0 -1 482 -1.2629053089767694e-03</internalNodes>
          <leafValues>
            4.8507493734359741e-01 -1.1755721271038055e-01</leafValues></_>
        <_>
          <internalNodes>
            0 -1 408 -2.6856947690248489e-02</internalNodes>
          <leafValues>
            -5.2146387100219727e-01 7.8818574547767639e-02</leafValues></_>
        <_>
          <internalNodes>
            0 -1 505 -5.6814891286194324e-04</internalNodes>
          <leafValues>
            3.6173951625823975e-01 -1.1805325746536255e-01</leafValues></_>
        <_>
          <internalNodes>
            0 -1 633 1.2409106420818716e-04</internalNodes>
          <leafValues>
            7.7917426824569702e-02 -5.7011127471923828e-01</leafValues></_>
        <_>
          <internalNodes>
            0 -1 431 -1.8819244578480721e-03</internalNodes>
          <leafValues>
            6.4589220285415649e-01 -6.9410674273967743e-02</leafValues></_>
        <_>
          <internalNodes>
            0 -1 616 -1.5146296937018633e-04</internalNodes>
          <leafValues>
            -4.5587486028671265e-01 9.7820378839969635e-02</leafValues></_>
        <_>
          <internalNodes>
            0 -1 391 3.1801912700757384e-04</internalNodes>
          <leafValues>
            -1.2266428023576736e-01 3.8226434588432312e-01</leafValues></_>
        <_>
          <internalNodes>
            0 -1 591 -2.0767673850059509e-03</internalNodes>
          <leafValues>
            -4.4892674684524536e-01 8.6038351058959961e-02</leafValues></_>
        <_>
          <internalNodes>
            0 -1 559 -1.1537587270140648e-03</internalNodes>
          <leafValues>
            7.2057664394378662e-01 -5.1864288747310638e-02</leafValues></_>
        <_>
          <internalNodes>
            0 -1 198 -1.1451281898189336e-04</internalNodes>
          <leafValues>
            -3.7048572301864624e-01 9.6193060278892517e-02</leafValues></_>
        <_>
          <internalNodes>
            0 -1 155 -1.3523439411073923e-03</internalNodes>
          <leafValues>
            6.2217074632644653e-01 -6.7840486764907837e-02</leafValues></_>
        <_>
          <internalNodes>
            0 -1 48 1.7156952526420355e-04</internalNodes>
          <leafValues>
            9.6327044069766998e-02 -4.0865221619606018e-01</leafValues></_>
        <_>
          <internalNodes>
            0 -1 443 -6.6157292167190462e-05</internalNodes>
          <leafValues>
            4.1956761479377747e-01 -1.1070842295885086e-01</leafValues></_>
        <_>
          <internalNodes>
            0 -1 268 8.5580088198184967e-03</internalNodes>
          <leafValues>
            -4.8659462481737137e-02 8.3165663480758667e-01</leafValues></_>
        <_>
          <internalNodes>
            0 -1 37 6.2125665135681629e-04</internalNodes>
          <leafValues>
            8.3838015794754028e-02 -5.1099008321762085e-01</leafValues></_>
        <_>
          <internalNodes>
            0 -1 406 -3.1165997497737408e-03</internalNodes>
          <leafValues>
            8.9356386661529541e-01 -3.5587992519140244e-02</leafValues></_>
        <_>
          <internalNodes>
            0 -1 334 -2.0427447743713856e-03</internalNodes>
          <leafValues>
            1. -2.5700924918055534e-02</leafValues></_>
        <_>
          <internalNodes>
            0 -1 542 -4.4817899470217526e-04</internalNodes>
          <leafValues>
            -6.2520867586135864e-01 6.1651047319173813e-02</leafValues></_>
        <_>
          <internalNodes>
            0 -1 360 1.6365163028240204e-03</internalNodes>
          <leafValues>
            -4.3785035610198975e-02 7.4192357063293457e-01</leafValues></_>
        <_>
          <internalNodes>
            0 -1 553 -8.5835941135883331e-03</internalNodes>
          <leafValues>
            -8.1933856010437012e-01 3.4465253353118896e-02</leafValues></_>
        <_>
          <internalNodes>
            0 -1 453 1.3526676048059016e-04</internalNodes>
          <leafValues>
            -6.8048946559429169e-02 4.2903703451156616e-01</leafValues></_>
        <_>
          <internalNodes>
            0 -1 377 -9.1550918295979500e-04</internalNodes>
          <leafValues>
            -6.0435938835144043e-01 5.3594734519720078e-02</leafValues></_>
        <_>
          <internalNodes>
            0 -1 361 5.4257065057754517e-02</internalNodes>
          <leafValues>
            3.7679228931665421e-02 -7.1495640277862549e-01</leafValues></_>
        <_>
          <internalNodes>
            0 -1 270 3.8465752732008696e-03</internalNodes>
          <leafValues>
            -6.1781622469425201e-02 5.0811785459518433e-01</leafValues></_>
        <_>
          <internalNodes>
            0 -1 142 -9.2729998868890107e-05</internalNodes>
          <leafValues>
            -5.5919182300567627e-01 4.4482447206974030e-02</leafValues></_>
        <_>
          <internalNodes>
            0 -1 440 1.8253620713949203e-02</internalNodes>
          <leafValues>
            -2.9618527740240097e-02 7.3023819923400879e-01</leafValues></_>
        <_>
          <internalNodes>
            0 -1 576 -1.1269538663327694e-03</internalNodes>
          <leafValues>
            -7.6318407058715820e-01 2.9604336246848106e-02</leafValues></_>
        <_>
          <internalNodes>
            0 -1 318 2.9419604688882828e-03</internalNodes>
          <leafValues>
            -2.8261989355087280e-02 8.5348868370056152e-01</leafValues></_>
        <_>
          <internalNodes>
            0 -1 385 5.9918537735939026e-03</internalNodes>
          <leafValues>
            -2.4896971881389618e-02 8.0237549543380737e-01</leafValues></_>
        <_>
          <internalNodes>
            0 -1 263 2.9344664653763175e-04</internalNodes>
          <leafValues>
            4.6423923224210739e-02 -5.2482187747955322e-01</leafValues></_>
        <_>
          <internalNodes>
            0 -1 322 7.6217316091060638e-03</internalNodes>
          <leafValues>
            -1.9855398684740067e-02 7.7281320095062256e-01</leafValues></_>
        <_>
          <internalNodes>
            0 -1 372 2.0872228778898716e-03</internalNodes>
          <leafValues>
            -2.4842860177159309e-02 7.2705125808715820e-01</leafValues></_>
        <_>
          <internalNodes>
            0 -1 153 -4.9061607569456100e-04</internalNodes>
          <leafValues>
            -7.0073896646499634e-01 3.5191599279642105e-02</leafValues></_>
        <_>
          <internalNodes>
            0 -1 394 -1.1168031021952629e-02</internalNodes>
          <leafValues>
            6.5799158811569214e-01 -2.4808399379253387e-02</leafValues></_>
        <_>
          <internalNodes>
            0 -1 631 6.1201443895697594e-04</internalNodes>
          <leafValues>
            2.9069239273667336e-02 -7.0069313049316406e-01</leafValues></_>
        <_>
          <internalNodes>
            0 -1 119 -2.7506097685545683e-03</internalNodes>
          <leafValues>
            7.2289514541625977e-01 -2.6196137070655823e-02</leafValues></_>
        <_>
          <internalNodes>
            0 -1 587 8.2659375038929284e-05</internalNodes>
          <leafValues>
            2.8836628422141075e-02 -6.1188340187072754e-01</leafValues></_>
        <_>
          <internalNodes>
            0 -1 441 1.7860384105006233e-05</internalNodes>
          <leafValues>
            -4.2387131601572037e-02 4.5698988437652588e-01</leafValues></_>
        <_>
          <internalNodes>
            0 -1 544 1.5723825199529529e-03</internalNodes>
          <leafValues>
            3.5793926566839218e-02 -6.0181421041488647e-01</leafValues></_>
        <_>
          <internalNodes>
            0 -1 16 -9.1546657495200634e-04</internalNodes>
          <leafValues>
            4.8102551698684692e-01 -2.8553059324622154e-02</leafValues></_>
        <_>
          <internalNodes>
            0 -1 366 3.0274214223027229e-02</internalNodes>
          <leafValues>
            8.4963841363787651e-03 -8.5604000091552734e-01</leafValues></_>
        <_>
          <internalNodes>
            0 -1 340 -2.2305207327008247e-02</internalNodes>
          <leafValues>
            9.4434303045272827e-01 -9.4398288056254387e-03</leafValues></_>
        <_>
          <internalNodes>
            0 -1 558 -7.7979221940040588e-02</internalNodes>
          <leafValues>
            -8.7340927124023438e-01 1.4424002729356289e-02</leafValues></_>
        <_>
          <internalNodes>
            0 -1 297 1.4086786657571793e-02</internalNodes>
          <leafValues>
            -1.3201572000980377e-02 7.7608442306518555e-01</leafValues></_>
        <_>
          <internalNodes>
            0 -1 108 -1.5089944645296782e-04</internalNodes>
          <leafValues>
            -7.2934740781784058e-01 1.9502047449350357e-02</leafValues></_>
        <_>
          <internalNodes>
            0 -1 547 2.6381495408713818e-03</internalNodes>
          <leafValues>
            -1.2756649404764175e-02 7.0958536863327026e-01</leafValues></_>
        <_>
          <internalNodes>
            0 -1 620 -6.2658492242917418e-04</internalNodes>
          <leafValues>
            -7.0154476165771484e-01 1.8381822854280472e-02</leafValues></_>
        <_>
          <internalNodes>
            0 -1 429 7.0281553780660033e-04</internalNodes>
          <leafValues>
            -1.0594260878860950e-02 8.0048322677612305e-01</leafValues></_>
        <_>
          <internalNodes>
            0 -1 135 -3.7375674583017826e-04</internalNodes>
          <leafValues>
            -7.2368258237838745e-01 1.4761276543140411e-02</leafValues></_>
        <_>
          <internalNodes>
            0 -1 376 -2.2976058244239539e-04</internalNodes>
          <leafValues>
            5.5991297960281372e-01 -2.3175846785306931e-02</leafValues></_>
        <_>
          <internalNodes>
            0 -1 251 2.8463348280638456e-03</internalNodes>
          <leafValues>
            1.3067618012428284e-02 -6.5174818038940430e-01</leafValues></_>
        <_>
          <internalNodes>
            0 -1 512 1.5796269290149212e-03</internalNodes>
          <leafValues>
            -8.9563019573688507e-03 7.2996741533279419e-01</leafValues></_>
        <_>
          <internalNodes>
            0 -1 144 1.0620851389830932e-04</internalNodes>
          <leafValues>
            6.1784312129020691e-03 -8.1584024429321289e-01</leafValues></_>
        <_>
          <internalNodes>
            0 -1 116 -3.6369240842759609e-03</internalNodes>
          <leafValues>
            1. -5.8069713413715363e-03</leafValues></_>
        <_>
          <internalNodes>
            0 -1 163 -1.9012042321264744e-03</internalNodes>
          <leafValues>
            -5.9685182571411133e-01 1.7105339094996452e-02</leafValues></_>
        <_>
          <internalNodes>
            0 -1 239 7.7693839557468891e-05</internalNodes>
          <leafValues>
            -9.3065854161977768e-03 7.3998838663101196e-01</leafValues></_>
        <_>
          <internalNodes>
            0 -1 180 7.5749005191028118e-05</internalNodes>
          <leafValues>
            4.9226628616452217e-03 -7.0529991388320923e-01</leafValues></_>
        <_>
          <internalNodes>
            0 -1 129 -1.5893173986114562e-04</internalNodes>
          <leafValues>
            7.8322213888168335e-01 -7.6670520938932896e-03</leafValues></_>
        <_>
          <internalNodes>
            0 -1 445 1.5226593241095543e-03</internalNodes>
          <leafValues>
            4.1628740727901459e-03 -7.4308276176452637e-01</leafValues></_>
        <_>
          <internalNodes>
            0 -1 471 5.2477442659437656e-04</internalNodes>
          <leafValues>
            -5.4637724533677101e-03 8.4620797634124756e-01</leafValues></_>
        <_>
          <internalNodes>
            0 -1 471 5.0373761041555554e-05</internalNodes>
          <leafValues>
            3.5907505080103874e-03 -7.8985875844955444e-01</leafValues></_>
        <_>
          <internalNodes>
            0 -1 531 1.7068254237528890e-04</internalNodes>
          <leafValues>
            -1.3706738827750087e-03 8.0703264474868774e-01</leafValues></_>
        <_>
          <internalNodes>
            0 -1 403 8.1534415949136019e-04</internalNodes>
          <leafValues>
            5.3780633024871349e-03 -8.0533939599990845e-01</leafValues></_></weakClassifiers></_>
    <!-- stage 9 -->
    <_>
      <maxWeakCount>100</maxWeakCount>
      <stageThreshold>-2.8837482929229736e+00</stageThreshold>
      <weakClassifiers>
        <_>
          <internalNodes>
            0 -1 592 -3.7001384043833241e-05</internalNodes>
          <leafValues>
            1.3934426009654999e-01 -8.7238496541976929e-01</leafValues></_>
        <_>
          <internalNodes>
            0 -1 384 -4.5470616896636784e-05</internalNodes>
          <leafValues>
            4.2034769058227539e-01 -6.3858848810195923e-01</leafValues></_>
        <_>
          <internalNodes>
            0 -1 22 -1.4402950000658166e-05</internalNodes>
          <leafValues>
            3.9818185567855835e-01 -5.2151829004287720e-01</leafValues></_>
        <_>
          <internalNodes>
            0 -1 485 2.5624869158491492e-04</internalNodes>
          <leafValues>
            -3.3432641625404358e-01 5.0029534101486206e-01</leafValues></_>
        <_>
          <internalNodes>
            0 -1 401 1.3755081221461296e-02</internalNodes>
          <leafValues>
            -2.0948006212711334e-01 5.9086388349533081e-01</leafValues></_>
        <_>
          <internalNodes>
            0 -1 56 4.3428444769233465e-05</internalNodes>
          <leafValues>
            -2.2588251531124115e-01 4.8225831985473633e-01</leafValues></_>
        <_>
          <internalNodes>
            0 -1 250 1.8193082883954048e-02</internalNodes>
          <leafValues>
            -1.4851276576519012e-01 6.0536378622055054e-01</leafValues></_>
        <_>
          <internalNodes>
            0 -1 437 1.8723886460065842e-03</internalNodes>
          <leafValues>
            1.4952895045280457e-01 -6.3561308383941650e-01</leafValues></_>
        <_>
          <internalNodes>
            0 -1 160 2.8330713510513306e-02</internalNodes>
          <leafValues>
            -1.2554354965686798e-01 7.7625435590744019e-01</leafValues></_>
        <_>
          <internalNodes>
            0 -1 561 2.4041365832090378e-02</internalNodes>
          <leafValues>
            -7.1371830999851227e-02 8.2558870315551758e-01</leafValues></_>
        <_>
          <internalNodes>
            0 -1 38 -7.7122286893427372e-04</internalNodes>
          <leafValues>
            -4.6783262491226196e-01 1.8041077256202698e-01</leafValues></_>
        <_>
          <internalNodes>
            0 -1 582 -5.1981947763124481e-05</internalNodes>
          <leafValues>
            4.3148240447044373e-01 -2.1671868860721588e-01</leafValues></_>
        <_>
          <internalNodes>
            0 -1 623 2.9812376014888287e-03</internalNodes>
          <leafValues>
            1.5417414903640747e-01 -4.7841593623161316e-01</leafValues></_>
        <_>
          <internalNodes>
            0 -1 189 -1.1321889236569405e-02</internalNodes>
          <leafValues>
            5.0428664684295654e-01 -1.6983561217784882e-01</leafValues></_>
        <_>
          <internalNodes>
            0 -1 213 -1.3143768906593323e-01</internalNodes>
          <leafValues>
            -6.4612400531768799e-01 1.1957708746194839e-01</leafValues></_>
        <_>
          <internalNodes>
            0 -1 149 -5.2042091265320778e-03</internalNodes>
          <leafValues>
            -4.3766838312149048e-01 1.3596935570240021e-01</leafValues></_>
        <_>
          <internalNodes>
            0 -1 511 -5.0372022087685764e-05</internalNodes>
          <leafValues>
            4.1704973578453064e-01 -1.7306914925575256e-01</leafValues></_>
        <_>
          <internalNodes>
            0 -1 412 -7.7943591168150306e-04</internalNodes>
          <leafValues>
            -4.8271682858467102e-01 1.4703094959259033e-01</leafValues></_>
        <_>
          <internalNodes>
            0 -1 459 -2.8049817774444818e-04</internalNodes>
          <leafValues>
            4.3903961777687073e-01 -1.6055119037628174e-01</leafValues></_>
        <_>
          <internalNodes>
            0 -1 158 8.7633804650977254e-04</internalNodes>
          <leafValues>
            1.3470190763473511e-01 -4.5532667636871338e-01</leafValues></_>
        <_>
          <internalNodes>
            0 -1 514 8.5856113582849503e-03</internalNodes>
          <leafValues>
            -1.3753610849380493e-01 4.6520781517028809e-01</leafValues></_>
        <_>
          <internalNodes>
            0 -1 325 -3.2972040935419500e-04</internalNodes>
          <leafValues>
            -4.3286582827568054e-01 1.4233781397342682e-01</leafValues></_>
        <_>
          <internalNodes>
            0 -1 266 -2.0290296524763107e-03</internalNodes>
          <leafValues>
            5.8862310647964478e-01 -1.2198632955551147e-01</leafValues></_>
        <_>
          <internalNodes>
            0 -1 64 1.2315296335145831e-03</internalNodes>
          <leafValues>
            1.0347075760364532e-01 -6.1486274003982544e-01</leafValues></_>
        <_>
          <internalNodes>
            0 -1 284 1.1125326156616211e-02</internalNodes>
          <leafValues>
            -1.1559214442968369e-01 5.4181873798370361e-01</leafValues></_>
        <_>
          <internalNodes>
            0 -1 75 -3.2743923366069794e-02</internalNodes>
          <leafValues>
            1. -4.6388547867536545e-02</leafValues></_>
        <_>
          <internalNodes>
            0 -1 195 -3.1389412470161915e-04</internalNodes>
          <leafValues>
            -4.4559556245803833e-01 1.3477441668510437e-01</leafValues></_>
        <_>
          <internalNodes>
            0 -1 532 1.2794321402907372e-02</internalNodes>
          <leafValues>
            -1.1074148118495941e-01 4.7593155503273010e-01</leafValues></_>
        <_>
          <internalNodes>
            0 -1 31 -2.0367531105875969e-03</internalNodes>
          <leafValues>
            -4.9678122997283936e-01 1.2260086834430695e-01</leafValues></_>
        <_>
          <internalNodes>
            0 -1 29 4.0588802221463993e-05</internalNodes>
          <leafValues>
            -1.4530950784683228e-01 3.5653215646743774e-01</leafValues></_>
        <_>
          <internalNodes>
            0 -1 257 -2.1527474746108055e-03</internalNodes>
          <leafValues>
            -3.2212635874748230e-01 1.6057458519935608e-01</leafValues></_>
        <_>
          <internalNodes>
            0 -1 433 -4.8745219828560948e-05</internalNodes>
          <leafValues>
            4.1493615508079529e-01 -1.2815669178962708e-01</leafValues></_>
        <_>
          <internalNodes>
            0 -1 102 -4.2580178705975413e-04</internalNodes>
          <leafValues>
            -5.1468145847320557e-01 8.9074820280075073e-02</leafValues></_>
        <_>
          <internalNodes>
            0 -1 261 3.5524242557585239e-03</internalNodes>
          <leafValues>
            -8.5920304059982300e-02 5.9261882305145264e-01</leafValues></_>
        <_>
          <internalNodes>
            0 -1 484 7.0309179136529565e-04</internalNodes>
          <leafValues>
            1.1952809989452362e-01 -3.6218705773353577e-01</leafValues></_>
        <_>
          <internalNodes>
            0 -1 428 -3.8438959745690227e-04</internalNodes>
          <leafValues>
            5.1087188720703125e-01 -9.9211171269416809e-02</leafValues></_>
        <_>
          <internalNodes>
            0 -1 65 -3.1811320222914219e-03</internalNodes>
          <leafValues>
            -5.4826050996780396e-01 7.9442054033279419e-02</leafValues></_>
        <_>
          <internalNodes>
            0 -1 501 1.4155287295579910e-02</internalNodes>
          <leafValues>
            -7.3880881071090698e-02 5.8124202489852905e-01</leafValues></_>
        <_>
          <internalNodes>
            0 -1 265 2.9386093374341726e-03</internalNodes>
          <leafValues>
            6.7688763141632080e-02 -6.0019952058792114e-01</leafValues></_>
        <_>
          <internalNodes>
            0 -1 302 4.0083630010485649e-03</internalNodes>
          <leafValues>
            -5.8790739625692368e-02 7.1006327867507935e-01</leafValues></_>
        <_>
          <internalNodes>
            0 -1 354 -2.6447102427482605e-03</internalNodes>
          <leafValues>
            -6.5208631753921509e-01 6.5371572971343994e-02</leafValues></_>
        <_>
          <internalNodes>
            0 -1 242 -6.1949320137500763e-02</internalNodes>
          <leafValues>
            5.1481825113296509e-01 -8.8559485971927643e-02</leafValues></_>
        <_>
          <internalNodes>
            0 -1 584 1.1561732389964163e-04</internalNodes>
          <leafValues>
            9.2285953462123871e-02 -4.5795458555221558e-01</leafValues></_>
        <_>
          <internalNodes>
            0 -1 515 3.3609591424465179e-02</internalNodes>
          <leafValues>
            -6.5988242626190186e-02 6.0220932960510254e-01</leafValues></_>
        <_>
          <internalNodes>
            0 -1 147 -3.2159637659788132e-02</internalNodes>
          <leafValues>
            -9.0043109655380249e-01 4.0327556431293488e-02</leafValues></_>
        <_>
          <internalNodes>
            0 -1 89 -1.7457012087106705e-02</internalNodes>
          <leafValues>
            8.5388809442520142e-01 -5.0535395741462708e-02</leafValues></_>
        <_>
          <internalNodes>
            0 -1 389 2.3963053245097399e-03</internalNodes>
          <leafValues>
            4.4461295008659363e-02 -9.7119975090026855e-01</leafValues></_>
        <_>
          <internalNodes>
            0 -1 168 7.7884565107524395e-03</internalNodes>
          <leafValues>
            3.6790136247873306e-02 -7.2574222087860107e-01</leafValues></_>
        <_>
          <internalNodes>
            0 -1 552 2.0254085029591806e-05</internalNodes>
          <leafValues>
            -8.6550854146480560e-02 4.1217768192291260e-01</leafValues></_>
        <_>
          <internalNodes>
            0 -1 387 -7.2660215664654970e-04</internalNodes>
          <leafValues>
            -4.1627141833305359e-01 9.2551171779632568e-02</leafValues></_>
        <_>
          <internalNodes>
            0 -1 342 -1.8443515291437507e-03</internalNodes>
          <leafValues>
            6.0818862915039063e-01 -5.0449185073375702e-02</leafValues></_>
        <_>
          <internalNodes>
            0 -1 608 1.4251227548811585e-04</internalNodes>
          <leafValues>
            6.2148611992597580e-02 -5.3623420000076294e-01</leafValues></_>
        <_>
          <internalNodes>
            0 -1 405 -2.6243121828883886e-04</internalNodes>
          <leafValues>
            5.5764323472976685e-01 -6.7118220031261444e-02</leafValues></_>
        <_>
          <internalNodes>
            0 -1 118 -3.3067923039197922e-02</internalNodes>
          <leafValues>
            9.6291112899780273e-01 -4.0282800793647766e-02</leafValues></_>
        <_>
          <internalNodes>
            0 -1 228 4.9007168854586780e-05</internalNodes>
          <leafValues>
            8.5398904979228973e-02 -4.3491083383560181e-01</leafValues></_>
        <_>
          <internalNodes>
            0 -1 321 -1.3173578307032585e-02</internalNodes>
          <leafValues>
            8.4255784749984741e-01 -3.2917357981204987e-02</leafValues></_>
        <_>
          <internalNodes>
            0 -1 215 -1.4482904225587845e-03</internalNodes>
          <leafValues>
            -7.1573632955551147e-01 4.5650269836187363e-02</leafValues></_>
        <_>
          <internalNodes>
            0 -1 439 -3.1881267204880714e-04</internalNodes>
          <leafValues>
            5.3521132469177246e-01 -7.0312432944774628e-02</leafValues></_>
        <_>
          <internalNodes>
            0 -1 571 7.6200609328225255e-05</internalNodes>
          <leafValues>
            5.0433605909347534e-02 -4.6979433298110962e-01</leafValues></_>
        <_>
          <internalNodes>
            0 -1 187 -3.3066659234464169e-03</internalNodes>
          <leafValues>
            7.1796333789825439e-01 -3.9349049329757690e-02</leafValues></_>
        <_>
          <internalNodes>
            0 -1 209 -1.9326873589307070e-03</internalNodes>
          <leafValues>
            -7.7904158830642700e-01 3.3296465873718262e-02</leafValues></_>
        <_>
          <internalNodes>
            0 -1 422 -9.2486560344696045e-02</internalNodes>
          <leafValues>
            -8.0939269065856934e-01 2.8184182941913605e-02</leafValues></_>
        <_>
          <internalNodes>
            0 -1 247 2.5235254317522049e-02</internalNodes>
          <leafValues>
            -4.9443919211626053e-02 5.7281684875488281e-01</leafValues></_>
        <_>
          <internalNodes>
            0 -1 364 4.8493454232811928e-03</internalNodes>
          <leafValues>
            2.2059595212340355e-02 -8.5695159435272217e-01</leafValues></_>
        <_>
          <internalNodes>
            0 -1 307 3.4967362880706787e-03</internalNodes>
          <leafValues>
            -3.0470572412014008e-02 7.3504173755645752e-01</leafValues></_>
        <_>
          <internalNodes>
            0 -1 49 2.6296114083379507e-04</internalNodes>
          <leafValues>
            3.6169670522212982e-02 -5.6993812322616577e-01</leafValues></_>
        <_>
          <internalNodes>
            0 -1 92 6.4986012876033783e-04</internalNodes>
          <leafValues>
            -1.2845056131482124e-02 7.8246748447418213e-01</leafValues></_>
        <_>
          <internalNodes>
            0 -1 581 2.8840191662311554e-03</internalNodes>
          <leafValues>
            1.3674251735210419e-02 -8.6509937047958374e-01</leafValues></_>
        <_>
          <internalNodes>
            0 -1 286 -3.8901827792869881e-05</internalNodes>
          <leafValues>
            5.1992034912109375e-01 -3.5284277051687241e-02</leafValues></_>
        <_>
          <internalNodes>
            0 -1 557 1.9184916163794696e-04</internalNodes>
          <leafValues>
            3.0302401632070541e-02 -5.6084865331649780e-01</leafValues></_>
        <_>
          <internalNodes>
            0 -1 475 4.6816803514957428e-02</internalNodes>
          <leafValues>
            -1.9332883879542351e-02 7.1230190992355347e-01</leafValues></_>
        <_>
          <internalNodes>
            0 -1 220 1.3063120422884822e-03</internalNodes>
          <leafValues>
            3.4470669925212860e-02 -4.7155794501304626e-01</leafValues></_>
        <_>
          <internalNodes>
            0 -1 29 4.0555780287832022e-05</internalNodes>
          <leafValues>
            -2.6957390829920769e-02 5.6507694721221924e-01</leafValues></_>
        <_>
          <internalNodes>
            0 -1 275 1.2209387205075473e-04</internalNodes>
          <leafValues>
            1.9293239340186119e-02 -5.8741033077239990e-01</leafValues></_>
        <_>
          <internalNodes>
            0 -1 548 2.4340226082131267e-04</internalNodes>
          <leafValues>
            -1.9045760855078697e-02 5.7823234796524048e-01</leafValues></_>
        <_>
          <internalNodes>
            0 -1 162 -2.2313054651021957e-03</internalNodes>
          <leafValues>
            -7.0147806406021118e-01 1.3004182837903500e-02</leafValues></_>
        <_>
          <internalNodes>
            0 -1 602 6.4869789639487863e-04</internalNodes>
          <leafValues>
            -9.9591081961989403e-03 8.1959414482116699e-01</leafValues></_>
        <_>
          <internalNodes>
            0 -1 564 -1.2575525324791670e-03</internalNodes>
          <leafValues>
            -7.9494881629943848e-01 1.2271002866327763e-02</leafValues></_>
        <_>
          <internalNodes>
            0 -1 278 -4.2546363547444344e-03</internalNodes>
          <leafValues>
            7.5811630487442017e-01 -1.2576711364090443e-02</leafValues></_>
        <_>
          <internalNodes>
            0 -1 308 -1.9540260836947709e-04</internalNodes>
          <leafValues>
            -5.5322241783142090e-01 1.8521800637245178e-02</leafValues></_>
        <_>
          <internalNodes>
            0 -1 283 5.3265495807863772e-05</internalNodes>
          <leafValues>
            -1.7756562680006027e-02 5.8860337734222412e-01</leafValues></_>
        <_>
          <internalNodes>
            0 -1 222 2.0779455080628395e-03</internalNodes>
          <leafValues>
            7.5302971526980400e-03 -6.5764129161834717e-01</leafValues></_>
        <_>
          <internalNodes>
            0 -1 134 -5.0127433496527374e-05</internalNodes>
          <leafValues>
            8.0251222848892212e-01 -2.6040954980999231e-03</leafValues></_>
        <_>
          <internalNodes>
            0 -1 131 -3.0459850095212460e-03</internalNodes>
          <leafValues>
            -9.1491705179214478e-01 3.6591351963579655e-03</leafValues></_>
        <_>
          <internalNodes>
            0 -1 363 -2.7206383645534515e-02</internalNodes>
          <leafValues>
            6.3997787237167358e-01 -1.6377136111259460e-02</leafValues></_>
        <_>
          <internalNodes>
            0 -1 210 -1.0962665081024170e-02</internalNodes>
          <leafValues>
            -7.1573764085769653e-01 2.1028649061918259e-02</leafValues></_>
        <_>
          <internalNodes>
            0 -1 227 -1.5169903635978699e-02</internalNodes>
          <leafValues>
            8.6347401142120361e-01 -2.8580266516655684e-03</leafValues></_>
        <_>
          <internalNodes>
            0 -1 612 1.1707833618856966e-04</internalNodes>
          <leafValues>
            9.2841153964400291e-03 -6.1049526929855347e-01</leafValues></_>
        <_>
          <internalNodes>
            0 -1 337 -2.2842054022476077e-04</internalNodes>
          <leafValues>
            8.8814365863800049e-01 -1.2793010100722313e-02</leafValues></_>
        <_>
          <internalNodes>
            0 -1 470 -2.9819583869539201e-04</internalNodes>
          <leafValues>
            -7.4502700567245483e-01 7.1930265985429287e-03</leafValues></_>
        <_>
          <internalNodes>
            0 -1 34 -3.3031689235940576e-04</internalNodes>
          <leafValues>
            8.1847482919692993e-01 -6.6704987548291683e-03</leafValues></_>
        <_>
          <internalNodes>
            0 -1 238 -5.9492398577276617e-05</internalNodes>
          <leafValues>
            -8.1707572937011719e-01 6.3031069003045559e-03</leafValues></_>
        <_>
          <internalNodes>
            0 -1 267 -1.8911979859694839e-03</internalNodes>
          <leafValues>
            9.4841742515563965e-01 -1.5011342475190759e-03</leafValues></_>
        <_>
          <internalNodes>
            0 -1 358 -4.0033031255006790e-03</internalNodes>
          <leafValues>
            -9.4638192653656006e-01 2.8331719804555178e-03</leafValues></_>
        <_>
          <internalNodes>
            0 -1 414 -1.4037106884643435e-03</internalNodes>
          <leafValues>
            9.7032266855239868e-01 -4.7050989232957363e-03</leafValues></_>
        <_>
          <internalNodes>
            0 -1 442 -4.5845328713767231e-05</internalNodes>
          <leafValues>
            -9.5542037487030029e-01 1.0105082765221596e-03</leafValues></_>
        <_>
          <internalNodes>
            0 -1 416 -1.2086730566807091e-04</internalNodes>
          <leafValues>
            9.4727152585983276e-01 -1.7977998359128833e-03</leafValues></_>
        <_>
          <internalNodes>
            0 -1 416 -3.5184242733521387e-05</internalNodes>
          <leafValues>
            -9.3036663532257080e-01 2.7253369335085154e-03</leafValues></_>
        <_>
          <internalNodes>
            0 -1 463 -1.5290217474102974e-02</internalNodes>
          <leafValues>
            8.7976127862930298e-01 -2.8307596221566200e-03</leafValues></_>
        <_>
          <internalNodes>
            0 -1 492 -1.1257060104981065e-03</internalNodes>
          <leafValues>
            -9.6537166833877563e-01 6.3025890849530697e-03</leafValues></_></weakClassifiers></_>
    <!-- stage 10 -->
    <_>
      <maxWeakCount>100</maxWeakCount>
      <stageThreshold>-3.0120632648468018e+00</stageThreshold>
      <weakClassifiers>
        <_>
          <internalNodes>
            0 -1 328 -1.3198226042732131e-05</internalNodes>
          <leafValues>
            5.5208331346511841e-01 -8.9880955219268799e-01</leafValues></_>
        <_>
          <internalNodes>
            0 -1 184 5.0935734179802239e-05</internalNodes>
          <leafValues>
            -7.3239195346832275e-01 6.1406606435775757e-01</leafValues></_>
        <_>
          <internalNodes>
            0 -1 417 -3.6813289625570178e-04</internalNodes>
          <leafValues>
            6.5226811170578003e-01 -5.5467587709426880e-01</leafValues></_>
        <_>
          <internalNodes>
            0 -1 570 -4.3825963075505570e-05</internalNodes>
          <leafValues>
            6.1177700757980347e-01 -3.7455835938453674e-01</leafValues></_>
        <_>
          <internalNodes>
            0 -1 469 3.5031756851822138e-04</internalNodes>
          <leafValues>
            -2.7861225605010986e-01 6.9381755590438843e-01</leafValues></_>
        <_>
          <internalNodes>
            0 -1 573 8.4075611084699631e-05</internalNodes>
          <leafValues>
            -1.4902085065841675e-01 7.3720824718475342e-01</leafValues></_>
        <_>
          <internalNodes>
            0 -1 436 -6.9120537955313921e-04</internalNodes>
          <leafValues>
            5.3417038917541504e-01 -1.6630311310291290e-01</leafValues></_>
        <_>
          <internalNodes>
            0 -1 580 1.8277740309713408e-05</internalNodes>
          <leafValues>
            2.5043797492980957e-01 -4.1897338628768921e-01</leafValues></_>
        <_>
          <internalNodes>
            0 -1 315 1.2014675303362310e-04</internalNodes>
          <leafValues>
            -1.4240832626819611e-01 6.7241585254669189e-01</leafValues></_>
        <_>
          <internalNodes>
            0 -1 350 -4.2183373123407364e-02</internalNodes>
          <leafValues>
            8.5744482278823853e-01 -9.0306684374809265e-02</leafValues></_>
        <_>
          <internalNodes>
            0 -1 223 1.3019153848290443e-03</internalNodes>
          <leafValues>
            1.9814324378967285e-01 -4.3258923292160034e-01</leafValues></_>
        <_>
          <internalNodes>
            0 -1 192 3.0389998108148575e-02</internalNodes>
          <leafValues>
            -1.1803592741489410e-01 6.6873323917388916e-01</leafValues></_>
        <_>
          <internalNodes>
            0 -1 627 -3.0941939912736416e-03</internalNodes>
          <leafValues>
            -8.0113953351974487e-01 9.9431551992893219e-02</leafValues></_>
        <_>
          <internalNodes>
            0 -1 629 -1.6939424676820636e-04</internalNodes>
          <leafValues>
            4.0874469280242920e-01 -1.7809334397315979e-01</leafValues></_>
        <_>
          <internalNodes>
            0 -1 601 3.0844908906146884e-04</internalNodes>
          <leafValues>
            1.4951792359352112e-01 -4.4138175249099731e-01</leafValues></_>
        <_>
          <internalNodes>
            0 -1 313 1.0418257443234324e-04</internalNodes>
          <leafValues>
            -1.1275399476289749e-01 6.4846438169479370e-01</leafValues></_>
        <_>
          <internalNodes>
            0 -1 444 9.2714875936508179e-02</internalNodes>
          <leafValues>
            -5.3568594157695770e-02 8.0394172668457031e-01</leafValues></_>
        <_>
          <internalNodes>
            0 -1 323 1.3778319582343102e-02</internalNodes>
          <leafValues>
            -6.4873538911342621e-02 7.3773938417434692e-01</leafValues></_>
        <_>
          <internalNodes>
            0 -1 165 -4.6756323426961899e-03</internalNodes>
          <leafValues>
            -5.1769530773162842e-01 1.5560536086559296e-01</leafValues></_>
        <_>
          <internalNodes>
            0 -1 146 1.3236220926046371e-02</internalNodes>
          <leafValues>
            -7.1603104472160339e-02 8.6865222454071045e-01</leafValues></_>
        <_>
          <internalNodes>
            0 -1 486 1.7381063662469387e-04</internalNodes>
          <leafValues>
            1.2743589282035828e-01 -4.3453353643417358e-01</leafValues></_>
        <_>
          <internalNodes>
            0 -1 541 4.0297039959114045e-05</internalNodes>
          <leafValues>
            -1.1790347844362259e-01 5.3178131580352783e-01</leafValues></_>
        <_>
          <internalNodes>
            0 -1 357 8.0547314137220383e-03</internalNodes>
          <leafValues>
            1.0027664154767990e-01 -5.1742130517959595e-01</leafValues></_>
        <_>
          <internalNodes>
            0 -1 182 4.6907290816307068e-03</internalNodes>
          <leafValues>
            -6.0874655842781067e-02 8.1293737888336182e-01</leafValues></_>
        <_>
          <internalNodes>
            0 -1 74 -1.2744722887873650e-02</internalNodes>
          <leafValues>
            -5.1014256477355957e-01 9.2511579394340515e-02</leafValues></_>
        <_>
          <internalNodes>
            0 -1 301 -4.0711140172788873e-05</internalNodes>
          <leafValues>
            5.4928046464920044e-01 -1.0083341598510742e-01</leafValues></_>
        <_>
          <internalNodes>
            0 -1 496 2.7258410118520260e-03</internalNodes>
          <leafValues>
            6.4755797386169434e-02 -7.5097370147705078e-01</leafValues></_>
        <_>
          <internalNodes>
            0 -1 402 -1.3396947178989649e-03</internalNodes>
          <leafValues>
            7.3625284433364868e-01 -6.8189762532711029e-02</leafValues></_>
        <_>
          <internalNodes>
            0 -1 545 6.7111825046595186e-05</internalNodes>
          <leafValues>
            1.1322731524705887e-01 -4.1210031509399414e-01</leafValues></_>
        <_>
          <internalNodes>
            0 -1 451 8.0472382251173258e-05</internalNodes>
          <leafValues>
            -8.4932647645473480e-02 5.3631120920181274e-01</leafValues></_>
        <_>
          <internalNodes>
            0 -1 70 3.3746144617907703e-04</internalNodes>
          <leafValues>
            6.9023214280605316e-02 -5.1879823207855225e-01</leafValues></_>
        <_>
          <internalNodes>
            0 -1 0 3.6016994272358716e-05</internalNodes>
          <leafValues>
            -7.4889101088047028e-02 5.3809314966201782e-01</leafValues></_>
        <_>
          <internalNodes>
            0 -1 231 2.6983167044818401e-03</internalNodes>
          <leafValues>
            5.3355980664491653e-02 -6.8454957008361816e-01</leafValues></_>
        <_>
          <internalNodes>
            0 -1 112 -4.2326552793383598e-03</internalNodes>
          <leafValues>
            5.4366254806518555e-01 -5.6547857820987701e-02</leafValues></_>
        <_>
          <internalNodes>
            0 -1 329 3.6850300966762006e-04</internalNodes>
          <leafValues>
            5.4188434034585953e-02 -7.0062005519866943e-01</leafValues></_>
        <_>
          <internalNodes>
            0 -1 289 3.3456967212259769e-03</internalNodes>
          <leafValues>
            -4.7411285340785980e-02 6.8523383140563965e-01</leafValues></_>
        <_>
          <internalNodes>
            0 -1 579 1.4825806720182300e-03</internalNodes>
          <leafValues>
            6.1278562992811203e-02 -6.0563063621520996e-01</leafValues></_>
        <_>
          <internalNodes>
            0 -1 311 -1.0966377332806587e-02</internalNodes>
          <leafValues>
            8.5971659421920776e-01 -2.9438551515340805e-02</leafValues></_>
        <_>
          <internalNodes>
            0 -1 346 -3.4863375127315521e-02</internalNodes>
          <leafValues>
            -8.2267373800277710e-01 2.5782184675335884e-02</leafValues></_>
        <_>
          <internalNodes>
            0 -1 516 6.5932925790548325e-03</internalNodes>
          <leafValues>
            -3.6067679524421692e-02 7.0256334543228149e-01</leafValues></_>
        <_>
          <internalNodes>
            0 -1 85 1.2530328240245581e-03</internalNodes>
          <leafValues>
            4.4074140489101410e-02 -5.4823279380798340e-01</leafValues></_>
        <_>
          <internalNodes>
            0 -1 193 4.4671622163150460e-05</internalNodes>
          <leafValues>
            -4.2392954230308533e-02 5.6529146432876587e-01</leafValues></_>
        <_>
          <internalNodes>
            0 -1 206 -2.6684789918363094e-04</internalNodes>
          <leafValues>
            -7.4410241842269897e-01 3.0016345903277397e-02</leafValues></_>
        <_>
          <internalNodes>
            0 -1 43 -3.2075084163807333e-05</internalNodes>
          <leafValues>
            5.2532780170440674e-01 -3.5555493086576462e-02</leafValues></_>
        <_>
          <internalNodes>
            0 -1 244 -1.5689380234107375e-03</internalNodes>
          <leafValues>
            -5.0143325328826904e-01 4.7884613275527954e-02</leafValues></_>
        <_>
          <internalNodes>
            0 -1 320 7.1415584534406662e-04</internalNodes>
          <leafValues>
            -2.0569004118442535e-02 8.0725675821304321e-01</leafValues></_>
        <_>
          <internalNodes>
            0 -1 528 -5.1938733085989952e-03</internalNodes>
          <leafValues>
            -9.4584804773330688e-01 6.4850226044654846e-03</leafValues></_>
        <_>
          <internalNodes>
            0 -1 610 -3.9938575355336070e-05</internalNodes>
          <leafValues>
            5.2880221605300903e-01 -2.1278927102684975e-02</leafValues></_>
        <_>
          <internalNodes>
            0 -1 309 -1.1902833357453346e-02</internalNodes>
          <leafValues>
            -8.8861864805221558e-01 1.7685605213046074e-02</leafValues></_>
        <_>
          <internalNodes>
            0 -1 551 5.8176938182441518e-05</internalNodes>
          <leafValues>
            -1.3485037721693516e-02 6.0736852884292603e-01</leafValues></_>
        <_>
          <internalNodes>
            0 -1 207 1.0705086169764400e-03</internalNodes>
          <leafValues>
            2.1448845043778419e-02 -6.7072147130966187e-01</leafValues></_>
        <_>
          <internalNodes>
            0 -1 543 -1.2716048513539135e-04</internalNodes>
          <leafValues>
            6.9536572694778442e-01 -1.0114246048033237e-02</leafValues></_>
        <_>
          <internalNodes>
            0 -1 615 -6.9260300369933248e-04</internalNodes>
          <leafValues>
            -8.1274569034576416e-01 1.1669731698930264e-02</leafValues></_>
        <_>
          <internalNodes>
            0 -1 494 1.4935608487576246e-03</internalNodes>
          <leafValues>
            -1.3896923512220383e-02 7.6766729354858398e-01</leafValues></_>
        <_>
          <internalNodes>
            0 -1 115 -5.0525767728686333e-03</internalNodes>
          <leafValues>
            -8.7299925088882446e-01 6.6520632244646549e-03</leafValues></_>
        <_>
          <internalNodes>
            0 -1 212 -1.1993638239800930e-02</internalNodes>
          <leafValues>
            1. -3.4148467238992453e-03</leafValues></_>
        <_>
          <internalNodes>
            0 -1 296 6.8319886922836304e-03</internalNodes>
          <leafValues>
            6.2687210738658905e-03 -9.5691847801208496e-01</leafValues></_>
        <_>
          <internalNodes>
            0 -1 300 3.5432626027613878e-03</internalNodes>
          <leafValues>
            -7.0441607385873795e-03 9.4275677204132080e-01</leafValues></_>
        <_>
          <internalNodes>
            0 -1 569 -9.5021922606974840e-04</internalNodes>
          <leafValues>
            -8.5452485084533691e-01 6.8880156613886356e-03</leafValues></_>
        <_>
          <internalNodes>
            0 -1 156 4.2100702557945624e-05</internalNodes>
          <leafValues>
            -5.6521431542932987e-03 8.0268365144729614e-01</leafValues></_>
        <_>
          <internalNodes>
            0 -1 331 5.7100445701507851e-05</internalNodes>
          <leafValues>
            9.6933925524353981e-03 -9.4368672370910645e-01</leafValues></_>
        <_>
          <internalNodes>
            0 -1 382 1.4300116163212806e-04</internalNodes>
          <leafValues>
            -4.2980080470442772e-03 9.5840948820114136e-01</leafValues></_>
        <_>
          <internalNodes>
            0 -1 574 1.3406110520008951e-04</internalNodes>
          <leafValues>
            4.4875196181237698e-03 -9.0607571601867676e-01</leafValues></_>
        <_>
          <internalNodes>
            0 -1 555 1.6645928844809532e-03</internalNodes>
          <leafValues>
            -3.4022843465209007e-03 9.5278239250183105e-01</leafValues></_>
        <_>
          <internalNodes>
            0 -1 316 -7.0771602622698992e-05</internalNodes>
          <leafValues>
            -1. 2.7326436247676611e-03</leafValues></_>
        <_>
          <internalNodes>
            0 -1 280 -2.0884657278656960e-03</internalNodes>
          <leafValues>
            1. -2.6880863588303328e-03</leafValues></_>
        <_>
          <internalNodes>
            0 -1 255 -8.7094902992248535e-03</internalNodes>
          <leafValues>
            -9.5743197202682495e-01 3.1743133440613747e-03</leafValues></_>
        <_>
          <internalNodes>
            0 -1 221 -8.5308798588812351e-04</internalNodes>
          <leafValues>
            1. -2.4849362671375275e-03</leafValues></_>
        <_>
          <internalNodes>
            0 -1 230 -6.5499792981427163e-05</internalNodes>
          <leafValues>
            -1. 1.7474774504080415e-03</leafValues></_>
        <_>
          <internalNodes>
            0 -1 201 -2.1721599623560905e-03</internalNodes>
          <leafValues>
            1. -1.1338194599375129e-03</leafValues></_>
        <_>
          <internalNodes>
            0 -1 197 -4.4448166154325008e-03</internalNodes>
          <leafValues>
            -1. 4.7976649366319180e-03</leafValues></_>
        <_>
          <internalNodes>
            0 -1 167 -1.8142977496609092e-03</internalNodes>
          <leafValues>
            1. -3.5129350144416094e-03</leafValues></_>
        <_>
          <internalNodes>
            0 -1 216 -1.5335505595430732e-03</internalNodes>
          <leafValues>
            -1. 2.5909105315804482e-03</leafValues></_>
        <_>
          <internalNodes>
            0 -1 218 -3.8281046727206558e-05</internalNodes>
          <leafValues>
            1. -1.3635172508656979e-03</leafValues></_>
        <_>
          <internalNodes>
            0 -1 199 -6.1899256252218038e-05</internalNodes>
          <leafValues>
            -1. 8.6430343799293041e-05</leafValues></_>
        <_>
          <internalNodes>
            0 -1 199 -7.6920063293073326e-05</internalNodes>
          <leafValues>
            1. -2.7111529561807401e-05</leafValues></_>
        <_>
          <internalNodes>
            0 -1 199 -6.1899256252218038e-05</internalNodes>
          <leafValues>
            -1. 2.7111529561807401e-05</leafValues></_>
        <_>
          <internalNodes>
            0 -1 199 -7.6920063293073326e-05</internalNodes>
          <leafValues>
            1. -2.7111529561807401e-05</leafValues></_>
        <_>
          <internalNodes>
            0 -1 199 -6.1899256252218038e-05</internalNodes>
          <leafValues>
            -1. 2.7111529561807401e-05</leafValues></_>
        <_>
          <internalNodes>
            0 -1 199 -7.6920063293073326e-05</internalNodes>
          <leafValues>
            1. -2.7111529561807401e-05</leafValues></_>
        <_>
          <internalNodes>
            0 -1 199 -6.1899256252218038e-05</internalNodes>
          <leafValues>
            -1. 2.7111529561807401e-05</leafValues></_>
        <_>
          <internalNodes>
            0 -1 199 -7.6920063293073326e-05</internalNodes>
          <leafValues>
            1. -2.7111529561807401e-05</leafValues></_>
        <_>
          <internalNodes>
            0 -1 199 -6.1899256252218038e-05</internalNodes>
          <leafValues>
            -1. 2.7111529561807401e-05</leafValues></_>
        <_>
          <internalNodes>
            0 -1 199 -7.6920063293073326e-05</internalNodes>
          <leafValues>
            1. -2.7111529561807401e-05</leafValues></_>
        <_>
          <internalNodes>
            0 -1 199 -6.1899256252218038e-05</internalNodes>
          <leafValues>
            -1. 2.7111529561807401e-05</leafValues></_>
        <_>
          <internalNodes>
            0 -1 199 -7.6920063293073326e-05</internalNodes>
          <leafValues>
            1. -2.7111529561807401e-05</leafValues></_>
        <_>
          <internalNodes>
            0 -1 199 -6.1899256252218038e-05</internalNodes>
          <leafValues>
            -1. 2.7111529561807401e-05</leafValues></_>
        <_>
          <internalNodes>
            0 -1 199 -7.6920063293073326e-05</internalNodes>
          <leafValues>
            1. -2.7111529561807401e-05</leafValues></_>
        <_>
          <internalNodes>
            0 -1 199 -6.1899256252218038e-05</internalNodes>
          <leafValues>
            -1. 2.7111529561807401e-05</leafValues></_>
        <_>
          <internalNodes>
            0 -1 199 -7.6920063293073326e-05</internalNodes>
          <leafValues>
            1. -2.7111529561807401e-05</leafValues></_>
        <_>
          <internalNodes>
            0 -1 199 -6.1899256252218038e-05</internalNodes>
          <leafValues>
            -1. 2.7111529561807401e-05</leafValues></_>
        <_>
          <internalNodes>
            0 -1 199 -7.6920063293073326e-05</internalNodes>
          <leafValues>
            1. -2.7111529561807401e-05</leafValues></_>
        <_>
          <internalNodes>
            0 -1 199 -6.1899256252218038e-05</internalNodes>
          <leafValues>
            -1. 2.7111529561807401e-05</leafValues></_>
        <_>
          <internalNodes>
            0 -1 199 -7.6920063293073326e-05</internalNodes>
          <leafValues>
            1. -2.7111529561807401e-05</leafValues></_>
        <_>
          <internalNodes>
            0 -1 199 -6.1899256252218038e-05</internalNodes>
          <leafValues>
            -1. 2.7111529561807401e-05</leafValues></_>
        <_>
          <internalNodes>
            0 -1 199 -7.6920063293073326e-05</internalNodes>
          <leafValues>
            1. -2.7111529561807401e-05</leafValues></_>
        <_>
          <internalNodes>
            0 -1 199 -6.1899256252218038e-05</internalNodes>
          <leafValues>
            -1. 2.7111529561807401e-05</leafValues></_>
        <_>
          <internalNodes>
            0 -1 199 -7.6920063293073326e-05</internalNodes>
          <leafValues>
            1. -2.7111529561807401e-05</leafValues></_>
        <_>
          <internalNodes>
            0 -1 199 -6.1899256252218038e-05</internalNodes>
          <leafValues>
            -1. 2.7111529561807401e-05</leafValues></_>
        <_>
          <internalNodes>
            0 -1 199 -7.6920063293073326e-05</internalNodes>
          <leafValues>
            1. -2.7111529561807401e-05</leafValues></_></weakClassifiers></_>
    <!-- stage 11 -->
    <_>
      <maxWeakCount>100</maxWeakCount>
      <stageThreshold>-3.0900082588195801e+00</stageThreshold>
      <weakClassifiers>
        <_>
          <internalNodes>
            0 -1 100 3.0026822059880942e-05</internalNodes>
          <leafValues>
            -9.2023348808288574e-01 8.4883719682693481e-01</leafValues></_>
        <_>
          <internalNodes>
            0 -1 148 4.1052306187339127e-05</internalNodes>
          <leafValues>
            -8.0099546909332275e-01 8.4405392408370972e-01</leafValues></_>
        <_>
          <internalNodes>
            0 -1 536 -1.2323564442340285e-04</internalNodes>
          <leafValues>
            8.8901185989379883e-01 -6.1494511365890503e-01</leafValues></_>
        <_>
          <internalNodes>
            0 -1 24 -5.2135920850560069e-04</internalNodes>
          <leafValues>
            8.9676779508590698e-01 -3.9886659383773804e-01</leafValues></_>
        <_>
          <internalNodes>
            0 -1 503 -1.4778049080632627e-04</internalNodes>
          <leafValues>
            8.7136191129684448e-01 -2.2581773996353149e-01</leafValues></_>
        <_>
          <internalNodes>
            0 -1 264 -9.0838293544948101e-05</internalNodes>
          <leafValues>
            8.2723689079284668e-01 -1.3436566293239594e-01</leafValues></_>
        <_>
          <internalNodes>
            0 -1 450 3.1522673089057207e-04</internalNodes>
          <leafValues>
            -8.5857912898063660e-02 9.5295506715774536e-01</leafValues></_>
        <_>
          <internalNodes>
            0 -1 327 -8.6647868156433105e-03</internalNodes>
          <leafValues>
            -6.4709258079528809e-01 1.7137478291988373e-01</leafValues></_>
        <_>
          <internalNodes>
            0 -1 355 -8.5649473476223648e-05</internalNodes>
          <leafValues>
            8.6474484205245972e-01 -1.3118377327919006e-01</leafValues></_>
        <_>
          <internalNodes>
            0 -1 277 5.9854320716112852e-04</internalNodes>
          <leafValues>
            -6.4418785274028778e-02 1.</leafValues></_>
        <_>
          <internalNodes>
            0 -1 39 -1.9720934506040066e-04</internalNodes>
          <leafValues>
            -6.9543159008026123e-01 1.3678856194019318e-01</leafValues></_>
        <_>
          <internalNodes>
            0 -1 217 1.6919875633902848e-04</internalNodes>
          <leafValues>
            -7.1687921881675720e-02 9.7165691852569580e-01</leafValues></_>
        <_>
          <internalNodes>
            0 -1 271 -1.5933272661641240e-03</internalNodes>
          <leafValues>
            -6.7265301942825317e-01 8.9952707290649414e-02</leafValues></_>
        <_>
          <internalNodes>
            0 -1 345 -4.4221937423571944e-04</internalNodes>
          <leafValues>
            8.5219538211822510e-01 -7.3471128940582275e-02</leafValues></_>
        <_>
          <internalNodes>
            0 -1 338 1.4402950000658166e-05</internalNodes>
          <leafValues>
            -3.0010750517249107e-02 8.0709213018417358e-01</leafValues></_>
        <_>
          <internalNodes>
            0 -1 351 -4.8693083226680756e-04</internalNodes>
          <leafValues>
            -6.9615131616592407e-01 6.9392196834087372e-02</leafValues></_>
