<?xml version="1.0"?>
<opencv_storage>
<cascade>
  <stageType>BOOST</stageType>
  <featureType>HAAR</featureType>
  <height>24</height>
  <width>24</width>
  <stageParams>
    <boostType>GAB</boostType>
    <minHitRate>9.9500000476837158e-01</minHitRate>
    <maxFalseAlarm>5.0000000000000000e-01</maxFalseAlarm>
    <weightTrimRate>9.4999998807907104e-01</weightTrimRate>
    <maxDepth>1</maxDepth>
    <maxWeakCount>100</maxWeakCount></stageParams>
  <featureParams>
    <maxCatCount>0</maxCatCount>
    <featSize>1</featSize>
    <mode>BASIC</mode></featureParams>
  <stageNum>20</stageNum>
  <stages>
    <!-- stage 0 -->
    <_>
      <maxWeakCount>9</maxWeakCount>
      <stageThreshold>-1.7442226409912109e+00</stageThreshold>
      <weakClassifiers>
        <_>
          <internalNodes>
            0 -1 257 1.7127182334661484e-02</internalNodes>
          <leafValues>
            -7.1875000000000000e-01 5.7446807622909546e-01</leafValues></_>
        <_>
          <internalNodes>
            0 -1 54 7.5903736054897308e-02</internalNodes>
          <leafValues>
            3.2796684652566910e-02 -7.7991288900375366e-01</leafValues></_>
        <_>
          <internalNodes>
            0 -1 34 -2.2958323359489441e-01</internalNodes>
          <leafValues>
            -7.5498765707015991e-01 1.4243003726005554e-01</leafValues></_>
        <_>
          <internalNodes>
            0 -1 167 2.6826009154319763e-02</internalNodes>
          <leafValues>
            1.4881348609924316e-01 -8.4326064586639404e-01</leafValues></_>
        <_>
          <internalNodes>
            0 -1 484 4.7301560698542744e-05</internalNodes>
          <leafValues>
            2.2872094810009003e-01 -5.1851218938827515e-01</leafValues></_>
        <_>
          <internalNodes>
            0 -1 504 6.6688364313449711e-05</internalNodes>
          <leafValues>
            2.8239610791206360e-01 -4.9441334605216980e-01</leafValues></_>
        <_>
          <internalNodes>
            0 -1 203 -1.5685826539993286e-02</internalNodes>
          <leafValues>
            8.3005452156066895e-01 -1.8060223758220673e-01</leafValues></_>
        <_>
          <internalNodes>
            0 -1 141 -1.1632714420557022e-02</internalNodes>
          <leafValues>
            -6.9421911239624023e-01 2.1390001475811005e-01</leafValues></_>
        <_>
          <internalNodes>
            0 -1 354 -5.5498629808425903e-03</internalNodes>
          <leafValues>
            6.7894715070724487e-01 -2.0899911224842072e-01</leafValues></_></weakClassifiers></_>
    <!-- stage 1 -->
    <_>
      <maxWeakCount>8</maxWeakCount>
      <stageThreshold>-1.3672636747360229e+00</stageThreshold>
      <weakClassifiers>
        <_>
          <internalNodes>
            0 -1 261 1.2526744976639748e-02</internalNodes>
          <leafValues>
            -7.3121130466461182e-01 3.8235294818878174e-01</leafValues></_>
        <_>
          <internalNodes>
            0 -1 420 -5.7264775969088078e-03</internalNodes>
          <leafValues>
            5.4938256740570068e-01 -3.3227169513702393e-01</leafValues></_>
        <_>
          <internalNodes>
            0 -1 61 1.7855349183082581e-01</internalNodes>
          <leafValues>
            1.5436154603958130e-01 -7.6712673902511597e-01</leafValues></_>
        <_>
          <internalNodes>
            0 -1 13 -9.9501805379986763e-05</internalNodes>
          <leafValues>
            -5.1679104566574097e-01 2.2058980166912079e-01</leafValues></_>
        <_>
          <internalNodes>
            0 -1 506 -1.1951902706641704e-04</internalNodes>
          <leafValues>
            -4.4522976875305176e-01 2.4852731823921204e-01</leafValues></_>
        <_>
          <internalNodes>
            0 -1 379 2.5579005479812622e-02</internalNodes>
          <leafValues>
            -1.4982421696186066e-01 7.9049932956695557e-01</leafValues></_>
        <_>
          <internalNodes>
            0 -1 411 3.6036211531609297e-04</internalNodes>
          <leafValues>
            2.7894702553749084e-01 -3.9801135659217834e-01</leafValues></_>
        <_>
          <internalNodes>
            0 -1 478 -7.9150386154651642e-03</internalNodes>
          <leafValues>
            7.1526497602462769e-01 -1.3489384949207306e-01</leafValues></_></weakClassifiers></_>
    <!-- stage 2 -->
    <_>
      <maxWeakCount>13</maxWeakCount>
      <stageThreshold>-1.6665457487106323e+00</stageThreshold>
      <weakClassifiers>
        <_>
          <internalNodes>
            0 -1 32 -6.1550414562225342e-01</internalNodes>
          <leafValues>
            5.0877195596694946e-01 -7.2679507732391357e-01</leafValues></_>
        <_>
          <internalNodes>
            0 -1 470 4.6723313629627228e-02</internalNodes>
          <leafValues>
            1.3863498345017433e-02 -6.7884433269500732e-01</leafValues></_>
        <_>
          <internalNodes>
            0 -1 1 8.5091654909774661e-05</internalNodes>
          <leafValues>
            1.6900131106376648e-01 -4.8849654197692871e-01</leafValues></_>
        <_>
          <internalNodes>
            0 -1 43 -3.8649559020996094e-02</internalNodes>
          <leafValues>
            -3.8814646005630493e-01 2.2465535998344421e-01</leafValues></_>
        <_>
          <internalNodes>
            0 -1 421 1.3925702311098576e-02</internalNodes>
          <leafValues>
            -1.0193359851837158e-01 7.4430775642395020e-01</leafValues></_>
        <_>
          <internalNodes>
            0 -1 233 1.0913155274465680e-03</internalNodes>
          <leafValues>
            2.0907597243785858e-01 -4.0691319108009338e-01</leafValues></_>
        <_>
          <internalNodes>
            0 -1 21 -1.6957473754882813e-01</internalNodes>
          <leafValues>
            -6.4635038375854492e-01 1.0626558959484100e-01</leafValues></_>
        <_>
          <internalNodes>
            0 -1 123 -6.3299911562353373e-04</internalNodes>
          <leafValues>
            -3.9846712350845337e-01 2.1471484005451202e-01</leafValues></_>
        <_>
          <internalNodes>
            0 -1 342 8.2775708287954330e-03</internalNodes>
          <leafValues>
            -1.5435752272605896e-01 4.8174771666526794e-01</leafValues></_>
        <_>
          <internalNodes>
            0 -1 447 -1.1986733879894018e-03</internalNodes>
          <leafValues>
            -4.7953417897224426e-01 1.7369680106639862e-01</leafValues></_>
        <_>
          <internalNodes>
            0 -1 330 -1.5332425013184547e-02</internalNodes>
          <leafValues>
            4.6275991201400757e-01 -1.8618379533290863e-01</leafValues></_>
        <_>
          <internalNodes>
            0 -1 44 1.3072767294943333e-02</internalNodes>
          <leafValues>
            1.2328954786062241e-01 -6.9110393524169922e-01</leafValues></_>
        <_>
          <internalNodes>
            0 -1 294 -1.4510206528939307e-04</internalNodes>
          <leafValues>
            -3.7735295295715332e-01 2.2728212177753448e-01</leafValues></_></weakClassifiers></_>
    <!-- stage 3 -->
    <_>
      <maxWeakCount>15</maxWeakCount>
      <stageThreshold>-1.6045904159545898e+00</stageThreshold>
      <weakClassifiers>
        <_>
          <internalNodes>
            0 -1 30 -6.4463710784912109e-01</internalNodes>
          <leafValues>
            7.5000000000000000e-01 -7.2719377279281616e-01</leafValues></_>
        <_>
          <internalNodes>
            0 -1 446 -8.7938979268074036e-03</internalNodes>
          <leafValues>
            4.0893381834030151e-01 -3.5347563028335571e-01</leafValues></_>
        <_>
          <internalNodes>
            0 -1 513 1.6851254622451961e-04</internalNodes>
          <leafValues>
            2.1487845480442047e-01 -3.6066615581512451e-01</leafValues></_>
        <_>
          <internalNodes>
            0 -1 514 -7.5335206929594278e-05</internalNodes>
          <leafValues>
            -3.8618201017379761e-01 1.7389126121997833e-01</leafValues></_>
        <_>
          <internalNodes>
            0 -1 491 4.4418191537261009e-03</internalNodes>
          <leafValues>
            -1.1177794635295868e-01 5.2121603488922119e-01</leafValues></_>
        <_>
          <internalNodes>
            0 -1 23 1.2383169680833817e-01</internalNodes>
          <leafValues>
            9.2033959925174713e-02 -7.4291801452636719e-01</leafValues></_>
        <_>
          <internalNodes>
            0 -1 114 -5.1285151857882738e-04</internalNodes>
          <leafValues>
            -3.6097425222396851e-01 2.0761129260063171e-01</leafValues></_>
        <_>
          <internalNodes>
            0 -1 140 -9.3155419453978539e-03</internalNodes>
          <leafValues>
            4.7341126203536987e-01 -1.7805373668670654e-01</leafValues></_>
        <_>
          <internalNodes>
            0 -1 374 7.7924720244482160e-04</internalNodes>
          <leafValues>
            -2.0346158742904663e-01 3.7594786286354065e-01</leafValues></_>
        <_>
          <internalNodes>
            0 -1 84 -3.3172024413943291e-03</internalNodes>
          <leafValues>
            -9.0888684988021851e-01 8.5431881248950958e-02</leafValues></_>
        <_>
          <internalNodes>
            0 -1 196 5.6599862873554230e-03</internalNodes>
          <leafValues>
            -1.7600227892398834e-01 4.6620360016822815e-01</leafValues></_>
        <_>
          <internalNodes>
            0 -1 351 -6.0213950928300619e-04</internalNodes>
          <leafValues>
            -4.0890780091285706e-01 1.8606086075305939e-01</leafValues></_>
        <_>
          <internalNodes>
            0 -1 322 -4.6045668423175812e-02</internalNodes>
          <leafValues>
            4.0558308362960815e-01 -1.9582365453243256e-01</leafValues></_>
        <_>
          <internalNodes>
            0 -1 346 1.2453410774469376e-02</internalNodes>
          <leafValues>
            -2.1714511513710022e-01 3.6412489414215088e-01</leafValues></_>
        <_>
          <internalNodes>
            0 -1 77 1.7395915929228067e-03</internalNodes>
          <leafValues>
            1.4115899801254272e-01 -5.1405525207519531e-01</leafValues></_></weakClassifiers></_>
    <!-- stage 4 -->
    <_>
      <maxWeakCount>16</maxWeakCount>
      <stageThreshold>-1.6645065546035767e+00</stageThreshold>
      <weakClassifiers>
        <_>
          <internalNodes>
            0 -1 64 -5.1642858982086182e-01</internalNodes>
          <leafValues>
            5.6097561120986938e-01 -7.1157169342041016e-01</leafValues></_>
        <_>
          <internalNodes>
            0 -1 154 -1.4707932248711586e-02</internalNodes>
          <leafValues>
            5.6734555959701538e-01 -2.6587039232254028e-01</leafValues></_>
        <_>
          <internalNodes>
            0 -1 505 6.7940598819404840e-04</internalNodes>
          <leafValues>
            1.0187721252441406e-01 -6.6431409120559692e-01</leafValues></_>
        <_>
          <internalNodes>
            0 -1 266 4.0050265379250050e-03</internalNodes>
          <leafValues>
            -1.3020165264606476e-01 5.8583605289459229e-01</leafValues></_>
        <_>
          <internalNodes>
            0 -1 393 3.8744295015931129e-03</internalNodes>
          <leafValues>
            -1.0236498713493347e-01 4.9819791316986084e-01</leafValues></_>
        <_>
          <internalNodes>
            0 -1 139 -1.3952447101473808e-02</internalNodes>
          <leafValues>
            6.7640912532806396e-01 -1.1017276346683502e-01</leafValues></_>
        <_>
          <internalNodes>
            0 -1 496 -9.0705201728269458e-05</internalNodes>
          <leafValues>
            -3.4516999125480652e-01 1.9414263963699341e-01</leafValues></_>
        <_>
          <internalNodes>
            0 -1 326 4.1086836718022823e-03</internalNodes>
          <leafValues>
            -1.8458768725395203e-01 4.2111608386039734e-01</leafValues></_>
        <_>
          <internalNodes>
            0 -1 483 -1.7441291129216552e-04</internalNodes>
          <leafValues>
            -4.3175902962684631e-01 1.6133829951286316e-01</leafValues></_>
        <_>
          <internalNodes>
            0 -1 107 -6.8907602690160275e-03</internalNodes>
          <leafValues>
            7.1022450923919678e-01 -8.8678188621997833e-02</leafValues></_>
        <_>
          <internalNodes>
            0 -1 248 9.9465646781027317e-04</internalNodes>
          <leafValues>
            -1.6846248507499695e-01 3.7265858054161072e-01</leafValues></_>
        <_>
          <internalNodes>
            0 -1 315 4.6122685307636857e-04</internalNodes>
          <leafValues>
            1.3717818260192871e-01 -5.6048923730850220e-01</leafValues></_>
        <_>
          <internalNodes>
            0 -1 71 7.6059100683778524e-04</internalNodes>
          <leafValues>
            1.2455072999000549e-01 -4.6056658029556274e-01</leafValues></_>
        <_>
          <internalNodes>
            0 -1 437 4.6877721324563026e-03</internalNodes>
          <leafValues>
            -1.4075443148612976e-01 5.4465937614440918e-01</leafValues></_>
        <_>
          <internalNodes>
            0 -1 224 7.2251264937222004e-03</internalNodes>
          <leafValues>
            -1.2357199192047119e-01 4.7989642620086670e-01</leafValues></_>
        <_>
          <internalNodes>
            0 -1 204 -5.9940782375633717e-04</internalNodes>
          <leafValues>
            -4.4595041871070862e-01 1.6934885084629059e-01</leafValues></_></weakClassifiers></_>
    <!-- stage 5 -->
    <_>
      <maxWeakCount>50</maxWeakCount>
      <stageThreshold>-2.0484957695007324e+00</stageThreshold>
      <weakClassifiers>
        <_>
          <internalNodes>
            0 -1 235 2.3114423453807831e-01</internalNodes>
          <leafValues>
            -7.3123908042907715e-01 6.9811320304870605e-01</leafValues></_>
        <_>
          <internalNodes>
            0 -1 310 -4.8926922318059951e-05</internalNodes>
          <leafValues>
            1.9896674156188965e-01 -4.7985166311264038e-01</leafValues></_>
        <_>
          <internalNodes>
            0 -1 228 1.4224398881196976e-02</internalNodes>
          <leafValues>
            -2.1551132202148438e-01 5.3811222314834595e-01</leafValues></_>
        <_>
          <internalNodes>
            0 -1 135 7.0645540952682495e-02</internalNodes>
          <leafValues>
            -1.0051539540290833e-01 7.9131573438644409e-01</leafValues></_>
        <_>
          <internalNodes>
            0 -1 358 4.5023127458989620e-03</internalNodes>
          <leafValues>
            -1.9879265129566193e-01 3.7138494849205017e-01</leafValues></_>
        <_>
          <internalNodes>
            0 -1 511 4.3577965698204935e-04</internalNodes>
          <leafValues>
            1.3411645591259003e-01 -6.2969416379928589e-01</leafValues></_>
        <_>
          <internalNodes>
            0 -1 361 2.5011915713548660e-02</internalNodes>
          <leafValues>
            -1.7617347836494446e-01 4.4961076974868774e-01</leafValues></_>
        <_>
          <internalNodes>
            0 -1 409 -3.7326652556657791e-02</internalNodes>
          <leafValues>
            7.7340549230575562e-01 -1.3258413970470428e-01</leafValues></_>
        <_>
          <internalNodes>
            0 -1 258 4.2688820511102676e-02</internalNodes>
          <leafValues>
            -1.2078154832124710e-01 5.4703003168106079e-01</leafValues></_>
        <_>
          <internalNodes>
            0 -1 78 -1.2358506210148335e-03</internalNodes>
          <leafValues>
            -7.4198770523071289e-01 9.8697170615196228e-02</leafValues></_>
        <_>
          <internalNodes>
            0 -1 501 2.1171692758798599e-02</internalNodes>
          <leafValues>
            -7.9900719225406647e-02 8.3994936943054199e-01</leafValues></_>
        <_>
          <internalNodes>
            0 -1 500 -5.3228014148771763e-03</internalNodes>
          <leafValues>
            -7.8580605983734131e-01 9.5876432955265045e-02</leafValues></_>
        <_>
          <internalNodes>
            0 -1 344 -9.8061084281653166e-04</internalNodes>
          <leafValues>
            2.7825811505317688e-01 -2.1067316830158234e-01</leafValues></_>
        <_>
          <internalNodes>
            0 -1 466 1.1508547468110919e-03</internalNodes>
          <leafValues>
            1.0269373655319214e-01 -5.4181212186813354e-01</leafValues></_>
        <_>
          <internalNodes>
            0 -1 230 5.0602797418832779e-03</internalNodes>
          <leafValues>
            8.2741886377334595e-02 -6.3494473695755005e-01</leafValues></_>
        <_>
          <internalNodes>
            0 -1 341 1.2109537237847690e-05</internalNodes>
          <leafValues>
            -1.9450293481349945e-01 3.1734034419059753e-01</leafValues></_>
        <_>
          <internalNodes>
            0 -1 79 -9.1611854732036591e-03</internalNodes>
          <leafValues>
            -8.2613557577133179e-01 5.0463490188121796e-02</leafValues></_>
        <_>
          <internalNodes>
            0 -1 166 -8.5876986384391785e-02</internalNodes>
          <leafValues>
            9.3689650297164917e-01 -6.6281504929065704e-02</leafValues></_>
        <_>
          <internalNodes>
            0 -1 27 -1.8210202688351274e-04</internalNodes>
          <leafValues>
            -3.3421280980110168e-01 1.6106404364109039e-01</leafValues></_>
        <_>
          <internalNodes>
            0 -1 100 9.2518199235200882e-03</internalNodes>
          <leafValues>
            -8.3146616816520691e-02 6.9552850723266602e-01</leafValues></_>
        <_>
          <internalNodes>
            0 -1 148 4.3483451008796692e-02</internalNodes>
          <leafValues>
            -5.8242831379175186e-02 8.1576853990554810e-01</leafValues></_>
        <_>
          <internalNodes>
            0 -1 81 1.3805212220177054e-03</internalNodes>
          <leafValues>
            1.0680809617042542e-01 -5.4055488109588623e-01</leafValues></_>
        <_>
          <internalNodes>
            0 -1 353 -1.4869971200823784e-02</internalNodes>
          <leafValues>
            4.0677562355995178e-01 -1.4931142330169678e-01</leafValues></_>
        <_>
          <internalNodes>
            0 -1 519 -1.6081975772976875e-03</internalNodes>
          <leafValues>
            -7.3814612627029419e-01 6.9716736674308777e-02</leafValues></_>
        <_>
          <internalNodes>
            0 -1 191 -4.2832391336560249e-03</internalNodes>
          <leafValues>
            5.2154570817947388e-01 -9.6576072275638580e-02</leafValues></_>
        <_>
          <internalNodes>
            0 -1 155 3.5728383809328079e-03</internalNodes>
          <leafValues>
            9.3874812126159668e-02 -5.4421538114547729e-01</leafValues></_>
        <_>
          <internalNodes>
            0 -1 226 4.9305236898362637e-03</internalNodes>
          <leafValues>
            -8.5596099495887756e-02 5.6043738126754761e-01</leafValues></_>
        <_>
          <internalNodes>
            0 -1 510 -7.6034991070628166e-04</internalNodes>
          <leafValues>
            -4.7157371044158936e-01 1.1046925932168961e-01</leafValues></_>
        <_>
          <internalNodes>
            0 -1 350 -4.8151658847928047e-03</internalNodes>
          <leafValues>
            7.0269751548767090e-01 -6.4841054379940033e-02</leafValues></_>
        <_>
          <internalNodes>
            0 -1 52 4.6999761834740639e-03</internalNodes>
          <leafValues>
            9.0926200151443481e-02 -5.3470087051391602e-01</leafValues></_>
        <_>
          <internalNodes>
            0 -1 311 1.1972300708293915e-02</internalNodes>
          <leafValues>
            -1.1440348625183105e-01 3.9837753772735596e-01</leafValues></_>
        <_>
          <internalNodes>
            0 -1 429 2.0228277426213026e-03</internalNodes>
          <leafValues>
            8.6874179542064667e-02 -5.6746977567672729e-01</leafValues></_>
        <_>
          <internalNodes>
            0 -1 204 3.3728596754372120e-03</internalNodes>
          <leafValues>
            7.3929965496063232e-02 -5.3411179780960083e-01</leafValues></_>
        <_>
          <internalNodes>
            0 -1 435 1.9006415968760848e-03</internalNodes>
          <leafValues>
            -1.2489256262779236e-01 4.3764367699623108e-01</leafValues></_>
        <_>
          <internalNodes>
            0 -1 137 1.2461435049772263e-02</internalNodes>
          <leafValues>
            6.1174076050519943e-02 -7.1343243122100830e-01</leafValues></_>
        <_>
          <internalNodes>
            0 -1 121 -1.5428902581334114e-02</internalNodes>
          <leafValues>
            7.8666305541992188e-01 -6.1900679022073746e-02</leafValues></_>
        <_>
          <internalNodes>
            0 -1 411 7.8880675137042999e-03</internalNodes>
          <leafValues>
            5.7843346148729324e-02 -8.4387320280075073e-01</leafValues></_>
        <_>
          <internalNodes>
            0 -1 425 8.7613957002758980e-03</internalNodes>
          <leafValues>
            -6.6662922501564026e-02 7.0618736743927002e-01</leafValues></_>
        <_>
          <internalNodes>
            0 -1 285 7.2850519791245461e-03</internalNodes>
          <leafValues>
            9.4064921140670776e-02 -4.9008458852767944e-01</leafValues></_>
        <_>
          <internalNodes>
            0 -1 68 3.1502102501690388e-03</internalNodes>
          <leafValues>
            -1.1622601002454758e-01 3.7932530045509338e-01</leafValues></_>
        <_>
          <internalNodes>
            0 -1 465 -7.3466612957417965e-04</internalNodes>
          <leafValues>
            -6.3474816083908081e-01 6.3525646924972534e-02</leafValues></_>
        <_>
          <internalNodes>
            0 -1 199 -1.9963087514042854e-02</internalNodes>
          <leafValues>
            -6.7851305007934570e-01 5.0491973757743835e-02</leafValues></_>
        <_>
          <internalNodes>
            0 -1 477 -7.4793645180761814e-03</internalNodes>
          <leafValues>
            6.1220759153366089e-01 -6.7704252898693085e-02</leafValues></_>
        <_>
          <internalNodes>
            0 -1 158 -1.6946715768426657e-03</internalNodes>
          <leafValues>
            -5.4889315366744995e-01 7.2539657354354858e-02</leafValues></_>
        <_>
          <internalNodes>
            0 -1 373 1.6680777072906494e-02</internalNodes>
          <leafValues>
            -7.6327703893184662e-02 5.4258161783218384e-01</leafValues></_>
        <_>
          <internalNodes>
            0 -1 165 6.6136687994003296e-02</internalNodes>
          <leafValues>
            -3.5476982593536377e-02 1.</leafValues></_>
        <_>
          <internalNodes>
            0 -1 515 2.3053638637065887e-02</internalNodes>
          <leafValues>
            5.8567527681589127e-02 -7.7579665184020996e-01</leafValues></_>
        <_>
          <internalNodes>
            0 -1 232 1.4754971489310265e-02</internalNodes>
          <leafValues>
            3.1474784016609192e-02 -8.2968908548355103e-01</leafValues></_>
        <_>
          <internalNodes>
            0 -1 336 2.1337866783142090e-02</internalNodes>
          <leafValues>
            -8.8408291339874268e-02 4.4042268395423889e-01</leafValues></_>
        <_>
          <internalNodes>
            0 -1 57 -1.9706806051544845e-04</internalNodes>
          <leafValues>
            -4.0474683046340942e-01 1.0009441524744034e-01</leafValues></_></weakClassifiers></_>
    <!-- stage 6 -->
    <_>
      <maxWeakCount>12</maxWeakCount>
      <stageThreshold>-1.3544239997863770e+00</stageThreshold>
      <weakClassifiers>
        <_>
          <internalNodes>
            0 -1 48 -7.8203970193862915e-01</internalNodes>
          <leafValues>
            8.2608693838119507e-01 -6.9727891683578491e-01</leafValues></_>
        <_>
          <internalNodes>
            0 -1 514 3.4279876854270697e-04</internalNodes>
          <leafValues>
            4.1512809693813324e-02 -6.1719274520874023e-01</leafValues></_>
        <_>
          <internalNodes>
            0 -1 514 -7.7296564995776862e-05</internalNodes>
          <leafValues>
            -4.4634440541267395e-01 1.9412691891193390e-01</leafValues></_>
        <_>
          <internalNodes>
            0 -1 56 1.9715022062882781e-04</internalNodes>
          <leafValues>
            1.8098111450672150e-01 -4.0655204653739929e-01</leafValues></_>
        <_>
          <internalNodes>
            0 -1 192 3.7133656442165375e-03</internalNodes>
          <leafValues>
            1.7479030787944794e-01 -3.9061805605888367e-01</leafValues></_>
        <_>
          <internalNodes>
            0 -1 231 -1.6073728911578655e-03</internalNodes>
          <leafValues>
            -7.1117055416107178e-01 1.1571504175662994e-01</leafValues></_>
        <_>
          <internalNodes>
            0 -1 452 1.9095995230600238e-04</internalNodes>
          <leafValues>
            1.6121327877044678e-01 -3.9714971184730530e-01</leafValues></_>
        <_>
          <internalNodes>
            0 -1 516 -6.2401886680163443e-05</internalNodes>
          <leafValues>
            -3.5194525122642517e-01 1.9454611837863922e-01</leafValues></_>
        <_>
          <internalNodes>
            0 -1 170 -1.5255181118845940e-02</internalNodes>
          <leafValues>
            -9.4633084535598755e-01 8.3899646997451782e-02</leafValues></_>
        <_>
          <internalNodes>
            0 -1 509 -3.2071047462522984e-04</internalNodes>
          <leafValues>
            -3.6891850829124451e-01 1.5351513028144836e-01</leafValues></_>
        <_>
          <internalNodes>
            0 -1 318 2.3171718930825591e-04</internalNodes>
          <leafValues>
            1.6609147191047668e-01 -3.8767492771148682e-01</leafValues></_>
        <_>
          <internalNodes>
            0 -1 439 3.1400283332914114e-03</internalNodes>
          <leafValues>
            2.0472538471221924e-01 -3.2949742674827576e-01</leafValues></_></weakClassifiers></_>
    <!-- stage 7 -->
    <_>
      <maxWeakCount>49</maxWeakCount>
      <stageThreshold>-2.0875303745269775e+00</stageThreshold>
      <weakClassifiers>
        <_>
          <internalNodes>
            0 -1 356 2.7283264789730310e-03</internalNodes>
          <leafValues>
            -7.6838237047195435e-01 3.1531530618667603e-01</leafValues></_>
        <_>
          <internalNodes>
            0 -1 300 -2.0385731477290392e-03</internalNodes>
          <leafValues>
            4.9969837069511414e-01 -4.7039577364921570e-01</leafValues></_>
        <_>
          <internalNodes>
            0 -1 210 -2.2636859212070704e-03</internalNodes>
          <leafValues>
            5.4195851087570190e-01 -2.8492781519889832e-01</leafValues></_>
        <_>
          <internalNodes>
            0 -1 430 8.2849164027720690e-04</internalNodes>
          <leafValues>
            -2.7782452106475830e-01 4.2277705669403076e-01</leafValues></_>
        <_>
          <internalNodes>
            0 -1 88 -8.5101695731282234e-03</internalNodes>
          <leafValues>
            6.3503801822662354e-01 -1.4512601494789124e-01</leafValues></_>
        <_>
          <internalNodes>
            0 -1 381 4.9095479771494865e-03</internalNodes>
          <leafValues>
            -1.3859181106090546e-01 5.8374917507171631e-01</leafValues></_>
        <_>
          <internalNodes>
            0 -1 485 1.0776308045024052e-05</internalNodes>
          <leafValues>
            2.1281775832176208e-01 -3.8621163368225098e-01</leafValues></_>
        <_>
          <internalNodes>
            0 -1 451 -1.1983938748016953e-03</internalNodes>
          <leafValues>
            4.5139637589454651e-01 -1.9148617982864380e-01</leafValues></_>
        <_>
          <internalNodes>
            0 -1 348 -2.1081254817545414e-03</internalNodes>
          <leafValues>
            5.2316987514495850e-01 -1.4247326552867889e-01</leafValues></_>
        <_>
          <internalNodes>
            0 -1 89 -3.8373167626559734e-04</internalNodes>
          <leafValues>
            -4.2349991202354431e-01 1.9655738770961761e-01</leafValues></_>
        <_>
          <internalNodes>
            0 -1 213 4.1983150877058506e-03</internalNodes>
          <leafValues>
            -1.3916938006877899e-01 5.3290635347366333e-01</leafValues></_>
        <_>
          <internalNodes>
            0 -1 98 -6.4355246722698212e-03</internalNodes>
          <leafValues>
            -4.9441301822662354e-01 1.4907474815845490e-01</leafValues></_>
        <_>
          <internalNodes>
            0 -1 271 2.1300301887094975e-03</internalNodes>
          <leafValues>
            -9.0610541403293610e-02 7.9148858785629272e-01</leafValues></_>
        <_>
          <internalNodes>
            0 -1 168 8.0390749499201775e-03</internalNodes>
          <leafValues>
            -9.8166815936565399e-02 5.6385421752929688e-01</leafValues></_>
        <_>
          <internalNodes>
            0 -1 445 1.2596672400832176e-02</internalNodes>
          <leafValues>
            1.0462847352027893e-01 -6.1615788936614990e-01</leafValues></_>
        <_>
          <internalNodes>
            0 -1 424 2.8808102943003178e-03</internalNodes>
          <leafValues>
            -1.0769990086555481e-01 5.1395738124847412e-01</leafValues></_>
        <_>
          <internalNodes>
            0 -1 58 4.7906021791277453e-05</internalNodes>
          <leafValues>
            1.5355335175991058e-01 -4.2546960711479187e-01</leafValues></_>
        <_>
          <internalNodes>
            0 -1 272 -2.5470857508480549e-03</internalNodes>
          <leafValues>
            7.1339768171310425e-01 -7.4172168970108032e-02</leafValues></_>
        <_>
          <internalNodes>
            0 -1 181 2.2451478987932205e-02</internalNodes>
          <leafValues>
            9.7694464027881622e-02 -6.5468311309814453e-01</leafValues></_>
        <_>
          <internalNodes>
            0 -1 416 5.3868177346885204e-03</internalNodes>
          <leafValues>
            -1.0671165585517883e-01 6.8968915939331055e-01</leafValues></_>
        <_>
          <internalNodes>
            0 -1 448 1.8132107798010111e-03</internalNodes>
          <leafValues>
            -1.1458576470613480e-01 4.8456439375877380e-01</leafValues></_>
        <_>
          <internalNodes>
            0 -1 94 -4.2107651097467169e-05</internalNodes>
          <leafValues>
            -4.4632238149642944e-01 1.7335298657417297e-01</leafValues></_>
        <_>
          <internalNodes>
            0 -1 292 -3.6700640339404345e-04</internalNodes>
          <leafValues>
            4.7523459792137146e-01 -1.4293019473552704e-01</leafValues></_>
        <_>
          <internalNodes>
            0 -1 413 1.5185982920229435e-04</internalNodes>
          <leafValues>
            1.5243084728717804e-01 -3.8212147355079651e-01</leafValues></_>
        <_>
          <internalNodes>
            0 -1 263 -1.4963315334171057e-03</internalNodes>
          <leafValues>
            6.3783597946166992e-01 -8.4093190729618073e-02</leafValues></_>
        <_>
          <internalNodes>
            0 -1 262 5.0332713872194290e-03</internalNodes>
          <leafValues>
            -4.7638256102800369e-02 7.7776026725769043e-01</leafValues></_>
        <_>
          <internalNodes>
            0 -1 486 -1.0969237337121740e-05</internalNodes>
          <leafValues>
            -3.6302283406257629e-01 1.4762073755264282e-01</leafValues></_>
        <_>
          <internalNodes>
            0 -1 299 4.3397806584835052e-03</internalNodes>
          <leafValues>
            -8.1063456833362579e-02 7.1786969900131226e-01</leafValues></_>
        <_>
          <internalNodes>
            0 -1 444 5.8882203884422779e-03</internalNodes>
          <leafValues>
            -5.0698179751634598e-02 7.6996046304702759e-01</leafValues></_>
        <_>
          <internalNodes>
            0 -1 468 -2.1343950647860765e-03</internalNodes>
          <leafValues>
            -5.8300000429153442e-01 9.1943651437759399e-02</leafValues></_>
        <_>
          <internalNodes>
            0 -1 488 1.1745316442102194e-03</internalNodes>
          <leafValues>
            -7.1837641298770905e-02 7.5052058696746826e-01</leafValues></_>
        <_>
          <internalNodes>
            0 -1 476 -3.7314707878977060e-03</internalNodes>
          <leafValues>
            -5.5216884613037109e-01 8.5874095559120178e-02</leafValues></_>
        <_>
          <internalNodes>
            0 -1 75 -2.4989493191242218e-02</internalNodes>
          <leafValues>
            5.5800926685333252e-01 -8.4599904716014862e-02</leafValues></_>
        <_>
          <internalNodes>
            0 -1 290 1.7061681719496846e-03</internalNodes>
          <leafValues>
            -3.8853254169225693e-02 9.4568020105361938e-01</leafValues></_>
        <_>
          <internalNodes>
            0 -1 5 2.7733377646654844e-03</internalNodes>
          <leafValues>
            1.0696285963058472e-01 -4.3770015239715576e-01</leafValues></_>
        <_>
          <internalNodes>
            0 -1 85 2.5938209146261215e-03</internalNodes>
          <leafValues>
            -8.2590371370315552e-02 5.5483382940292358e-01</leafValues></_>
        <_>
          <internalNodes>
            0 -1 46 1.4700502157211304e-02</internalNodes>
          <leafValues>
            5.5016916245222092e-02 -7.6446580886840820e-01</leafValues></_>
        <_>
          <internalNodes>
            0 -1 356 6.5950215794146061e-03</internalNodes>
          <leafValues>
            -5.9205539524555206e-02 8.0564641952514648e-01</leafValues></_>
        <_>
          <internalNodes>
            0 -1 497 -1.1580386853893287e-05</internalNodes>
          <leafValues>
            -3.8706299662590027e-01 1.1088214814662933e-01</leafValues></_>
        <_>
          <internalNodes>
            0 -1 455 -2.1266068797558546e-03</internalNodes>
          <leafValues>
            4.9578830599784851e-01 -7.7683925628662109e-02</leafValues></_>
        <_>
          <internalNodes>
            0 -1 205 3.6811756435781717e-03</internalNodes>
          <leafValues>
            7.4264332652091980e-02 -4.7233158349990845e-01</leafValues></_>
        <_>
          <internalNodes>
            0 -1 265 2.1254350431263447e-03</internalNodes>
          <leafValues>
            -1.0080165416002274e-01 3.8394588232040405e-01</leafValues></_>
        <_>
          <internalNodes>
            0 -1 517 3.9105541072785854e-03</internalNodes>
          <leafValues>
            7.3898822069168091e-02 -4.9159952998161316e-01</leafValues></_>
        <_>
          <internalNodes>
            0 -1 339 1.6353482380509377e-02</internalNodes>
          <leafValues>
            -7.6078929007053375e-02 4.6596121788024902e-01</leafValues></_>
        <_>
          <internalNodes>
            0 -1 316 -5.4518790420843288e-05</internalNodes>
          <leafValues>
            -3.9800149202346802e-01 8.7911933660507202e-02</leafValues></_>
        <_>
          <internalNodes>
            0 -1 254 4.6793399378657341e-03</internalNodes>
          <leafValues>
            -5.9137515723705292e-02 6.6859251260757446e-01</leafValues></_>
        <_>
          <internalNodes>
            0 -1 104 8.8277980685234070e-02</internalNodes>
          <leafValues>
            4.4567931443452835e-02 -8.0755227804183960e-01</leafValues></_>
        <_>
          <internalNodes>
            0 -1 110 8.8422291446477175e-04</internalNodes>
          <leafValues>
            -6.9019339978694916e-02 5.0050264596939087e-01</leafValues></_>
        <_>
          <internalNodes>
            0 -1 142 -2.9789813561365008e-04</internalNodes>
          <leafValues>
            -4.4325229525566101e-01 6.9971404969692230e-02</leafValues></_></weakClassifiers></_>
    <!-- stage 8 -->
    <_>
      <maxWeakCount>100</maxWeakCount>
      <stageThreshold>-2.4732995033264160e+00</stageThreshold>
      <weakClassifiers>
        <_>
          <internalNodes>
            0 -1 67 -4.6480123273795471e-05</internalNodes>
          <leafValues>
            2.7853882312774658e-01 -8.7959182262420654e-01</leafValues></_>
        <_>
          <internalNodes>
            0 -1 128 4.2646756628528237e-04</internalNodes>
          <leafValues>
            -6.3374626636505127e-01 6.2626451253890991e-01</leafValues></_>
        <_>
          <internalNodes>
            0 -1 304 -4.7157798690022901e-05</internalNodes>
          <leafValues>
            6.3532114028930664e-01 -4.3690222501754761e-01</leafValues></_>
        <_>
          <internalNodes>
            0 -1 327 1.0655750520527363e-03</internalNodes>
          <leafValues>
            -2.3202738165855408e-01 5.8916246891021729e-01</leafValues></_>
        <_>
          <internalNodes>
            0 -1 306 1.2972727417945862e-03</internalNodes>
          <leafValues>
            -1.5590991079807281e-01 5.9763097763061523e-01</leafValues></_>
        <_>
          <internalNodes>
            0 -1 473 1.2375734746456146e-02</internalNodes>
          <leafValues>
            -1.1468413472175598e-01 6.5527069568634033e-01</leafValues></_>
        <_>
          <internalNodes>
            0 -1 422 2.0678266882896423e-02</internalNodes>
          <leafValues>
            -1.0625446587800980e-01 6.1385887861251831e-01</leafValues></_>
        <_>
          <internalNodes>
            0 -1 274 4.4056214392185211e-03</internalNodes>
          <leafValues>
            1.6948635876178741e-01 -5.8841806650161743e-01</leafValues></_>
        <_>
          <internalNodes>
            0 -1 182 -2.4631170555949211e-02</internalNodes>
          <leafValues>
            8.5370939970016479e-01 -9.3519933521747589e-02</leafValues></_>
        <_>
          <internalNodes>
            0 -1 73 -5.6873247027397156e-02</internalNodes>
          <leafValues>
            -6.1163258552551270e-01 1.2469129264354706e-01</leafValues></_>
        <_>
          <internalNodes>
            0 -1 293 2.3993687704205513e-02</internalNodes>
          <leafValues>
            -1.1000891029834747e-01 6.3583743572235107e-01</leafValues></_>
        <_>
          <internalNodes>
            0 -1 404 -2.9635950922966003e-02</internalNodes>
          <leafValues>
            -9.5967209339141846e-01 7.2932116687297821e-02</leafValues></_>
        <_>
          <internalNodes>
            0 -1 464 -2.8560564387589693e-03</internalNodes>
          <leafValues>
            8.3683109283447266e-01 -9.0992599725723267e-02</leafValues></_>
        <_>
          <internalNodes>
            0 -1 253 1.5088427811861038e-02</internalNodes>
          <leafValues>
            9.1836519539356232e-02 -7.0105969905853271e-01</leafValues></_>
        <_>
          <internalNodes>
            0 -1 273 -1.4909654855728149e-03</internalNodes>
          <leafValues>
            8.0526888370513916e-01 -7.7240593731403351e-02</leafValues></_>
        <_>
          <internalNodes>
            0 -1 229 5.4727029055356979e-03</internalNodes>
          <leafValues>
            7.8136332333087921e-02 -7.2567516565322876e-01</leafValues></_>
        <_>
          <internalNodes>
            0 -1 280 -2.4581613251939416e-04</internalNodes>
          <leafValues>
            4.3934777379035950e-01 -1.2437145411968231e-01</leafValues></_>
        <_>
          <internalNodes>
            0 -1 255 1.1558744881767780e-04</internalNodes>
          <leafValues>
            1.1696844547986984e-01 -4.6932411193847656e-01</leafValues></_>
        <_>
          <internalNodes>
            0 -1 177 2.5521256029605865e-03</internalNodes>
          <leafValues>
            -1.0051379352807999e-01 5.6817924976348877e-01</leafValues></_>
        <_>
          <internalNodes>
            0 -1 512 -3.0849862843751907e-02</internalNodes>
          <leafValues>
            -8.1273883581161499e-01 6.2298275530338287e-02</leafValues></_>
        <_>
          <internalNodes>
            0 -1 303 6.7684138193726540e-03</internalNodes>
          <leafValues>
            -6.0680437833070755e-02 7.8192049264907837e-01</leafValues></_>
        <_>
          <internalNodes>
            0 -1 59 1.5650667250156403e-02</internalNodes>
          <leafValues>
            9.0048968791961670e-02 -5.8058267831802368e-01</leafValues></_>
        <_>
          <internalNodes>
            0 -1 276 2.8368390630930662e-03</internalNodes>
          <leafValues>
            -7.3678180575370789e-02 7.2072345018386841e-01</leafValues></_>
        <_>
          <internalNodes>
            0 -1 69 1.0669885668903589e-03</internalNodes>
          <leafValues>
            7.1129746735095978e-02 -6.2823104858398438e-01</leafValues></_>
        <_>
          <internalNodes>
            0 -1 151 7.8086941502988338e-03</internalNodes>
          <leafValues>
            -8.0504275858402252e-02 5.3093361854553223e-01</leafValues></_>
        <_>
          <internalNodes>
            0 -1 169 -1.7608187044970691e-04</internalNodes>
          <leafValues>
            -4.9937379360198975e-01 8.0616272985935211e-02</leafValues></_>
        <_>
          <internalNodes>
            0 -1 45 9.3049593269824982e-03</internalNodes>
          <leafValues>
            -5.5542279034852982e-02 7.7386856079101563e-01</leafValues></_>
        <_>
          <internalNodes>
            0 -1 493 -8.2875676453113556e-03</internalNodes>
          <leafValues>
            -7.1665310859680176e-01 4.6660438179969788e-02</leafValues></_>
        <_>
          <internalNodes>
            0 -1 369 -3.0507501214742661e-03</internalNodes>
          <leafValues>
            7.8644245862960815e-01 -5.1180660724639893e-02</leafValues></_>
        <_>
          <internalNodes>
            0 -1 475 4.0135968476533890e-02</internalNodes>
          <leafValues>
            -3.2533038407564163e-02 8.3008182048797607e-01</leafValues></_>
        <_>
          <internalNodes>
            0 -1 508 -1.9290745258331299e-03</internalNodes>
          <leafValues>
            -5.3866237401962280e-01 6.9449730217456818e-02</leafValues></_>
        <_>
          <internalNodes>
            0 -1 144 1.4991320669651031e-02</internalNodes>
          <leafValues>
            -4.9782074987888336e-02 7.5331938266754150e-01</leafValues></_>
        <_>
          <internalNodes>
            0 -1 289 -1.0310603305697441e-02</internalNodes>
          <leafValues>
            -9.1907638311386108e-01 3.4432567656040192e-02</leafValues></_>
        <_>
          <internalNodes>
            0 -1 132 2.9761572368443012e-03</internalNodes>
          <leafValues>
            -6.3547313213348389e-02 4.9275091290473938e-01</leafValues></_>
        <_>
          <internalNodes>
            0 -1 22 4.7271694988012314e-02</internalNodes>
          <leafValues>
            3.5944994539022446e-02 -8.2245075702667236e-01</leafValues></_>
        <_>
          <internalNodes>
            0 -1 472 2.0542007405310869e-03</internalNodes>
          <leafValues>
            3.1121347099542618e-02 -6.5689611434936523e-01</leafValues></_>
        <_>
          <internalNodes>
            0 -1 362 3.5114528145641088e-04</internalNodes>
          <leafValues>
            -4.2844422161579132e-02 5.9820604324340820e-01</leafValues></_>
        <_>
          <internalNodes>
            0 -1 202 6.3242944888770580e-03</internalNodes>
          <leafValues>
            2.9764307662844658e-02 -7.4087417125701904e-01</leafValues></_>
        <_>
          <internalNodes>
            0 -1 143 -1.7207609489560127e-02</internalNodes>
          <leafValues>
            6.7400443553924561e-01 -3.2482527196407318e-02</leafValues></_>
        <_>
          <internalNodes>
            0 -1 119 1.5233673620969057e-03</internalNodes>
          <leafValues>
            3.4101013094186783e-02 -6.3841038942337036e-01</leafValues></_>
        <_>
          <internalNodes>
            0 -1 397 2.6926063001155853e-03</internalNodes>
          <leafValues>
            -2.9277844354510307e-02 7.2180092334747314e-01</leafValues></_>
        <_>
          <internalNodes>
            0 -1 391 -9.6563324332237244e-03</internalNodes>
          <leafValues>
            -8.6402398347854614e-01 2.1667186170816422e-02</leafValues></_>
        <_>
          <internalNodes>
            0 -1 251 -1.0285142809152603e-02</internalNodes>
          <leafValues>
            8.2459247112274170e-01 -1.8683394417166710e-02</leafValues></_>
        <_>
          <internalNodes>
            0 -1 214 -2.8945901431143284e-03</internalNodes>
          <leafValues>
            -5.3607690334320068e-01 2.8629170730710030e-02</leafValues></_>
        <_>
          <internalNodes>
            0 -1 328 1.7380392819177359e-04</internalNodes>
          <leafValues>
            -2.6399459689855576e-02 6.8878972530364990e-01</leafValues></_>
        <_>
          <internalNodes>
            0 -1 270 -6.6398214548826218e-03</internalNodes>
          <leafValues>
            -1. 1.1860497295856476e-02</leafValues></_>
        <_>
          <internalNodes>
            0 -1 378 2.5926702655851841e-03</internalNodes>
          <leafValues>
            -1.5606263652443886e-02 8.8920199871063232e-01</leafValues></_>
        <_>
          <internalNodes>
            0 -1 494 -1.1844803811982274e-03</internalNodes>
          <leafValues>
            -8.5844469070434570e-01 2.1764367818832397e-02</leafValues></_>
        <_>
          <internalNodes>
            0 -1 415 3.2215182727668434e-05</internalNodes>
          <leafValues>
            -2.5814965367317200e-02 5.9113007783889771e-01</leafValues></_>
        <_>
          <internalNodes>
            0 -1 480 -6.5253919456154108e-04</internalNodes>
          <leafValues>
            -8.0130571126937866e-01 1.3141790404915810e-02</leafValues></_>
        <_>
          <internalNodes>
            0 -1 410 -2.4531397502869368e-03</internalNodes>
          <leafValues>
            9.1534149646759033e-01 -1.3051585992798209e-03</leafValues></_>
        <_>
          <internalNodes>
            0 -1 450 1.3254513032734394e-03</internalNodes>
          <leafValues>
            9.2269182205200195e-03 -9.1043162345886230e-01</leafValues></_>
        <_>
          <internalNodes>
            0 -1 473 1.0017854161560535e-02</internalNodes>
          <leafValues>
            -4.8968554474413395e-03 9.6584510803222656e-01</leafValues></_>
        <_>
          <internalNodes>
            0 -1 502 -7.3928246274590492e-04</internalNodes>
          <leafValues>
            -9.4200432300567627e-01 6.7132748663425446e-03</leafValues></_>
        <_>
          <internalNodes>
            0 -1 218 8.7982574768830091e-05</internalNodes>
          <leafValues>
            -1.2660204432904720e-02 9.1967469453811646e-01</leafValues></_>
        <_>
          <internalNodes>
            0 -1 345 -3.2002334482967854e-03</internalNodes>
          <leafValues>
            -9.3333172798156738e-01 6.7160390317440033e-03</leafValues></_>
        <_>
          <internalNodes>
            0 -1 130 -4.3297214433550835e-03</internalNodes>
          <leafValues>
            9.1509002447128296e-01 -6.3453870825469494e-03</leafValues></_>
        <_>
          <internalNodes>
            0 -1 337 -4.5892572961747646e-03</internalNodes>
          <leafValues>
            -9.4762855768203735e-01 7.3956032283604145e-03</leafValues></_>
        <_>
          <internalNodes>
            0 -1 383 -5.4393324535340071e-04</internalNodes>
          <leafValues>
            9.6404051780700684e-01 -2.8933896683156490e-03</leafValues></_>
        <_>
          <internalNodes>
            0 -1 385 -1.4142281725071371e-04</internalNodes>
          <leafValues>
            -8.8863378763198853e-01 2.1803318522870541e-03</leafValues></_>
        <_>
          <internalNodes>
            0 -1 187 -3.5311365500092506e-03</internalNodes>
          <leafValues>
            9.2971438169479370e-01 -3.3939043059945107e-03</leafValues></_>
        <_>
          <internalNodes>
            0 -1 180 -9.1329840943217278e-03</internalNodes>
          <leafValues>
            -9.6638572216033936e-01 5.3599411621689796e-03</leafValues></_>
        <_>
          <internalNodes>
            0 -1 237 -2.4045608006417751e-03</internalNodes>
          <leafValues>
            9.6148395538330078e-01 -3.7119986955076456e-03</leafValues></_>
        <_>
          <internalNodes>
            0 -1 236 -8.0256006913259625e-04</internalNodes>
          <leafValues>
            -1. 1.7027434660121799e-03</leafValues></_>
        <_>
          <internalNodes>
            0 -1 241 -1.9244146533310413e-03</internalNodes>
          <leafValues>
            9.6803587675094604e-01 -1.8389713950455189e-03</leafValues></_>
        <_>
          <internalNodes>
            0 -1 220 -1.9548507407307625e-04</internalNodes>
          <leafValues>
            -1. 2.1987096406519413e-03</leafValues></_>
        <_>
          <internalNodes>
            0 -1 189 -8.9259375818073750e-04</internalNodes>
          <leafValues>
            9.6705818176269531e-01 -3.0210018157958984e-03</leafValues></_>
        <_>
          <internalNodes>
            0 -1 188 -9.6203414723277092e-03</internalNodes>
          <leafValues>
            -9.6445149183273315e-01 2.1922979503870010e-03</leafValues></_>
        <_>
          <internalNodes>
            0 -1 184 -1.1206994764506817e-02</internalNodes>
          <leafValues>
            9.6095293760299683e-01 -1.0762467281892896e-03</leafValues></_>
        <_>
          <internalNodes>
            0 -1 176 -2.4589477106928825e-03</internalNodes>
          <leafValues>
            -9.6601152420043945e-01 3.0373085755854845e-03</leafValues></_>
        <_>
          <internalNodes>
            0 -1 24 -7.9275033203884959e-04</internalNodes>
          <leafValues>
            9.6601331233978271e-01 -1.7875354969874024e-03</leafValues></_>
        <_>
          <internalNodes>
            0 -1 24 -1.2294738553464413e-03</internalNodes>
          <leafValues>
            -9.6494382619857788e-01 5.4681883193552494e-04</leafValues></_>
        <_>
          <internalNodes>
            0 -1 24 -7.9275033203884959e-04</internalNodes>
          <leafValues>
            9.6594178676605225e-01 -5.4682069458067417e-04</leafValues></_>
        <_>
          <internalNodes>
            0 -1 24 -1.2294738553464413e-03</internalNodes>
          <leafValues>
            -9.6501249074935913e-01 5.4682069458067417e-04</leafValues></_>
        <_>
          <internalNodes>
            0 -1 24 -7.9275033203884959e-04</internalNodes>
          <leafValues>
            9.6587949991226196e-01 -5.4682069458067417e-04</leafValues></_>
        <_>
          <internalNodes>
            0 -1 24 -1.2294738553464413e-03</internalNodes>
          <leafValues>
            -9.6507203578948975e-01 5.4682069458067417e-04</leafValues></_>
        <_>
          <internalNodes>
            0 -1 24 -7.9275033203884959e-04</internalNodes>
          <leafValues>
            9.6582531929016113e-01 -5.4682069458067417e-04</leafValues></_>
        <_>
          <internalNodes>
            0 -1 24 -1.2294738553464413e-03</internalNodes>
          <leafValues>
            -9.6512371301651001e-01 5.4682069458067417e-04</leafValues></_>
        <_>
          <internalNodes>
            0 -1 24 -7.9275033203884959e-04</internalNodes>
          <leafValues>
            9.6577811241149902e-01 -5.4682069458067417e-04</leafValues></_>
        <_>
          <internalNodes>
            0 -1 24 -1.2294738553464413e-03</internalNodes>
          <leafValues>
            -9.6516853570938110e-01 5.4682069458067417e-04</leafValues></_>
        <_>
          <internalNodes>
            0 -1 24 -7.9275033203884959e-04</internalNodes>
          <leafValues>
            9.6573710441589355e-01 -5.4682069458067417e-04</leafValues></_>
        <_>
          <internalNodes>
            0 -1 24 -1.2294738553464413e-03</internalNodes>
          <leafValues>
            -9.6520745754241943e-01 5.4682069458067417e-04</leafValues></_>
        <_>
          <internalNodes>
            0 -1 24 -7.9275033203884959e-04</internalNodes>
          <leafValues>
            9.6570140123367310e-01 -5.4682069458067417e-04</leafValues></_>
        <_>
          <internalNodes>
            0 -1 24 -1.2294738553464413e-03</internalNodes>
          <leafValues>
            -9.6524119377136230e-01 5.4682069458067417e-04</leafValues></_>
        <_>
          <internalNodes>
            0 -1 24 -7.9275033203884959e-04</internalNodes>
          <leafValues>
            9.6567034721374512e-01 -5.4682069458067417e-04</leafValues></_>
        <_>
          <internalNodes>
            0 -1 24 -1.2294738553464413e-03</internalNodes>
          <leafValues>
            -9.6527051925659180e-01 5.4682069458067417e-04</leafValues></_>
        <_>
          <internalNodes>
            0 -1 24 -7.9275033203884959e-04</internalNodes>
          <leafValues>
            9.6564334630966187e-01 -5.4682069458067417e-04</leafValues></_>
        <_>
          <internalNodes>
            0 -1 24 -1.2294738553464413e-03</internalNodes>
          <leafValues>
            -9.6529597043991089e-01 5.4682069458067417e-04</leafValues></_>
        <_>
          <internalNodes>
            0 -1 24 -7.9275033203884959e-04</internalNodes>
          <leafValues>
            9.6561992168426514e-01 -5.4682069458067417e-04</leafValues></_>
        <_>
          <internalNodes>
            0 -1 24 -1.2294738553464413e-03</internalNodes>
          <leafValues>
            -9.6531802415847778e-01 5.4682069458067417e-04</leafValues></_>
        <_>
          <internalNodes>
            0 -1 24 -7.9275033203884959e-04</internalNodes>
          <leafValues>
            9.6559947729110718e-01 -5.4682069458067417e-04</leafValues></_>
        <_>
          <internalNodes>
            0 -1 24 -1.2294738553464413e-03</internalNodes>
          <leafValues>
            -9.6533721685409546e-01 5.4682069458067417e-04</leafValues></_>
        <_>
          <internalNodes>
            0 -1 24 -7.9275033203884959e-04</internalNodes>
          <leafValues>
            9.6558177471160889e-01 -5.4682069458067417e-04</leafValues></_>
        <_>
          <internalNodes>
            0 -1 24 -1.2294738553464413e-03</internalNodes>
          <leafValues>
            -9.6535384654998779e-01 5.4682069458067417e-04</leafValues></_>
        <_>
          <internalNodes>
            0 -1 24 -7.9275033203884959e-04</internalNodes>
          <leafValues>
            9.6556633710861206e-01 -5.4682069458067417e-04</leafValues></_>
        <_>
          <internalNodes>
            0 -1 24 -1.2294738553464413e-03</internalNodes>
          <leafValues>
            -9.6536833047866821e-01 5.4682069458067417e-04</leafValues></_>
        <_>
          <internalNodes>
            0 -1 24 -7.9275033203884959e-04</internalNodes>
          <leafValues>
            9.6555292606353760e-01 -5.4682069458067417e-04</leafValues></_>
        <_>
          <internalNodes>
            0 -1 24 -1.2294738553464413e-03</internalNodes>
          <leafValues>
            -9.6538090705871582e-01 5.4682069458067417e-04</leafValues></_>
        <_>
          <internalNodes>
            0 -1 24 -7.9275033203884959e-04</internalNodes>
          <leafValues>
            9.6554130315780640e-01 -5.4682069458067417e-04</leafValues></_>
        <_>
          <internalNodes>
            0 -1 24 -1.2294738553464413e-03</internalNodes>
          <leafValues>
            -9.6539181470870972e-01 5.4682069458067417e-04</leafValues></_></weakClassifiers></_>
    <!-- stage 9 -->
    <_>
      <maxWeakCount>60</maxWeakCount>
      <stageThreshold>-2.1167449951171875e+00</stageThreshold>
      <weakClassifiers>
        <_>
          <internalNodes>
            0 -1 314 -3.8536527426913381e-05</internalNodes>
          <leafValues>
            -7.1129709482192993e-02 -8.1666666269302368e-01</leafValues></_>
        <_>
          <internalNodes>
            0 -1 314 4.5523374865297228e-05</internalNodes>
          <leafValues>
            -4.7747737169265747e-01 4.6434149146080017e-01</leafValues></_>
        <_>
          <internalNodes>
            0 -1 367 -1.1190219083800912e-05</internalNodes>
          <leafValues>
            4.5115625858306885e-01 -3.0823558568954468e-01</leafValues></_>
        <_>
          <internalNodes>
            0 -1 29 -1.1415900290012360e-01</internalNodes>
          <leafValues>
            5.5875766277313232e-01 -1.9526050984859467e-01</leafValues></_>
        <_>
          <internalNodes>
            0 -1 112 2.7678661048412323e-02</internalNodes>
          <leafValues>
            -1.8326532840728760e-01 5.6814926862716675e-01</leafValues></_>
        <_>
          <internalNodes>
            0 -1 359 9.5106872322503477e-05</internalNodes>
          <leafValues>
            -1.9199211895465851e-01 3.9768260717391968e-01</leafValues></_>
        <_>
          <internalNodes>
            0 -1 82 -1.9115524366497993e-02</internalNodes>
          <leafValues>
            -6.0842329263687134e-01 1.1186674237251282e-01</leafValues></_>
        <_>
          <internalNodes>
            0 -1 108 2.1791592240333557e-02</internalNodes>
          <leafValues>
            -1.5573154389858246e-01 4.3754461407661438e-01</leafValues></_>
        <_>
          <internalNodes>
            0 -1 95 -4.4029623270034790e-02</internalNodes>
          <leafValues>
            5.8127641677856445e-01 -1.1272326856851578e-01</leafValues></_>
        <_>
          <internalNodes>
            0 -1 313 2.5700472760945559e-03</internalNodes>
          <leafValues>
            1.4865821599960327e-01 -4.9950915575027466e-01</leafValues></_>
        <_>
          <internalNodes>
            0 -1 331 -3.6142390221357346e-02</internalNodes>
          <leafValues>
            7.6558482646942139e-01 -7.9851411283016205e-02</leafValues></_>
        <_>
          <internalNodes>
            0 -1 60 1.8186208326369524e-03</internalNodes>
          <leafValues>
            1.3922345638275146e-01 -4.8002040386199951e-01</leafValues></_>
        <_>
          <internalNodes>
            0 -1 402 -3.4563188819447532e-05</internalNodes>
          <leafValues>
            4.0818658471107483e-01 -1.8532164394855499e-01</leafValues></_>
        <_>
          <internalNodes>
            0 -1 489 1.4231691602617502e-03</internalNodes>
          <leafValues>
            1.5958006680011749e-01 -3.6765196919441223e-01</leafValues></_>
        <_>
          <internalNodes>
            0 -1 288 -1.2109537237847690e-05</internalNodes>
          <leafValues>
            3.6870142817497253e-01 -1.7266950011253357e-01</leafValues></_>
        <_>
          <internalNodes>
            0 -1 66 -2.6134384097531438e-04</internalNodes>
          <leafValues>
            -4.1500058770179749e-01 1.4648956060409546e-01</leafValues></_>
        <_>
          <internalNodes>
            0 -1 401 -1.2565430370159447e-04</internalNodes>
          <leafValues>
            4.3449714779853821e-01 -1.4764374494552612e-01</leafValues></_>
        <_>
          <internalNodes>
            0 -1 426 -4.5593595132231712e-03</internalNodes>
          <leafValues>
            -4.9831587076187134e-01 1.2411230057477951e-01</leafValues></_>
        <_>
          <internalNodes>
            0 -1 388 1.2763545848429203e-02</internalNodes>
          <leafValues>
            6.5496921539306641e-02 -8.8742363452911377e-01</leafValues></_>
        <_>
          <internalNodes>
            0 -1 415 1.4261149335652590e-03</internalNodes>
          <leafValues>
            -1.2686347961425781e-01 5.4548668861389160e-01</leafValues></_>
        <_>
          <internalNodes>
            0 -1 403 -2.2566935513168573e-03</internalNodes>
          <leafValues>
            -9.4112598896026611e-01 4.9299307167530060e-02</leafValues></_>
        <_>
          <internalNodes>
            0 -1 149 5.8574336580932140e-03</internalNodes>
          <leafValues>
            -1.1909376084804535e-01 4.3675249814987183e-01</leafValues></_>
        <_>
          <internalNodes>
            0 -1 36 -1.1667278158711269e-04</internalNodes>
          <leafValues>
            -4.0156525373458862e-01 1.2499735504388809e-01</leafValues></_>
        <_>
          <internalNodes>
            0 -1 249 -5.4278634488582611e-03</internalNodes>
          <leafValues>
            -9.0565639734268188e-01 5.7360813021659851e-02</leafValues></_>
        <_>
          <internalNodes>
            0 -1 372 3.9404284209012985e-02</internalNodes>
          <leafValues>
            -7.5142890214920044e-02 7.4967914819717407e-01</leafValues></_>
        <_>
          <internalNodes>
            0 -1 96 -1.9255597144365311e-02</internalNodes>
          <leafValues>
            6.4130586385726929e-01 -7.0371404290199280e-02</leafValues></_>
        <_>
          <internalNodes>
            0 -1 102 -2.0321197807788849e-03</internalNodes>
          <leafValues>
            -5.9407693147659302e-01 8.7765879929065704e-02</leafValues></_>
        <_>
          <internalNodes>
            0 -1 432 -2.5847647339105606e-02</internalNodes>
          <leafValues>
            5.1782464981079102e-01 -8.8449247181415558e-02</leafValues></_>
        <_>
          <internalNodes>
            0 -1 492 -3.2695862464606762e-03</internalNodes>
          <leafValues>
            -4.1009783744812012e-01 1.0415915399789810e-01</leafValues></_>
        <_>
          <internalNodes>
            0 -1 240 7.6481100404635072e-04</internalNodes>
          <leafValues>
            -7.7668756246566772e-02 6.3289040327072144e-01</leafValues></_>
        <_>
          <internalNodes>
            0 -1 463 2.9608134645968676e-03</internalNodes>
          <leafValues>
            6.3421890139579773e-02 -7.5014501810073853e-01</leafValues></_>
        <_>
          <internalNodes>
            0 -1 283 1.4840296935290098e-03</internalNodes>
          <leafValues>
            -1.1077822744846344e-01 4.1576367616653442e-01</leafValues></_>
        <_>
          <internalNodes>
            0 -1 133 2.3310757242143154e-03</internalNodes>
          <leafValues>
            9.6667692065238953e-02 -5.3378760814666748e-01</leafValues></_>
        <_>
          <internalNodes>
            0 -1 99 -2.0898540969938040e-04</internalNodes>
          <leafValues>
            5.4539901018142700e-01 -8.2346998155117035e-02</leafValues></_>
        <_>
          <internalNodes>
            0 -1 456 -3.9009653846733272e-04</internalNodes>
          <leafValues>
            -4.2365559935569763e-01 1.2525999546051025e-01</leafValues></_>
        <_>
          <internalNodes>
            0 -1 399 -5.6951859733089805e-05</internalNodes>
          <leafValues>
            3.4812229871749878e-01 -1.0225178301334381e-01</leafValues></_>
        <_>
          <internalNodes>
            0 -1 10 2.3202283773571253e-04</internalNodes>
          <leafValues>
            1.1878334730863571e-01 -3.9282801747322083e-01</leafValues></_>
        <_>
          <internalNodes>
            0 -1 474 1.0604653507471085e-02</internalNodes>
          <leafValues>
            -9.7436420619487762e-02 4.5100790262222290e-01</leafValues></_>
        <_>
          <internalNodes>
            0 -1 471 1.2474010000005364e-03</internalNodes>
          <leafValues>
            1.2312802672386169e-01 -4.4497466087341309e-01</leafValues></_>
        <_>
          <internalNodes>
            0 -1 329 3.1829637009650469e-03</internalNodes>
          <leafValues>
            -5.2904151380062103e-02 7.6478159427642822e-01</leafValues></_>
        <_>
          <internalNodes>
            0 -1 156 -8.6932048201560974e-02</internalNodes>
          <leafValues>
            7.3596966266632080e-01 -4.6768568456172943e-02</leafValues></_>
        <_>
          <internalNodes>
            0 -1 131 -5.9995986521244049e-03</internalNodes>
          <leafValues>
            -4.3590369820594788e-01 1.1170750111341476e-01</leafValues></_>
        <_>
          <internalNodes>
            0 -1 267 5.2123927162028849e-05</internalNodes>
          <leafValues>
            -1.0046426206827164e-01 4.4713607430458069e-01</leafValues></_>
        <_>
          <internalNodes>
            0 -1 498 -2.9001279472140595e-05</internalNodes>
          <leafValues>
            -4.0388280153274536e-01 1.0063852369785309e-01</leafValues></_>
        <_>
          <internalNodes>
            0 -1 454 -9.8894342954736203e-06</internalNodes>
          <leafValues>
            4.2014580965042114e-01 -8.2547500729560852e-02</leafValues></_>
        <_>
          <internalNodes>
            0 -1 172 1.9369763322174549e-04</internalNodes>
          <leafValues>
            7.1629382669925690e-02 -4.7364428639411926e-01</leafValues></_>
        <_>
          <internalNodes>
            0 -1 380 -1.6305375844240189e-02</internalNodes>
          <leafValues>
            5.9503668546676636e-01 -5.3146850317716599e-02</leafValues></_>
        <_>
          <internalNodes>
            0 -1 116 -1.6109710559248924e-02</internalNodes>
          <leafValues>
            8.1175279617309570e-01 -3.4557864069938660e-02</leafValues></_>
        <_>
          <internalNodes>
            0 -1 507 -1.5871873125433922e-02</internalNodes>
          <leafValues>
            -7.9461318254470825e-01 4.8114750534296036e-02</leafValues></_>
        <_>
          <internalNodes>
            0 -1 117 -8.3939526230096817e-03</internalNodes>
          <leafValues>
            -7.6295864582061768e-01 3.7056062370538712e-02</leafValues></_>
        <_>
          <internalNodes>
            0 -1 136 -1.9498143228702247e-04</internalNodes>
          <leafValues>
            4.7666305303573608e-01 -7.3019064962863922e-02</leafValues></_>
        <_>
          <internalNodes>
            0 -1 173 -1.2603511568158865e-03</internalNodes>
          <leafValues>
            -6.0063511133193970e-01 5.2381191402673721e-02</leafValues></_>
        <_>
          <internalNodes>
            0 -1 390 -1.0282854782417417e-03</internalNodes>
          <leafValues>
            4.9288508296012878e-01 -5.9350762516260147e-02</leafValues></_>
        <_>
          <internalNodes>
            0 -1 225 -2.1311605814844370e-03</internalNodes>
          <leafValues>
            -3.4784200787544250e-01 9.2182599008083344e-02</leafValues></_>
        <_>
          <internalNodes>
            0 -1 398 -8.4662795416079462e-05</internalNodes>
          <leafValues>
            5.0389331579208374e-01 -7.7320069074630737e-02</leafValues></_>
        <_>
          <internalNodes>
            0 -1 190 -4.1945284465327859e-04</internalNodes>
          <leafValues>
            -4.6194356679916382e-01 6.5834224224090576e-02</leafValues></_>
        <_>
          <internalNodes>
            0 -1 436 -2.2766605019569397e-02</internalNodes>
          <leafValues>
            4.7927540540695190e-01 -5.1782850176095963e-02</leafValues></_>
        <_>
          <internalNodes>
            0 -1 242 -5.9629708528518677e-02</internalNodes>
          <leafValues>
            -4.9562659859657288e-01 4.9364563077688217e-02</leafValues></_>
        <_>
          <internalNodes>
            0 -1 459 4.6805154532194138e-02</internalNodes>
          <leafValues>
            -2.8338769450783730e-02 8.6950516700744629e-01</leafValues></_>
        <_>
          <internalNodes>
            0 -1 481 2.5522536598145962e-03</internalNodes>
          <leafValues>
            4.5517761260271072e-02 -4.8699951171875000e-01</leafValues></_></weakClassifiers></_>
    <!-- stage 10 -->
    <_>
      <maxWeakCount>100</maxWeakCount>
      <stageThreshold>-2.5204892158508301e+00</stageThreshold>
      <weakClassifiers>
        <_>
          <internalNodes>
            0 -1 208 -4.0490785613656044e-04</internalNodes>
          <leafValues>
            6.5517240762710571e-01 -8.9268290996551514e-01</leafValues></_>
        <_>
          <internalNodes>
            0 -1 234 3.4473999403417110e-04</internalNodes>
          <leafValues>
            -6.9534587860107422e-01 8.8039749860763550e-01</leafValues></_>
        <_>
          <internalNodes>
            0 -1 376 -2.6157849788432941e-05</internalNodes>
          <leafValues>
            9.5759969949722290e-01 -4.2315775156021118e-01</leafValues></_>
        <_>
          <internalNodes>
            0 -1 319 1.1495845683384687e-04</internalNodes>
          <leafValues>
            -2.3620742559432983e-01 8.7934094667434692e-01</leafValues></_>
        <_>
          <internalNodes>
            0 -1 406 3.9216036384459585e-05</internalNodes>
          <leafValues>
            -1.4545810222625732e-01 9.4735783338546753e-01</leafValues></_>
        <_>
          <internalNodes>
            0 -1 461 -4.1998948290711269e-05</internalNodes>
          <leafValues>
            9.1677188873291016e-01 -1.1232247948646545e-01</leafValues></_>
        <_>
          <internalNodes>
            0 -1 462 4.3626147089526057e-05</internalNodes>
          <leafValues>
            -7.2055600583553314e-02 9.2110633850097656e-01</leafValues></_>
        <_>
          <internalNodes>
            0 -1 443 6.0414359904825687e-04</internalNodes>
          <leafValues>
            -5.0177320837974548e-02 8.9345151185989380e-01</leafValues></_>
        <_>
          <internalNodes>
            0 -1 495 1.6057929024100304e-02</internalNodes>
          <leafValues>
            1.0095852613449097e-01 -8.7945485115051270e-01</leafValues></_>
        <_>
          <internalNodes>
            0 -1 347 7.2672963142395020e-05</internalNodes>
          <leafValues>
            -8.2762233912944794e-02 9.3998557329177856e-01</leafValues></_>
        <_>
          <internalNodes>
            0 -1 307 -2.8294986113905907e-03</internalNodes>
          <leafValues>
            -6.6538113355636597e-01 8.8855296373367310e-02</leafValues></_>
        <_>
          <internalNodes>
            0 -1 349 1.2515975868154783e-05</internalNodes>
          <leafValues>
            -6.1529442667961121e-02 8.6358946561813354e-01</leafValues></_>
        <_>
          <internalNodes>
            0 -1 152 1.0598798980936408e-03</internalNodes>
          <leafValues>
            7.1744598448276520e-02 -5.9357601404190063e-01</leafValues></_>
        <_>
          <internalNodes>
            0 -1 277 7.3661780334077775e-05</internalNodes>
          <leafValues>
            -4.8203125596046448e-02 9.7798949480056763e-01</leafValues></_>
        <_>
          <internalNodes>
            0 -1 309 -2.2981996880844235e-04</internalNodes>
          <leafValues>
            8.7655448913574219e-01 -2.4741686880588531e-02</leafValues></_>
        <_>
          <internalNodes>
            0 -1 250 -2.3199148476123810e-02</internalNodes>
          <leafValues>
            -7.8675341606140137e-01 5.6008279323577881e-02</leafValues></_>
        <_>
          <internalNodes>
            0 -1 479 5.6514356401748955e-05</internalNodes>
          <leafValues>
            -2.7920266613364220e-02 8.9839941263198853e-01</leafValues></_>
        <_>
          <internalNodes>
            0 -1 256 -2.4444056180072948e-05</internalNodes>
          <leafValues>
            -7.9686534404754639e-01 3.7789087742567062e-02</leafValues></_>
        <_>
          <internalNodes>
            0 -1 423 -6.7208602558821440e-05</internalNodes>
          <leafValues>
            8.7558865547180176e-01 -1.9438596442341805e-02</leafValues></_>
        <_>
          <internalNodes>
            0 -1 243 -2.1743498742580414e-02</internalNodes>
          <leafValues>
            -7.9635161161422729e-01 2.1110337227582932e-02</leafValues></_>
        <_>
          <internalNodes>
            0 -1 308 -2.2477199672721326e-04</internalNodes>
          <leafValues>
            9.0951949357986450e-01 -1.7742801457643509e-02</leafValues></_>
        <_>
          <internalNodes>
            0 -1 384 -3.2816725433804095e-04</internalNodes>
          <leafValues>
            -8.8910597562789917e-01 1.4569177292287350e-02</leafValues></_>
        <_>
          <internalNodes>
            0 -1 332 9.9848519312217832e-05</internalNodes>
          <leafValues>
            -9.9840639159083366e-03 9.0814322233200073e-01</leafValues></_>
        <_>
          <internalNodes>
            0 -1 219 1.8131003016605973e-03</internalNodes>
          <leafValues>
            8.9390147477388382e-03 -1.</leafValues></_>
        <_>
          <internalNodes>
            0 -1 360 -1.3789898366667330e-04</internalNodes>
          <leafValues>
            1. -2.6765579823404551e-03</leafValues></_>
        <_>
          <internalNodes>
            0 -1 185 -4.7578993253409863e-03</internalNodes>
          <leafValues>
            -1. 4.3920106254518032e-03</leafValues></_>
        <_>
          <internalNodes>
            0 -1 324 7.9476652899757028e-05</internalNodes>
          <leafValues>
            -3.7098065949976444e-03 1.</leafValues></_>
        <_>
          <internalNodes>
            0 -1 321 1.3067689724266529e-03</internalNodes>
          <leafValues>
            1.2604707153514028e-03 -1.</leafValues></_>
        <_>
          <internalNodes>
            0 -1 321 8.3740777336061001e-04</internalNodes>
          <leafValues>
            6.6754785033040775e-10 1.</leafValues></_>
        <_>
          <internalNodes>
            0 -1 321 1.3067689724266529e-03</internalNodes>
          <leafValues>
            -6.4721990787608430e-15 -1.</leafValues></_>
        <_>
          <internalNodes>
            0 -1 321 8.3740777336061001e-04</internalNodes>
          <leafValues>
            7.0351587748462060e-15 1.</leafValues></_>
        <_>
          <internalNodes>
            0 -1 321 1.3067689724266529e-03</internalNodes>
          <leafValues>
            -1.4621228625619556e-14 -1.</leafValues></_>
        <_>
          <internalNodes>
            0 -1 321 8.3740777336061001e-04</internalNodes>
          <leafValues>
            1.4339177242095715e-16 1.</leafValues></_>
        <_>
          <internalNodes>
            0 -1 321 1.3067689724266529e-03</internalNodes>
          <leafValues>
            1.2188913378239578e-14 -1.</leafValues></_>
        <_>
          <internalNodes>
            0 -1 321 8.3740777336061001e-04</internalNodes>
          <leafValues>
            -1.2728776603435684e-14 1.</leafValues></_>
        <_>
          <internalNodes>
            0 -1 321 1.3067689724266529e-03</internalNodes>
          <leafValues>
            1.0996223225869742e-14 -1.</leafValues></_>
        <_>
          <internalNodes>
            0 -1 321 8.3740777336061001e-04</internalNodes>
          <leafValues>
            -1.1588766818187383e-14 1.</leafValues></_>
        <_>
          <internalNodes>
            0 -1 321 1.3067689724266529e-03</internalNodes>
          <leafValues>
            1.0454670169943864e-14 -1.</leafValues></_>
        <_>
          <internalNodes>
            0 -1 321 8.3740777336061001e-04</internalNodes>
          <leafValues>
            -1.1885890729491141e-14 1.</leafValues></_>
        <_>
          <internalNodes>
            0 -1 321 1.3067689724266529e-03</internalNodes>
          <leafValues>
            1.1267568536456763e-14 -1.</leafValues></_>
        <_>
          <internalNodes>
            0 -1 321 8.3740777336061001e-04</internalNodes>
          <leafValues>
            -1.1727792029886126e-14 1.</leafValues></_>
        <_>
          <internalNodes>
            0 -1 321 1.3067689724266529e-03</internalNodes>
          <leafValues>
            1.1248430674046499e-14 -1.</leafValues></_>
        <_>
          <internalNodes>
            0 -1 321 8.3740777336061001e-04</internalNodes>
          <leafValues>
            -1.1695850417445166e-14 1.</leafValues></_>
        <_>
          <internalNodes>
            0 -1 321 1.3067689724266529e-03</internalNodes>
          <leafValues>
            1.1375104451308380e-14 -1.</leafValues></_>
        <_>
          <internalNodes>
            0 -1 321 8.3740777336061001e-04</internalNodes>
          <leafValues>
            -1.1228678712749476e-14 1.</leafValues></_>
        <_>
          <internalNodes>
            0 -1 321 1.3067689724266529e-03</internalNodes>
          <leafValues>
            1.1375104451308380e-14 -1.</leafValues></_>
        <_>
          <internalNodes>
            0 -1 321 8.3740777336061001e-04</internalNodes>
          <leafValues>
            -1.1228678712749476e-14 1.</leafValues></_>
        <_>
          <internalNodes>
            0 -1 321 1.3067689724266529e-03</internalNodes>
          <leafValues>
            1.1375104451308380e-14 -1.</leafValues></_>
        <_>
          <internalNodes>
            0 -1 321 8.3740777336061001e-04</internalNodes>
          <leafValues>
            -1.1228678712749476e-14 1.</leafValues></_>
        <_>
          <internalNodes>
            0 -1 321 1.3067689724266529e-03</internalNodes>
          <leafValues>
            1.1375104451308380e-14 -1.</leafValues></_>
        <_>
          <internalNodes>
            0 -1 321 8.3740777336061001e-04</internalNodes>
          <leafValues>
            -1.1228678712749476e-14 1.</leafValues></_>
        <_>
          <internalNodes>
            0 -1 321 1.3067689724266529e-03</internalNodes>
          <leafValues>
            1.1375104451308380e-14 -1.</leafValues></_>
        <_>
          <internalNodes>
            0 -1 321 8.3740777336061001e-04</internalNodes>
          <leafValues>
            -1.1228678712749476e-14 1.</leafValues></_>
        <_>
          <internalNodes>
            0 -1 321 1.3067689724266529e-03</internalNodes>
          <leafValues>
            1.1375104451308380e-14 -1.</leafValues></_>
        <_>
          <internalNodes>
            0 -1 321 8.3740777336061001e-04</internalNodes>
          <leafValues>
            -1.1228678712749476e-14 1.</leafValues></_>
        <_>
          <internalNodes>
            0 -1 321 1.3067689724266529e-03</internalNodes>
          <leafValues>
            1.1375104451308380e-14 -1.</leafValues></_>
        <_>
          <internalNodes>
            0 -1 321 8.3740777336061001e-04</internalNodes>
          <leafValues>
            -1.1228678712749476e-14 1.</leafValues></_>
        <_>
          <internalNodes>
            0 -1 321 1.3067689724266529e-03</internalNodes>
          <leafValues>
            1.1375104451308380e-14 -1.</leafValues></_>
        <_>
          <internalNodes>
            0 -1 321 8.3740777336061001e-04</internalNodes>
          <leafValues>
            -1.1228678712749476e-14 1.</leafValues></_>
        <_>
          <internalNodes>
            0 -1 321 1.3067689724266529e-03</internalNodes>
          <leafValues>
            1.1375104451308380e-14 -1.</leafValues></_>
        <_>
          <internalNodes>
            0 -1 321 8.3740777336061001e-04</internalNodes>
          <leafValues>
            -1.1228448319787823e-14 1.</leafValues></_>
        <_>
          <internalNodes>
            0 -1 321 1.3067689724266529e-03</internalNodes>
          <leafValues>
            1.1317007308489155e-14 -1.</leafValues></_>
        <_>
          <internalNodes>
            0 -1 321 8.3740777336061001e-04</internalNodes>
          <leafValues>
            -1.1228448319787823e-14 1.</leafValues></_>
        <_>
          <internalNodes>
            0 -1 321 1.3067689724266529e-03</internalNodes>
          <leafValues>
            1.1317007308489155e-14 -1.</leafValues></_>
        <_>
          <internalNodes>
            0 -1 321 8.3740777336061001e-04</internalNodes>
          <leafValues>
            -1.1228448319787823e-14 1.</leafValues></_>
        <_>
          <internalNodes>
            0 -1 321 1.3067689724266529e-03</internalNodes>
          <leafValues>
            1.1317007308489155e-14 -1.</leafValues></_>
        <_>
          <internalNodes>
            0 -1 321 8.3740777336061001e-04</internalNodes>
          <leafValues>
            -1.1228448319787823e-14 1.</leafValues></_>
        <_>
          <internalNodes>
            0 -1 321 1.3067689724266529e-03</internalNodes>
          <leafValues>
            1.1317007308489155e-14 -1.</leafValues></_>
        <_>
          <internalNodes>
            0 -1 321 8.3740777336061001e-04</internalNodes>
          <leafValues>
            -1.1228448319787823e-14 1.</leafValues></_>
        <_>
          <internalNodes>
            0 -1 321 1.3067689724266529e-03</internalNodes>
          <leafValues>
            1.1317007308489155e-14 -1.</leafValues></_>
        <_>
          <internalNodes>
            0 -1 321 8.3740777336061001e-04</internalNodes>
          <leafValues>
            -1.1404241537660981e-14 1.</leafValues></_>
        <_>
          <internalNodes>
            0 -1 321 1.3067689724266529e-03</internalNodes>
          <leafValues>
            1.1320197234568515e-14 -1.</leafValues></_>
        <_>
          <internalNodes>
            0 -1 321 8.3740777336061001e-04</internalNodes>
          <leafValues>
            -1.1401483598384721e-14 1.</leafValues></_>
        <_>
          <internalNodes>
            0 -1 321 1.3067689724266529e-03</internalNodes>
          <leafValues>
            1.1327943350871155e-14 -1.</leafValues></_>
        <_>
          <internalNodes>
            0 -1 321 8.3740777336061001e-04</internalNodes>
          <leafValues>
            -1.1391372566093346e-14 1.</leafValues></_>
        <_>
          <internalNodes>
            0 -1 321 1.3067689724266529e-03</internalNodes>
          <leafValues>
            1.1331133276950515e-14 -1.</leafValues></_>
        <_>
          <internalNodes>
            0 -1 321 8.3740777336061001e-04</internalNodes>
          <leafValues>
            -1.1390453535345575e-14 1.</leafValues></_>
        <_>
          <internalNodes>
            0 -1 321 1.3067689724266529e-03</internalNodes>
          <leafValues>
            1.1358928663114665e-14 -1.</leafValues></_>
        <_>
          <internalNodes>
            0 -1 321 8.3740777336061001e-04</internalNodes>
          <leafValues>
            -1.1361959346999941e-14 1.</leafValues></_>
        <_>
          <internalNodes>
            0 -1 321 1.3067689724266529e-03</internalNodes>
          <leafValues>
            1.1359612218703099e-14 -1.</leafValues></_>
        <_>
          <internalNodes>
            0 -1 321 8.3740777336061001e-04</internalNodes>
          <leafValues>
            -1.1359431800685334e-14 1.</leafValues></_>
        <_>
          <internalNodes>
            0 -1 321 1.3067689724266529e-03</internalNodes>
          <leafValues>
            1.1362117742161077e-14 -1.</leafValues></_>
        <_>
          <internalNodes>
            0 -1 321 8.3740777336061001e-04</internalNodes>
          <leafValues>
            -1.1351848314708566e-14 1.</leafValues></_>
        <_>
          <internalNodes>
            0 -1 321 1.3067689724266529e-03</internalNodes>
          <leafValues>
            1.1369636853633854e-14 -1.</leafValues></_>
        <_>
          <internalNodes>
            0 -1 321 8.3740777336061001e-04</internalNodes>
          <leafValues>
            -1.1351618768779860e-14 1.</leafValues></_>
        <_>
          <internalNodes>
            0 -1 321 1.3067689724266529e-03</internalNodes>
          <leafValues>
            1.1369864705496665e-14 -1.</leafValues></_>
        <_>
          <internalNodes>
            0 -1 321 8.3740777336061001e-04</internalNodes>
          <leafValues>
            -1.1349091222465253e-14 1.</leafValues></_>
        <_>
          <internalNodes>
            0 -1 321 1.3067689724266529e-03</internalNodes>
          <leafValues>
            1.1372370228954643e-14 -1.</leafValues></_>
        <_>
          <internalNodes>
            0 -1 321 8.3740777336061001e-04</internalNodes>
          <leafValues>
            -1.1349091222465253e-14 1.</leafValues></_>
        <_>
          <internalNodes>
            0 -1 321 1.3067689724266529e-03</internalNodes>
          <leafValues>
            1.1372370228954643e-14 -1.</leafValues></_>
        <_>
          <internalNodes>
            0 -1 321 8.3740777336061001e-04</internalNodes>
          <leafValues>
            -1.1349091222465253e-14 1.</leafValues></_>
        <_>
          <internalNodes>
            0 -1 321 1.3067689724266529e-03</internalNodes>
          <leafValues>
            1.1372370228954643e-14 -1.</leafValues></_>
        <_>
          <internalNodes>
            0 -1 321 8.3740777336061001e-04</internalNodes>
          <leafValues>
            -1.1349091222465253e-14 1.</leafValues></_>
        <_>
          <internalNodes>
            0 -1 321 1.3067689724266529e-03</internalNodes>
          <leafValues>
            1.1198080494562862e-14 -1.</leafValues></_>
        <_>
          <internalNodes>
            0 -1 321 8.3740777336061001e-04</internalNodes>
          <leafValues>
            -1.1234193744269049e-14 1.</leafValues></_>
        <_>
          <internalNodes>
            0 -1 321 1.3067689724266529e-03</internalNodes>
          <leafValues>
            1.1373053784543077e-14 -1.</leafValues></_>
        <_>
          <internalNodes>
            0 -1 321 8.3740777336061001e-04</internalNodes>
          <leafValues>
            -1.1348401737646188e-14 1.</leafValues></_>
        <_>
          <internalNodes>
            0 -1 321 1.3067689724266529e-03</internalNodes>
          <leafValues>
            1.1198308346425673e-14 -1.</leafValues></_>
        <_>
          <internalNodes>
            0 -1 321 8.3740777336061001e-04</internalNodes>
          <leafValues>
            -1.1233963351307396e-14 1.</leafValues></_>
        <_>
          <internalNodes>
            0 -1 321 1.3067689724266529e-03</internalNodes>
          <leafValues>
            1.1373281636405889e-14 -1.</leafValues></_></weakClassifiers></_>
    <!-- stage 11 -->
    <_>
      <maxWeakCount>100</maxWeakCount>
      <stageThreshold>-2.5412194728851318e+00</stageThreshold>
      <weakClassifiers>
        <_>
          <internalNodes>
            0 -1 208 -3.6690384149551392e-04</internalNodes>
          <leafValues>
            8.3439493179321289e-01 -8.9443379640579224e-01</leafValues></_>
        <_>
          <internalNodes>
            0 -1 93 6.8786117481067777e-04</internalNodes>
          <leafValues>
            -7.3705404996871948e-01 9.2479956150054932e-01</leafValues></_>
        <_>
          <internalNodes>
            0 -1 200 -2.8937615570612252e-04</internalNodes>
          <leafValues>
            8.9225250482559204e-01 -4.9080476164817810e-01</leafValues></_>
        <_>
          <internalNodes>
            0 -1 223 -4.5972381485626101e-05</internalNodes>
          <leafValues>
            9.5077586174011230e-01 -2.4285209178924561e-01</leafValues></_>
        <_>
          <internalNodes>
            0 -1 453 -3.8336009311024100e-05</internalNodes>
          <leafValues>
            9.7225838899612427e-01 -1.1075080931186676e-01</leafValues></_>
        <_>
          <internalNodes>
            0 -1 340 5.1439550588838756e-05</internalNodes>
          <leafValues>
            -8.1622295081615448e-02 9.7909468412399292e-01</leafValues></_>
        <_>
          <internalNodes>
            0 -1 405 -6.5797525166999549e-05</internalNodes>
          <leafValues>
            9.4003868103027344e-01 -5.3813580423593521e-02</leafValues></_>
        <_>
          <internalNodes>
            0 -1 366 7.8698183642700315e-05</internalNodes>
          <leafValues>
            -3.0119579285383224e-02 1.</leafValues></_>
        <_>
          <internalNodes>
            0 -1 163 -1.9605755805969238e-02</internalNodes>
          <leafValues>
            -9.3743306398391724e-01 8.4726274013519287e-02</leafValues></_>
        <_>
          <internalNodes>
            0 -1 211 -2.6853702962398529e-02</internalNodes>
          <leafValues>
            -7.7915638685226440e-01 3.0888823792338371e-02</leafValues></_>
        <_>
          <internalNodes>
            0 -1 457 5.0063903472619131e-05</internalNodes>
          <leafValues>
            -4.5642904937267303e-02 1.</leafValues></_>
        <_>
          <internalNodes>
            0 -1 302 1.8445940440869890e-05</internalNodes>
          <leafValues>
            -1.9875278696417809e-02 1.</leafValues></_>
        <_>
          <internalNodes>
            0 -1 297 3.4185131080448627e-03</internalNodes>
          <leafValues>
            3.8554944097995758e-02 -9.4287937879562378e-01</leafValues></_>
        <_>
          <internalNodes>
            0 -1 407 1.8445940440869890e-05</internalNodes>
          <leafValues>
            -2.2646162658929825e-02 9.1266691684722900e-01</leafValues></_>
        <_>
          <internalNodes>
            0 -1 355 -7.0303427055478096e-03</internalNodes>
          <leafValues>
            -8.1372678279876709e-01 3.4865189343690872e-02</leafValues></_>
        <_>
          <internalNodes>
            0 -1 343 -1.4847647980786860e-04</internalNodes>
          <leafValues>
            1. -1.7836872488260269e-02</leafValues></_>
        <_>
          <internalNodes>
            0 -1 125 -2.2658486850559711e-03</internalNodes>
          <leafValues>
            -1. 1.4454458840191364e-02</leafValues></_>
        <_>
          <internalNodes>
            0 -1 364 -2.1170322725083679e-05</internalNodes>
          <leafValues>
            1. -1.8258134368807077e-03</leafValues></_>
        <_>
          <internalNodes>
            0 -1 275 -2.2727675735950470e-02</internalNodes>
          <leafValues>
            -1. 8.9893043041229248e-03</leafValues></_>
        <_>
          <internalNodes>
            0 -1 124 5.5485083721578121e-03</internalNodes>
          <leafValues>
            -6.3192634843289852e-03 1.</leafValues></_>
        <_>
          <internalNodes>
            0 -1 259 -1.9439074676483870e-03</internalNodes>
          <leafValues>
            -1. 3.6978346761316061e-03</leafValues></_>
        <_>
          <internalNodes>
            0 -1 269 -2.2354221437126398e-04</internalNodes>
          <leafValues>
            1. -2.9924095142632723e-03</leafValues></_>
        <_>
          <internalNodes>
            0 -1 157 5.4098847613204271e-05</internalNodes>
          <leafValues>
            1.7752314452081919e-03 -1.</leafValues></_>
        <_>
          <internalNodes>
            0 -1 247 5.9729005442932248e-04</internalNodes>
          <leafValues>
            -4.8275999142788351e-04 1.</leafValues></_>
        <_>
          <internalNodes>
            0 -1 33 1.9610461313277483e-03</internalNodes>
          <leafValues>
            1.4693762641400099e-03 -1.</leafValues></_>
        <_>
          <internalNodes>
            0 -1 87 1.1215375270694494e-03</internalNodes>
          <leafValues>
            -2.9000735594308935e-05 1.</leafValues></_>
        <_>
          <internalNodes>
            0 -1 19 2.0277291536331177e-02</internalNodes>
          <leafValues>
            -2.8417550922149462e-15 -1.</leafValues></_>
        <_>
          <internalNodes>
            0 -1 50 1.7479286761954427e-03</internalNodes>
          <leafValues>
            -1.5395221998915076e-03 1.</leafValues></_>
        <_>
          <internalNodes>
            0 -1 33 1.9610461313277483e-03</internalNodes>
          <leafValues>
            -1.2162834073237150e-09 -1.</leafValues></_>
        <_>
          <internalNodes>
            0 -1 33 1.7506927251815796e-03</internalNodes>
          <leafValues>
            1.1787318117287369e-14 1.</leafValues></_>
        <_>
          <internalNodes>
            0 -1 33 1.9610461313277483e-03</internalNodes>
          <leafValues>
            4.2653123329301768e-15 -1.</leafValues></_>
        <_>
          <internalNodes>
            0 -1 33 1.7506927251815796e-03</internalNodes>
          <leafValues>
            -2.2073756532478214e-14 1.</leafValues></_>
        <_>
          <internalNodes>
            0 -1 33 1.9610461313277483e-03</internalNodes>
          <leafValues>
            1.6824337604505468e-14 -1.</leafValues></_>
        <_>
          <internalNodes>
            0 -1 33 1.7506927251815796e-03</internalNodes>
          <leafValues>
            7.3190956537106354e-15 1.</leafValues></_>
        <_>
          <internalNodes>
            0 -1 33 1.9610461313277483e-03</internalNodes>
          <leafValues>
            -9.3710336037088884e-16 -1.</leafValues></_>
        <_>
          <internalNodes>
            0 -1 33 1.7506927251815796e-03</internalNodes>
          <leafValues>
            -1.9327955238352366e-14 1.</leafValues></_>
        <_>
          <internalNodes>
            0 -1 33 1.9610461313277483e-03</internalNodes>
          <leafValues>
            1.7011220177724079e-14 -1.</leafValues></_>
        <_>
          <internalNodes>
            0 -1 33 1.7506927251815796e-03</internalNodes>
          <leafValues>
            -1.9397472926399421e-14 1.</leafValues></_>
        <_>
          <internalNodes>
            0 -1 33 1.9610461313277483e-03</internalNodes>
          <leafValues>
            1.7301976095330379e-14 -1.</leafValues></_>
        <_>
          <internalNodes>
            0 -1 33 1.7506927251815796e-03</internalNodes>
          <leafValues>
            -1.9503230072061804e-14 1.</leafValues></_>
        <_>
          <internalNodes>
            0 -1 33 1.9610461313277483e-03</internalNodes>
          <leafValues>
            1.7502992260306875e-14 -1.</leafValues></_>
        <_>
          <internalNodes>
            0 -1 33 1.7506927251815796e-03</internalNodes>
          <leafValues>
            7.3083832280267103e-15 1.</leafValues></_>
        <_>
          <internalNodes>
            0 -1 33 1.9610461313277483e-03</internalNodes>
          <leafValues>
            -9.4764775589390240e-16 -1.</leafValues></_>
        <_>
          <internalNodes>
            0 -1 33 1.7506927251815796e-03</internalNodes>
          <leafValues>
            -1.9328868339869507e-14 1.</leafValues></_>
        <_>
          <internalNodes>
            0 -1 33 1.9610461313277483e-03</internalNodes>
          <leafValues>
            1.7003591799001107e-14 -1.</leafValues></_>
        <_>
          <internalNodes>
            0 -1 33 1.7506927251815796e-03</internalNodes>
          <leafValues>
            -1.9400662852478781e-14 1.</leafValues></_>
        <_>
          <internalNodes>
            0 -1 33 1.9610461313277483e-03</internalNodes>
          <leafValues>
            1.7294347716607407e-14 -1.</leafValues></_>
        <_>
          <internalNodes>
            0 -1 33 1.7506927251815796e-03</internalNodes>
          <leafValues>
            -1.9506419998141164e-14 1.</leafValues></_>
        <_>
          <internalNodes>
            0 -1 33 1.9610461313277483e-03</internalNodes>
          <leafValues>
            1.7473827221867015e-14 -1.</leafValues></_>
        <_>
          <internalNodes>
            0 -1 33 1.7506927251815796e-03</internalNodes>
          <leafValues>
            7.4537984562795395e-15 1.</leafValues></_>
        <_>
          <internalNodes>
            0 -1 33 1.9610461313277483e-03</internalNodes>
          <leafValues>
            -1.0077731191053280e-15 -1.</leafValues></_>
        <_>
          <internalNodes>
            0 -1 33 1.7506927251815796e-03</internalNodes>
          <leafValues>
            -1.9338895515899103e-14 1.</leafValues></_>
        <_>
          <internalNodes>
            0 -1 33 1.9610461313277483e-03</internalNodes>
          <leafValues>
            1.7000451000832688e-14 -1.</leafValues></_>
        <_>
          <internalNodes>
            0 -1 33 1.7506927251815796e-03</internalNodes>
          <leafValues>
            -1.9459240262979099e-14 1.</leafValues></_>
        <_>
          <internalNodes>
            0 -1 33 1.9610461313277483e-03</internalNodes>
          <leafValues>
            1.7294347716607407e-14 -1.</leafValues></_>
        <_>
          <internalNodes>
            0 -1 33 1.7506927251815796e-03</internalNodes>
          <leafValues>
            -1.9506419998141164e-14 1.</leafValues></_>
        <_>
          <internalNodes>
            0 -1 33 1.9610461313277483e-03</internalNodes>
          <leafValues>
            1.7473827221867015e-14 -1.</leafValues></_>
        <_>
          <internalNodes>
            0 -1 33 1.7506927251815796e-03</internalNodes>
          <leafValues>
            7.2789810203616190e-15 1.</leafValues></_>
        <_>
          <internalNodes>
            0 -1 33 1.9610461313277483e-03</internalNodes>
          <leafValues>
            -9.4787211374580639e-16 -1.</leafValues></_>
        <_>
          <internalNodes>
            0 -1 33 1.7506927251815796e-03</internalNodes>
          <leafValues>
            -1.9387215357408172e-14 1.</leafValues></_>
        <_>
          <internalNodes>
            0 -1 33 1.9610461313277483e-03</internalNodes>
          <leafValues>
            1.6946159577045476e-14 -1.</leafValues></_>
        <_>
          <internalNodes>
            0 -1 33 1.7506927251815796e-03</internalNodes>
          <leafValues>
            -1.9458328855527854e-14 1.</leafValues></_>
        <_>
          <internalNodes>
            0 -1 33 1.9610461313277483e-03</internalNodes>
          <leafValues>
            1.7301976095330379e-14 -1.</leafValues></_>
        <_>
          <internalNodes>
            0 -1 33 1.7506927251815796e-03</internalNodes>
          <leafValues>
            -1.9503230072061804e-14 1.</leafValues></_>
        <_>
          <internalNodes>
            0 -1 33 1.9610461313277483e-03</internalNodes>
          <leafValues>
            1.7502992260306875e-14 -1.</leafValues></_>
        <_>
          <internalNodes>
            0 -1 33 1.7506927251815796e-03</internalNodes>
          <leafValues>
            7.3083832280267103e-15 1.</leafValues></_>
        <_>
          <internalNodes>
            0 -1 33 1.9610461313277483e-03</internalNodes>
          <leafValues>
            -9.4764775589390240e-16 -1.</leafValues></_>
        <_>
          <internalNodes>
            0 -1 33 1.7506927251815796e-03</internalNodes>
          <leafValues>
            -1.9386532648852685e-14 1.</leafValues></_>
        <_>
          <internalNodes>
            0 -1 33 1.9610461313277483e-03</internalNodes>
          <leafValues>
            1.6953562645004479e-14 -1.</leafValues></_>
        <_>
          <internalNodes>
            0 -1 33 1.7506927251815796e-03</internalNodes>
          <leafValues>
            -1.9513941650712782e-14 1.</leafValues></_>
        <_>
          <internalNodes>
            0 -1 33 1.9610461313277483e-03</internalNodes>
          <leafValues>
            1.7305116893498798e-14 -1.</leafValues></_>
        <_>
          <internalNodes>
            0 -1 33 1.7506927251815796e-03</internalNodes>
          <leafValues>
            -1.9473599165500954e-14 1.</leafValues></_>
        <_>
          <internalNodes>
            0 -1 33 1.9610461313277483e-03</internalNodes>
          <leafValues>
            1.7503664804466995e-14 -1.</leafValues></_>
        <_>
          <internalNodes>
            0 -1 33 1.7506927251815796e-03</internalNodes>
          <leafValues>
            7.3090667836151445e-15 1.</leafValues></_>
        <_>
          <internalNodes>
            0 -1 33 1.9610461313277483e-03</internalNodes>
          <leafValues>
            -9.4024426441842619e-16 -1.</leafValues></_>
        <_>
          <internalNodes>
            0 -1 33 1.7506927251815796e-03</internalNodes>
          <leafValues>
            -1.9386532648852685e-14 1.</leafValues></_>
        <_>
          <internalNodes>
