<?xml version="1.0"?>
<opencv_storage>
<cascade>
  <stageType>BOOST</stageType>
  <featureType>HAAR</featureType>
  <height>24</height>
  <width>24</width>
  <stageParams>
    <boostType>GAB</boostType>
    <minHitRate>9.9500000476837158e-01</minHitRate>
    <maxFalseAlarm>5.0000000000000000e-01</maxFalseAlarm>
    <weightTrimRate>9.4999998807907104e-01</weightTrimRate>
    <maxDepth>1</maxDepth>
    <maxWeakCount>100</maxWeakCount></stageParams>
  <featureParams>
    <maxCatCount>0</maxCatCount>
    <featSize>1</featSize>
    <mode>BASIC</mode></featureParams>
  <stageNum>20</stageNum>
  <stages>
    <!-- stage 0 -->
    <_>
      <maxWeakCount>8</maxWeakCount>
      <stageThreshold>-1.4484696388244629e+00</stageThreshold>
      <weakClassifiers>
        <_>
          <internalNodes>
            0 -1 162 6.9001927040517330e-03</internalNodes>
          <leafValues>
            -7.5939851999282837e-01 5.1851850003004074e-02</leafValues></_>
        <_>
          <internalNodes>
            0 -1 84 1.8813143670558929e-01</internalNodes>
          <leafValues>
            -4.2882177978754044e-02 -8.9013236761093140e-01</leafValues></_>
        <_>
          <internalNodes>
            0 -1 149 -8.2436256110668182e-02</internalNodes>
          <leafValues>
            -6.4049261808395386e-01 1.3564458489418030e-01</leafValues></_>
        <_>
          <internalNodes>
            0 -1 346 -1.0872123530134559e-03</internalNodes>
          <leafValues>
            4.7893857955932617e-01 -2.3133446276187897e-01</leafValues></_>
        <_>
          <internalNodes>
            0 -1 15 -3.4884159686043859e-04</internalNodes>
          <leafValues>
            -4.8127600550651550e-01 2.0505832135677338e-01</leafValues></_>
        <_>
          <internalNodes>
            0 -1 381 4.9015022814273834e-03</internalNodes>
          <leafValues>
            -1.3497284054756165e-01 6.2401628494262695e-01</leafValues></_>
        <_>
          <internalNodes>
            0 -1 95 5.6164026260375977e-02</internalNodes>
          <leafValues>
            1.5480870008468628e-01 -7.4305230379104614e-01</leafValues></_>
        <_>
          <internalNodes>
            0 -1 112 -1.1748874559998512e-02</internalNodes>
          <leafValues>
            -8.0422532558441162e-01 1.2246780097484589e-01</leafValues></_></weakClassifiers></_>
    <!-- stage 1 -->
    <_>
      <maxWeakCount>9</maxWeakCount>
      <stageThreshold>-1.3153668642044067e+00</stageThreshold>
      <weakClassifiers>
        <_>
          <internalNodes>
            0 -1 378 1.2099449522793293e-03</internalNodes>
          <leafValues>
            -7.5253921747207642e-01 1.2068965286016464e-01</leafValues></_>
        <_>
          <internalNodes>
            0 -1 349 7.5478997314348817e-04</internalNodes>
          <leafValues>
            -3.7229886651039124e-01 5.2115321159362793e-01</leafValues></_>
        <_>
          <internalNodes>
            0 -1 235 1.6097954940050840e-03</internalNodes>
          <leafValues>
            -1.8358223140239716e-01 6.2856459617614746e-01</leafValues></_>
        <_>
          <internalNodes>
            0 -1 205 2.6588807813823223e-03</internalNodes>
          <leafValues>
            -1.4786586165428162e-01 6.2799918651580811e-01</leafValues></_>
        <_>
          <internalNodes>
            0 -1 192 -5.3464365191757679e-03</internalNodes>
          <leafValues>
            6.1379945278167725e-01 -1.5507236123085022e-01</leafValues></_>
        <_>
          <internalNodes>
            0 -1 35 -2.6482588052749634e-01</internalNodes>
          <leafValues>
            -8.1651622056961060e-01 1.4036302268505096e-01</leafValues></_>
        <_>
          <internalNodes>
            0 -1 45 8.8941112160682678e-02</internalNodes>
          <leafValues>
            2.0603305101394653e-01 -7.7651417255401611e-01</leafValues></_>
        <_>
          <internalNodes>
            0 -1 313 1.1186352930963039e-03</internalNodes>
          <leafValues>
            -2.2174522280693054e-01 5.6898093223571777e-01</leafValues></_>
        <_>
          <internalNodes>
            0 -1 282 -4.9607799155637622e-05</internalNodes>
          <leafValues>
            -4.3412381410598755e-01 2.2624672949314117e-01</leafValues></_></weakClassifiers></_>
    <!-- stage 2 -->
    <_>
      <maxWeakCount>11</maxWeakCount>
      <stageThreshold>-1.4286000728607178e+00</stageThreshold>
      <weakClassifiers>
        <_>
          <internalNodes>
            0 -1 114 -1.2319693714380264e-01</internalNodes>
          <leafValues>
            3.5849055647850037e-01 -7.1553230285644531e-01</leafValues></_>
        <_>
          <internalNodes>
            0 -1 425 7.9784067347645760e-03</internalNodes>
          <leafValues>
            8.1913284957408905e-02 -6.0851913690567017e-01</leafValues></_>
        <_>
          <internalNodes>
            0 -1 461 1.4199977158568799e-04</internalNodes>
          <leafValues>
            1.8039847910404205e-01 -4.1528818011283875e-01</leafValues></_>
        <_>
          <internalNodes>
            0 -1 48 2.1943473257124424e-04</internalNodes>
          <leafValues>
            2.0672480762004852e-01 -3.9552620053291321e-01</leafValues></_>
        <_>
          <internalNodes>
            0 -1 449 -1.2676678597927094e-02</internalNodes>
          <leafValues>
            -6.2823587656021118e-01 1.3539485633373260e-01</leafValues></_>
        <_>
          <internalNodes>
            0 -1 291 1.6578231006860733e-03</internalNodes>
          <leafValues>
            -1.8635891377925873e-01 4.1401377320289612e-01</leafValues></_>
        <_>
          <internalNodes>
            0 -1 188 -2.2350430488586426e-02</internalNodes>
          <leafValues>
            3.9208203554153442e-01 -1.8653102219104767e-01</leafValues></_>
        <_>
          <internalNodes>
            0 -1 224 1.4527257531881332e-02</internalNodes>
          <leafValues>
            1.7452050745487213e-01 -4.7576650977134705e-01</leafValues></_>
        <_>
          <internalNodes>
            0 -1 9 -2.9385148081928492e-04</internalNodes>
          <leafValues>
            -4.0008360147476196e-01 1.9641597568988800e-01</leafValues></_>
        <_>
          <internalNodes>
            0 -1 198 4.7856383025646210e-03</internalNodes>
          <leafValues>
            -1.8457692861557007e-01 4.2973738908767700e-01</leafValues></_>
        <_>
          <internalNodes>
            0 -1 463 2.6262027677148581e-04</internalNodes>
          <leafValues>
            2.0975059270858765e-01 -3.5661378502845764e-01</leafValues></_></weakClassifiers></_>
    <!-- stage 3 -->
    <_>
      <maxWeakCount>14</maxWeakCount>
      <stageThreshold>-1.3968640565872192e+00</stageThreshold>
      <weakClassifiers>
        <_>
          <internalNodes>
            0 -1 34 -5.7714092731475830e-01</internalNodes>
          <leafValues>
            8.0000001192092896e-01 -6.9296014308929443e-01</leafValues></_>
        <_>
          <internalNodes>
            0 -1 418 -5.6338962167501450e-04</internalNodes>
          <leafValues>
            2.4170114099979401e-01 -3.5439953207969666e-01</leafValues></_>
        <_>
          <internalNodes>
            0 -1 405 2.4775629863142967e-03</internalNodes>
          <leafValues>
            1.2800827622413635e-01 -6.6089326143264771e-01</leafValues></_>
        <_>
          <internalNodes>
            0 -1 236 -1.0038223117589951e-03</internalNodes>
          <leafValues>
            -4.7165152430534363e-01 1.6706380248069763e-01</leafValues></_>
        <_>
          <internalNodes>
            0 -1 439 -3.5271369852125645e-03</internalNodes>
          <leafValues>
            3.9287087321281433e-01 -2.0647108554840088e-01</leafValues></_>
        <_>
          <internalNodes>
            0 -1 410 1.9341200590133667e-02</internalNodes>
          <leafValues>
            -1.1541307717561722e-01 5.2583044767379761e-01</leafValues></_>
        <_>
          <internalNodes>
            0 -1 254 8.2184672355651855e-03</internalNodes>
          <leafValues>
            -1.1016743630170822e-01 6.1572319269180298e-01</leafValues></_>
        <_>
          <internalNodes>
            0 -1 44 1.0119484504684806e-03</internalNodes>
          <leafValues>
            1.0225043445825577e-01 -7.3460793495178223e-01</leafValues></_>
        <_>
          <internalNodes>
            0 -1 97 -1.6448821127414703e-01</internalNodes>
          <leafValues>
            7.1048152446746826e-01 -1.0046986490488052e-01</leafValues></_>
        <_>
          <internalNodes>
            0 -1 330 -2.6308241649530828e-04</internalNodes>
          <leafValues>
            -3.4458893537521362e-01 1.9335669279098511e-01</leafValues></_>
        <_>
          <internalNodes>
            0 -1 273 -1.5171016566455364e-03</internalNodes>
          <leafValues>
            3.6640420556068420e-01 -1.5585389733314514e-01</leafValues></_>
        <_>
          <internalNodes>
            0 -1 202 3.2647181302309036e-02</internalNodes>
          <leafValues>
            8.9092612266540527e-02 -7.6081365346908569e-01</leafValues></_>
        <_>
          <internalNodes>
            0 -1 223 1.8615964800119400e-02</internalNodes>
          <leafValues>
            1.0419438779354095e-01 -5.8446663618087769e-01</leafValues></_>
        <_>
          <internalNodes>
            0 -1 72 -1.0704584419727325e-03</internalNodes>
          <leafValues>
            3.0186790227890015e-01 -2.3854342103004456e-01</leafValues></_></weakClassifiers></_>
    <!-- stage 4 -->
    <_>
      <maxWeakCount>16</maxWeakCount>
      <stageThreshold>-1.4639979600906372e+00</stageThreshold>
      <weakClassifiers>
        <_>
          <internalNodes>
            0 -1 441 1.4857153873890638e-03</internalNodes>
          <leafValues>
            -7.5144511461257935e-01 -1.3043478131294250e-01</leafValues></_>
        <_>
          <internalNodes>
            0 -1 253 -3.0077667906880379e-03</internalNodes>
          <leafValues>
            3.8848015666007996e-01 -3.1959691643714905e-01</leafValues></_>
        <_>
          <internalNodes>
            0 -1 24 -1.3123769313097000e-02</internalNodes>
          <leafValues>
            -6.6216337680816650e-01 1.0156676918268204e-01</leafValues></_>
        <_>
          <internalNodes>
            0 -1 105 -9.1566797345876694e-03</internalNodes>
          <leafValues>
            5.4675191640853882e-01 -9.9753037095069885e-02</leafValues></_>
        <_>
          <internalNodes>
            0 -1 278 4.8802541568875313e-03</internalNodes>
          <leafValues>
            -1.5430958569049835e-01 4.6681505441665649e-01</leafValues></_>
        <_>
          <internalNodes>
            0 -1 78 2.6287501677870750e-03</internalNodes>
          <leafValues>
            2.1213304996490479e-01 -3.4846588969230652e-01</leafValues></_>
        <_>
          <internalNodes>
            0 -1 403 -5.9030653210356832e-04</internalNodes>
          <leafValues>
            3.3288255333900452e-01 -2.1940720081329346e-01</leafValues></_>
        <_>
          <internalNodes>
            0 -1 258 -2.2681526024825871e-04</internalNodes>
          <leafValues>
            -3.6710557341575623e-01 1.7727349698543549e-01</leafValues></_>
        <_>
          <internalNodes>
            0 -1 309 3.4694147761911154e-03</internalNodes>
          <leafValues>
            -1.1760503053665161e-01 5.8881026506423950e-01</leafValues></_>
        <_>
          <internalNodes>
            0 -1 67 2.2875018417835236e-02</internalNodes>
          <leafValues>
            1.0249212384223938e-01 -6.6134101152420044e-01</leafValues></_>
        <_>
          <internalNodes>
            0 -1 100 1.0401744395494461e-02</internalNodes>
          <leafValues>
            -8.9084669947624207e-02 7.7835834026336670e-01</leafValues></_>
        <_>
          <internalNodes>
            0 -1 189 -4.6345070004463196e-03</internalNodes>
          <leafValues>
            -3.6074027419090271e-01 1.8755097687244415e-01</leafValues></_>
        <_>
          <internalNodes>
            0 -1 314 2.6294146664440632e-04</internalNodes>
          <leafValues>
            -2.4878315627574921e-01 2.8155153989791870e-01</leafValues></_>
        <_>
          <internalNodes>
            0 -1 74 2.0529481116682291e-04</internalNodes>
          <leafValues>
            1.9246324896812439e-01 -3.3959099650382996e-01</leafValues></_>
        <_>
          <internalNodes>
            0 -1 122 5.9742662124335766e-03</internalNodes>
          <leafValues>
            -1.5602836012840271e-01 4.3883338570594788e-01</leafValues></_>
        <_>
          <internalNodes>
            0 -1 341 7.9382769763469696e-03</internalNodes>
          <leafValues>
            -1.2090253829956055e-01 5.0986880064010620e-01</leafValues></_></weakClassifiers></_>
    <!-- stage 5 -->
    <_>
      <maxWeakCount>47</maxWeakCount>
      <stageThreshold>-1.8013787269592285e+00</stageThreshold>
      <weakClassifiers>
        <_>
          <internalNodes>
            0 -1 165 -8.0481842160224915e-02</internalNodes>
          <leafValues>
            2.6470589637756348e-01 -7.2413790225982666e-01</leafValues></_>
        <_>
          <internalNodes>
            0 -1 173 2.3830093443393707e-02</internalNodes>
          <leafValues>
            -4.3397775292396545e-01 2.6179689168930054e-01</leafValues></_>
        <_>
          <internalNodes>
            0 -1 87 -5.0738616846501827e-04</internalNodes>
          <leafValues>
            3.2357415556907654e-01 -3.0627962946891785e-01</leafValues></_>
        <_>
          <internalNodes>
            0 -1 467 -2.3577334359288216e-03</internalNodes>
          <leafValues>
            -8.4223216772079468e-01 8.7571687996387482e-02</leafValues></_>
        <_>
          <internalNodes>
            0 -1 143 2.5626588612794876e-02</internalNodes>
          <leafValues>
            -1.9410289824008942e-01 4.3277153372764587e-01</leafValues></_>
        <_>
          <internalNodes>
            0 -1 147 -5.3975366055965424e-02</internalNodes>
          <leafValues>
            5.4841220378875732e-01 -1.3438217341899872e-01</leafValues></_>
        <_>
          <internalNodes>
            0 -1 115 3.4716869704425335e-03</internalNodes>
          <leafValues>
            7.4966728687286377e-02 -9.6542608737945557e-01</leafValues></_>
        <_>
          <internalNodes>
            0 -1 186 5.2236638963222504e-02</internalNodes>
          <leafValues>
            -8.9010521769523621e-02 8.0444592237472534e-01</leafValues></_>
        <_>
          <internalNodes>
            0 -1 70 -8.2053318619728088e-03</internalNodes>
          <leafValues>
            5.2439975738525391e-01 -1.0110533982515335e-01</leafValues></_>
        <_>
          <internalNodes>
            0 -1 82 1.4124030712991953e-03</internalNodes>
          <leafValues>
            1.2120179086923599e-01 -5.0616890192031860e-01</leafValues></_>
        <_>
          <internalNodes>
            0 -1 107 -1.0302381590008736e-02</internalNodes>
          <leafValues>
            5.0829827785491943e-01 -1.0273414850234985e-01</leafValues></_>
        <_>
          <internalNodes>
            0 -1 81 1.7407278064638376e-03</internalNodes>
          <leafValues>
            7.6115347445011139e-02 -6.9430333375930786e-01</leafValues></_>
        <_>
          <internalNodes>
            0 -1 101 2.9236850142478943e-01</internalNodes>
          <leafValues>
            -8.7916657328605652e-02 6.1768537759780884e-01</leafValues></_>
        <_>
          <internalNodes>
            0 -1 73 -3.0631112167611718e-04</internalNodes>
          <leafValues>
            -4.3253517150878906e-01 1.2256810814142227e-01</leafValues></_>
        <_>
          <internalNodes>
            0 -1 38 -7.2540774941444397e-02</internalNodes>
          <leafValues>
            7.3959070444107056e-01 -6.7616142332553864e-02</leafValues></_>
        <_>
          <internalNodes>
            0 -1 335 2.1530715748667717e-03</internalNodes>
          <leafValues>
            -1.1176646500825882e-01 4.5216500759124756e-01</leafValues></_>
        <_>
          <internalNodes>
            0 -1 340 -4.3239099904894829e-03</internalNodes>
          <leafValues>
            -8.9659535884857178e-01 6.2086831778287888e-02</leafValues></_>
        <_>
          <internalNodes>
            0 -1 141 -6.3472897745668888e-03</internalNodes>
          <leafValues>
            -8.0262124538421631e-01 5.0200406461954117e-02</leafValues></_>
        <_>
          <internalNodes>
            0 -1 376 4.0839044377207756e-03</internalNodes>
          <leafValues>
            -1.2600773572921753e-01 3.9762470126152039e-01</leafValues></_>
        <_>
          <internalNodes>
            0 -1 458 1.4678090810775757e-03</internalNodes>
          <leafValues>
            1.2280306220054626e-01 -4.3867188692092896e-01</leafValues></_>
        <_>
          <internalNodes>
            0 -1 177 1.8065435811877251e-02</internalNodes>
          <leafValues>
            -1.0905005037784576e-01 4.3519517779350281e-01</leafValues></_>
        <_>
          <internalNodes>
            0 -1 58 1.1150845093652606e-03</internalNodes>
          <leafValues>
            9.1023772954940796e-02 -5.8824908733367920e-01</leafValues></_>
        <_>
          <internalNodes>
            0 -1 69 -3.2209553755819798e-03</internalNodes>
          <leafValues>
            -7.4407076835632324e-01 6.1053235083818436e-02</leafValues></_>
        <_>
          <internalNodes>
            0 -1 268 4.0174052119255066e-03</internalNodes>
          <leafValues>
            -1.2003845721483231e-01 4.2561766505241394e-01</leafValues></_>
        <_>
          <internalNodes>
            0 -1 430 -1.8811711925081909e-04</internalNodes>
          <leafValues>
            -4.3766096234321594e-01 1.3115416467189789e-01</leafValues></_>
        <_>
          <internalNodes>
            0 -1 308 -2.3475629277527332e-03</internalNodes>
          <leafValues>
            3.4478497505187988e-01 -1.5196141600608826e-01</leafValues></_>
        <_>
          <internalNodes>
            0 -1 66 -9.1110903304070234e-04</internalNodes>
          <leafValues>
            -4.4554519653320313e-01 1.1150013655424118e-01</leafValues></_>
        <_>
          <internalNodes>
            0 -1 328 -9.3565080314874649e-03</internalNodes>
          <leafValues>
            3.5888028144836426e-01 -1.3239900767803192e-01</leafValues></_>
        <_>
          <internalNodes>
            0 -1 302 -3.4789723576977849e-04</internalNodes>
          <leafValues>
            -4.1246783733367920e-01 1.1895382404327393e-01</leafValues></_>
        <_>
          <internalNodes>
            0 -1 32 -8.1459194421768188e-02</internalNodes>
          <leafValues>
            5.4548758268356323e-01 -9.1864138841629028e-02</leafValues></_>
        <_>
          <internalNodes>
            0 -1 178 -2.3699162527918816e-02</internalNodes>
          <leafValues>
            -8.4582179784774780e-01 5.2731003612279892e-02</leafValues></_>
        <_>
          <internalNodes>
            0 -1 305 6.1702519655227661e-02</internalNodes>
          <leafValues>
            -6.6360481083393097e-02 7.3255193233489990e-01</leafValues></_>
        <_>
          <internalNodes>
            0 -1 75 -1.9912630319595337e-02</internalNodes>
          <leafValues>
            -5.2295649051666260e-01 8.4994122385978699e-02</leafValues></_>
        <_>
          <internalNodes>
            0 -1 108 2.2031052038073540e-02</internalNodes>
          <leafValues>
            -7.6950781047344208e-02 5.6836950778961182e-01</leafValues></_>
        <_>
          <internalNodes>
            0 -1 324 -5.4861372336745262e-03</internalNodes>
          <leafValues>
            -6.2405097484588623e-01 6.7797213792800903e-02</leafValues></_>
        <_>
          <internalNodes>
            0 -1 319 -9.9020311608910561e-03</internalNodes>
          <leafValues>
            6.2998241186141968e-01 -6.2714889645576477e-02</leafValues></_>
        <_>
          <internalNodes>
            0 -1 442 -2.8084460645914078e-03</internalNodes>
          <leafValues>
            -5.9083789587020874e-01 6.8648397922515869e-02</leafValues></_>
        <_>
          <internalNodes>
            0 -1 419 -1.1706026270985603e-02</internalNodes>
          <leafValues>
            4.3920862674713135e-01 -8.1449650228023529e-02</leafValues></_>
        <_>
          <internalNodes>
            0 -1 92 2.9571033082902431e-03</internalNodes>
          <leafValues>
            5.9844255447387695e-02 -6.6927373409271240e-01</leafValues></_>
        <_>
          <internalNodes>
            0 -1 180 -3.1639337539672852e-02</internalNodes>
          <leafValues>
            7.2230702638626099e-01 -5.4486304521560669e-02</leafValues></_>
        <_>
          <internalNodes>
            0 -1 323 2.8554187156260014e-03</internalNodes>
          <leafValues>
            8.9000768959522247e-02 -3.9340257644653320e-01</leafValues></_>
        <_>
          <internalNodes>
            0 -1 230 -2.5933571159839630e-03</internalNodes>
          <leafValues>
            4.0710604190826416e-01 -8.9392580091953278e-02</leafValues></_>
        <_>
          <internalNodes>
            0 -1 99 -1.3396122085396200e-04</internalNodes>
          <leafValues>
            -3.5699295997619629e-01 1.0177437961101532e-01</leafValues></_>
        <_>
          <internalNodes>
            0 -1 31 1.7282467335462570e-02</internalNodes>
          <leafValues>
            -7.4599258601665497e-02 4.9607342481613159e-01</leafValues></_>
        <_>
          <internalNodes>
            0 -1 405 5.9549631550908089e-03</internalNodes>
          <leafValues>
            3.5876918584108353e-02 -1.</leafValues></_>
        <_>
          <internalNodes>
            0 -1 385 6.8674416979774833e-04</internalNodes>
          <leafValues>
            -1.0318387299776077e-01 3.4354686737060547e-01</leafValues></_>
        <_>
          <internalNodes>
            0 -1 466 -9.7572949016466737e-05</internalNodes>
          <leafValues>
            -3.9385220408439636e-01 1.0024338215589523e-01</leafValues></_></weakClassifiers></_>
    <!-- stage 6 -->
    <_>
      <maxWeakCount>13</maxWeakCount>
      <stageThreshold>-1.6152690649032593e+00</stageThreshold>
      <weakClassifiers>
        <_>
          <internalNodes>
            0 -1 217 -4.9846187233924866e-02</internalNodes>
          <leafValues>
            3.0434781312942505e-01 -7.0685172080993652e-01</leafValues></_>
        <_>
          <internalNodes>
            0 -1 77 -2.8826884226873517e-04</internalNodes>
          <leafValues>
            -5.7439529895782471e-01 2.2522641345858574e-02</leafValues></_>
        <_>
          <internalNodes>
            0 -1 343 -1.2787905288860202e-03</internalNodes>
          <leafValues>
            -6.7881578207015991e-01 1.0577129572629929e-01</leafValues></_>
        <_>
          <internalNodes>
            0 -1 26 -3.0974257970228791e-04</internalNodes>
          <leafValues>
            -3.8910567760467529e-01 1.7625291645526886e-01</leafValues></_>
        <_>
          <internalNodes>
            0 -1 462 1.0103967040777206e-02</internalNodes>
          <leafValues>
            9.6719451248645782e-02 -8.9702266454696655e-01</leafValues></_>
        <_>
          <internalNodes>
            0 -1 117 -1.9826786592602730e-03</internalNodes>
          <leafValues>
            -1. 4.1830424219369888e-02</leafValues></_>
        <_>
          <internalNodes>
            0 -1 420 2.9200688004493713e-05</internalNodes>
          <leafValues>
            1.9721034169197083e-01 -3.2003062963485718e-01</leafValues></_>
        <_>
          <internalNodes>
            0 -1 279 -1.6681931811035611e-05</internalNodes>
          <leafValues>
            -3.3078730106353760e-01 2.1574282646179199e-01</leafValues></_>
        <_>
          <internalNodes>
            0 -1 352 -8.0489926040172577e-03</internalNodes>
          <leafValues>
            -8.0588412284851074e-01 7.6845288276672363e-02</leafValues></_>
        <_>
          <internalNodes>
            0 -1 51 -2.8543430380523205e-03</internalNodes>
          <leafValues>
            -6.2361574172973633e-01 9.4937570393085480e-02</leafValues></_>
        <_>
          <internalNodes>
            0 -1 447 -1.3880336191505194e-03</internalNodes>
          <leafValues>
            -7.5944465398788452e-01 6.9835461676120758e-02</leafValues></_>
        <_>
          <internalNodes>
            0 -1 456 -3.7968793185427785e-04</internalNodes>
          <leafValues>
            -4.3872356414794922e-01 1.3111853599548340e-01</leafValues></_>
        <_>
          <internalNodes>
            0 -1 456 1.2485781917348504e-04</internalNodes>
          <leafValues>
            2.1047885715961456e-01 -3.3851382136344910e-01</leafValues></_></weakClassifiers></_>
    <!-- stage 7 -->
    <_>
      <maxWeakCount>61</maxWeakCount>
      <stageThreshold>-1.9190521240234375e+00</stageThreshold>
      <weakClassifiers>
        <_>
          <internalNodes>
            0 -1 337 1.2291924213059247e-04</internalNodes>
          <leafValues>
            -8.2079648971557617e-01 -2.0000000298023224e-01</leafValues></_>
        <_>
          <internalNodes>
            0 -1 322 -3.5579910036176443e-04</internalNodes>
          <leafValues>
            3.0600908398628235e-01 -4.9080213904380798e-01</leafValues></_>
        <_>
          <internalNodes>
            0 -1 94 -4.1579344542697072e-04</internalNodes>
          <leafValues>
            4.0133726596832275e-01 -2.9245582222938538e-01</leafValues></_>
        <_>
          <internalNodes>
            0 -1 68 3.7188320420682430e-03</internalNodes>
          <leafValues>
            -1.6371582448482513e-01 4.9146044254302979e-01</leafValues></_>
        <_>
          <internalNodes>
            0 -1 438 1.4187460765242577e-03</internalNodes>
          <leafValues>
            -9.0895742177963257e-02 6.3674879074096680e-01</leafValues></_>
        <_>
          <internalNodes>
            0 -1 30 -1.0566958039999008e-01</internalNodes>
          <leafValues>
            6.2304753065109253e-01 -8.0992333590984344e-02</leafValues></_>
        <_>
          <internalNodes>
            0 -1 367 1.1295443400740623e-02</internalNodes>
          <leafValues>
            9.7585707902908325e-02 -7.1371740102767944e-01</leafValues></_>
        <_>
          <internalNodes>
            0 -1 39 -4.8630400560796261e-03</internalNodes>
          <leafValues>
            4.7881531715393066e-01 -1.2829943001270294e-01</leafValues></_>
        <_>
          <internalNodes>
            0 -1 83 -1.7963513731956482e-02</internalNodes>
          <leafValues>
            -6.7924958467483521e-01 1.0350726544857025e-01</leafValues></_>
        <_>
          <internalNodes>
            0 -1 213 -9.5684081315994263e-03</internalNodes>
          <leafValues>
            5.9916526079177856e-01 -1.0680273175239563e-01</leafValues></_>
        <_>
          <internalNodes>
            0 -1 187 3.0228034593164921e-03</internalNodes>
          <leafValues>
            1.0917219519615173e-01 -5.2177691459655762e-01</leafValues></_>
        <_>
          <internalNodes>
            0 -1 454 -1.2306589633226395e-03</internalNodes>
          <leafValues>
            4.1180947422981262e-01 -1.5804208815097809e-01</leafValues></_>
        <_>
          <internalNodes>
            0 -1 127 2.0751156844198704e-03</internalNodes>
          <leafValues>
            1.3770832121372223e-01 -4.5178017020225525e-01</leafValues></_>
        <_>
          <internalNodes>
            0 -1 360 -7.1502628270536661e-04</internalNodes>
          <leafValues>
            4.7795483469963074e-01 -1.2507560849189758e-01</leafValues></_>
        <_>
          <internalNodes>
            0 -1 450 -2.0662968978285789e-02</internalNodes>
          <leafValues>
            -7.3078060150146484e-01 8.9511588215827942e-02</leafValues></_>
        <_>
          <internalNodes>
            0 -1 350 1.4749662950634956e-03</internalNodes>
          <leafValues>
            -1.2761257588863373e-01 4.1204237937927246e-01</leafValues></_>
        <_>
          <internalNodes>
            0 -1 408 1.6548216342926025e-02</internalNodes>
          <leafValues>
            7.7479921281337738e-02 -7.4286580085754395e-01</leafValues></_>
        <_>
          <internalNodes>
            0 -1 452 -2.0366385579109192e-02</internalNodes>
          <leafValues>
            -9.3791961669921875e-01 4.1558150202035904e-02</leafValues></_>
        <_>
          <internalNodes>
            0 -1 453 -1.2460525613278151e-03</internalNodes>
          <leafValues>
            6.4996773004531860e-01 -9.1816261410713196e-02</leafValues></_>
        <_>
          <internalNodes>
            0 -1 289 -1.7744392156600952e-02</internalNodes>
          <leafValues>
            -6.4182621240615845e-01 8.4608286619186401e-02</leafValues></_>
        <_>
          <internalNodes>
            0 -1 377 -3.1114201992750168e-03</internalNodes>
          <leafValues>
            8.2994252443313599e-01 -6.1436593532562256e-02</leafValues></_>
        <_>
          <internalNodes>
            0 -1 387 1.7356905154883862e-03</internalNodes>
          <leafValues>
            9.5932766795158386e-02 -6.1285603046417236e-01</leafValues></_>
        <_>
          <internalNodes>
            0 -1 388 3.1964392401278019e-03</internalNodes>
          <leafValues>
            -9.8459787666797638e-02 5.6098943948745728e-01</leafValues></_>
        <_>
          <internalNodes>
            0 -1 459 1.1318141332594678e-05</internalNodes>
          <leafValues>
            1.0354798287153244e-01 -4.2444771528244019e-01</leafValues></_>
        <_>
          <internalNodes>
            0 -1 336 7.7999907080084085e-04</internalNodes>
          <leafValues>
            -1.1696381121873856e-01 4.6376663446426392e-01</leafValues></_>
        <_>
          <internalNodes>
            0 -1 54 -3.2786279916763306e-02</internalNodes>
          <leafValues>
            -5.7005459070205688e-01 8.4594406187534332e-02</leafValues></_>
        <_>
          <internalNodes>
            0 -1 396 -2.2187551949173212e-03</internalNodes>
          <leafValues>
            5.0189715623855591e-01 -8.9643813669681549e-02</leafValues></_>
        <_>
          <internalNodes>
            0 -1 246 6.8923281505703926e-03</internalNodes>
          <leafValues>
            7.1494042873382568e-02 -6.8210798501968384e-01</leafValues></_>
        <_>
          <internalNodes>
            0 -1 216 -1.9894285127520561e-02</internalNodes>
          <leafValues>
            -7.1315491199493408e-01 5.1745936274528503e-02</leafValues></_>
        <_>
          <internalNodes>
            0 -1 170 -5.2848518826067448e-03</internalNodes>
          <leafValues>
            5.3740620613098145e-01 -8.6668320000171661e-02</leafValues></_>
        <_>
          <internalNodes>
            0 -1 342 8.1712398678064346e-03</internalNodes>
          <leafValues>
            5.6358024477958679e-02 -7.8842580318450928e-01</leafValues></_>
        <_>
          <internalNodes>
            0 -1 345 4.1447989642620087e-03</internalNodes>
          <leafValues>
            -7.9733274877071381e-02 6.1396318674087524e-01</leafValues></_>
        <_>
          <internalNodes>
            0 -1 103 -1.3405072502791882e-02</internalNodes>
          <leafValues>
            -7.7682203054428101e-01 6.0813967138528824e-02</leafValues></_>
        <_>
          <internalNodes>
            0 -1 404 5.3725772886537015e-05</internalNodes>
          <leafValues>
            8.9512161910533905e-02 -3.7640216946601868e-01</leafValues></_>
        <_>
          <internalNodes>
            0 -1 250 -3.3003976568579674e-05</internalNodes>
          <leafValues>
            4.2105826735496521e-01 -1.3363495469093323e-01</leafValues></_>
        <_>
          <internalNodes>
            0 -1 215 -7.9337805509567261e-03</internalNodes>
          <leafValues>
            -5.0434726476669312e-01 7.9823933541774750e-02</leafValues></_>
        <_>
          <internalNodes>
            0 -1 365 1.6952806618064642e-03</internalNodes>
          <leafValues>
            -7.4505366384983063e-02 6.7992287874221802e-01</leafValues></_>
        <_>
          <internalNodes>
            0 -1 451 -2.9931197059340775e-04</internalNodes>
          <leafValues>
            -4.5096221566200256e-01 9.7886227071285248e-02</leafValues></_>
        <_>
          <internalNodes>
            0 -1 169 2.7332049794495106e-03</internalNodes>
          <leafValues>
            -6.8087905645370483e-02 5.7745230197906494e-01</leafValues></_>
        <_>
          <internalNodes>
            0 -1 46 1.1453758634161204e-04</internalNodes>
          <leafValues>
            8.5272148251533508e-02 -4.3058055639266968e-01</leafValues></_>
        <_>
          <internalNodes>
            0 -1 276 5.2063527982681990e-04</internalNodes>
          <leafValues>
            -8.5092484951019287e-02 4.1803586483001709e-01</leafValues></_>
        <_>
          <internalNodes>
            0 -1 370 1.1140003800392151e-02</internalNodes>
          <leafValues>
            3.8147665560245514e-02 -8.1841051578521729e-01</leafValues></_>
        <_>
          <internalNodes>
            0 -1 290 1.1466240510344505e-02</internalNodes>
          <leafValues>
            -5.0100181251764297e-02 8.0085015296936035e-01</leafValues></_>
        <_>
          <internalNodes>
            0 -1 10 -1.5832919161766768e-03</internalNodes>
          <leafValues>
            -5.7763743400573730e-01 5.7420011609792709e-02</leafValues></_>
        <_>
          <internalNodes>
            0 -1 294 4.2098313570022583e-03</internalNodes>
          <leafValues>
            -7.9066976904869080e-02 4.1237941384315491e-01</leafValues></_>
        <_>
          <internalNodes>
            0 -1 137 1.5677850693464279e-02</internalNodes>
          <leafValues>
            5.7172067463397980e-02 -6.1688059568405151e-01</leafValues></_>
        <_>
          <internalNodes>
            0 -1 298 2.8622470796108246e-02</internalNodes>
          <leafValues>
            2.8133926913142204e-02 -1.</leafValues></_>
        <_>
          <internalNodes>
            0 -1 412 2.3413505405187607e-02</internalNodes>
          <leafValues>
            2.2406384348869324e-02 -8.4534376859664917e-01</leafValues></_>
        <_>
          <internalNodes>
            0 -1 398 -1.8272554734721780e-03</internalNodes>
          <leafValues>
            4.6513870358467102e-01 -7.1310147643089294e-02</leafValues></_>
        <_>
          <internalNodes>
            0 -1 427 -1.8316928297281265e-02</internalNodes>
          <leafValues>
            -8.7623512744903564e-01 2.4138022214174271e-02</leafValues></_>
        <_>
          <internalNodes>
            0 -1 318 -1.8123069778084755e-02</internalNodes>
          <leafValues>
            -8.0894267559051514e-01 2.4792110547423363e-02</leafValues></_>
        <_>
          <internalNodes>
            0 -1 417 1.9242225680500269e-03</internalNodes>
          <leafValues>
            -4.9394696950912476e-02 5.6490331888198853e-01</leafValues></_>
        <_>
          <internalNodes>
            0 -1 196 6.0045598074793816e-03</internalNodes>
          <leafValues>
            3.2254170626401901e-02 -8.2872956991195679e-01</leafValues></_>
        <_>
          <internalNodes>
            0 -1 373 -1.9188612932339311e-03</internalNodes>
          <leafValues>
            5.2104920148849487e-01 -4.6699546277523041e-02</leafValues></_>
        <_>
          <internalNodes>
            0 -1 275 1.5830013900995255e-02</internalNodes>
          <leafValues>
            3.6609422415494919e-02 -7.1654266119003296e-01</leafValues></_>
        <_>
          <internalNodes>
            0 -1 269 -5.8158144354820251e-02</internalNodes>
          <leafValues>
            6.4084678888320923e-01 -3.5593416541814804e-02</leafValues></_>
        <_>
          <internalNodes>
            0 -1 172 -8.6505180224776268e-03</internalNodes>
          <leafValues>
            -5.4363107681274414e-01 4.2198192328214645e-02</leafValues></_>
        <_>
          <internalNodes>
            0 -1 259 -1.3772312551736832e-02</internalNodes>
          <leafValues>
            8.7875759601593018e-01 -2.1508859470486641e-02</leafValues></_>
        <_>
          <internalNodes>
            0 -1 464 6.2549149151891470e-04</internalNodes>
          <leafValues>
            4.4635236263275146e-02 -4.8174929618835449e-01</leafValues></_>
        <_>
          <internalNodes>
            0 -1 233 -2.0947009325027466e-03</internalNodes>
          <leafValues>
            5.2011078596115112e-01 -4.4389136135578156e-02</leafValues></_>
        <_>
          <internalNodes>
            0 -1 411 -1.1402210220694542e-02</internalNodes>
          <leafValues>
            -8.3489257097244263e-01 2.4523956701159477e-02</leafValues></_></weakClassifiers></_>
    <!-- stage 8 -->
    <_>
      <maxWeakCount>100</maxWeakCount>
      <stageThreshold>-2.2408061027526855e+00</stageThreshold>
      <weakClassifiers>
        <_>
          <internalNodes>
            0 -1 358 -1.4980809646658599e-04</internalNodes>
          <leafValues>
            4.1935482621192932e-01 -8.6771965026855469e-01</leafValues></_>
        <_>
          <internalNodes>
            0 -1 355 2.9913813341408968e-04</internalNodes>
          <leafValues>
            -6.5077680349349976e-01 7.1141344308853149e-01</leafValues></_>
        <_>
          <internalNodes>
            0 -1 354 -5.2433356177061796e-04</internalNodes>
          <leafValues>
            6.5127611160278320e-01 -3.6424612998962402e-01</leafValues></_>
        <_>
          <internalNodes>
            0 -1 327 1.1747977696359158e-03</internalNodes>
          <leafValues>
            -1.9365884363651276e-01 6.4902746677398682e-01</leafValues></_>
        <_>
          <internalNodes>
            0 -1 159 2.5876972358673811e-04</internalNodes>
          <leafValues>
            -1.4974249899387360e-01 5.5929261445999146e-01</leafValues></_>
        <_>
          <internalNodes>
            0 -1 145 4.7781243920326233e-03</internalNodes>
          <leafValues>
            -6.1460833996534348e-02 9.4903355836868286e-01</leafValues></_>
        <_>
          <internalNodes>
            0 -1 432 5.4971380159258842e-03</internalNodes>
          <leafValues>
            -6.5248988568782806e-02 7.5357186794281006e-01</leafValues></_>
        <_>
          <internalNodes>
            0 -1 43 1.4303126372396946e-02</internalNodes>
          <leafValues>
            1.2211348116397858e-01 -7.3186063766479492e-01</leafValues></_>
        <_>
          <internalNodes>
            0 -1 270 -3.3914770465344191e-03</internalNodes>
          <leafValues>
            7.1583092212677002e-01 -9.9957011640071869e-02</leafValues></_>
        <_>
          <internalNodes>
            0 -1 57 -9.7378402948379517e-02</internalNodes>
          <leafValues>
            -7.4607241153717041e-01 9.7042970359325409e-02</leafValues></_>
        <_>
          <internalNodes>
            0 -1 407 -1.4637822285294533e-02</internalNodes>
          <leafValues>
            7.9592752456665039e-01 -8.1013917922973633e-02</leafValues></_>
        <_>
          <internalNodes>
            0 -1 297 2.3524500429630280e-03</internalNodes>
          <leafValues>
            8.4635302424430847e-02 -6.8717497587203979e-01</leafValues></_>
        <_>
          <internalNodes>
            0 -1 443 1.1212223209440708e-02</internalNodes>
          <leafValues>
            -7.1245647966861725e-02 7.8286290168762207e-01</leafValues></_>
        <_>
          <internalNodes>
            0 -1 421 6.0080469120293856e-04</internalNodes>
          <leafValues>
            1.2050659954547882e-01 -4.5586133003234863e-01</leafValues></_>
        <_>
          <internalNodes>
            0 -1 366 2.3110900074243546e-03</internalNodes>
          <leafValues>
            -7.1023263037204742e-02 8.1939995288848877e-01</leafValues></_>
        <_>
          <internalNodes>
            0 -1 455 3.3491370268166065e-03</internalNodes>
          <leafValues>
            -5.7607285678386688e-02 6.7402023077011108e-01</leafValues></_>
        <_>
          <internalNodes>
            0 -1 181 -7.6212018728256226e-02</internalNodes>
          <leafValues>
            -6.1443644762039185e-01 8.1637009978294373e-02</leafValues></_>
        <_>
          <internalNodes>
            0 -1 395 -6.4647775143384933e-03</internalNodes>
          <leafValues>
            8.8359588384628296e-01 -5.6680593639612198e-02</leafValues></_>
        <_>
          <internalNodes>
            0 -1 146 -4.3743881396949291e-03</internalNodes>
          <leafValues>
            -5.8769989013671875e-01 7.3313355445861816e-02</leafValues></_>
        <_>
          <internalNodes>
            0 -1 281 -1.7852329183369875e-03</internalNodes>
          <leafValues>
            6.7528599500656128e-01 -6.5096370875835419e-02</leafValues></_>
        <_>
          <internalNodes>
            0 -1 304 2.7475259266793728e-03</internalNodes>
          <leafValues>
            6.1737179756164551e-02 -5.4857325553894043e-01</leafValues></_>
        <_>
          <internalNodes>
            0 -1 299 -8.3370006177574396e-04</internalNodes>
          <leafValues>
            6.1548274755477905e-01 -6.4608864486217499e-02</leafValues></_>
        <_>
          <internalNodes>
            0 -1 280 -4.7827319940552115e-04</internalNodes>
          <leafValues>
            -6.0752773284912109e-01 6.0591571033000946e-02</leafValues></_>
        <_>
          <internalNodes>
            0 -1 79 4.6253893524408340e-03</internalNodes>
          <leafValues>
            -5.8561794459819794e-02 6.2731140851974487e-01</leafValues></_>
        <_>
          <internalNodes>
            0 -1 133 -2.4192324781324714e-04</internalNodes>
          <leafValues>
            -5.2263116836547852e-01 6.3238739967346191e-02</leafValues></_>
        <_>
          <internalNodes>
            0 -1 151 2.1431836648844182e-04</internalNodes>
          <leafValues>
            -4.9287404865026474e-02 6.0262113809585571e-01</leafValues></_>
        <_>
          <internalNodes>
            0 -1 50 -1.1940463446080685e-03</internalNodes>
          <leafValues>
            -6.5226912498474121e-01 3.6227997392416000e-02</leafValues></_>
        <_>
          <internalNodes>
            0 -1 300 2.7542854659259319e-03</internalNodes>
          <leafValues>
            -3.8207083940505981e-02 7.1134388446807861e-01</leafValues></_>
        <_>
          <internalNodes>
            0 -1 372 -2.6138864923268557e-03</internalNodes>
          <leafValues>
            -7.2884237766265869e-01 3.3447194844484329e-02</leafValues></_>
        <_>
          <internalNodes>
            0 -1 134 -7.5956853106617928e-04</internalNodes>
          <leafValues>
            7.1070390939712524e-01 -3.3779472112655640e-02</leafValues></_>
        <_>
          <internalNodes>
            0 -1 64 -1.1755608022212982e-02</internalNodes>
          <leafValues>
            -6.9679504632949829e-01 3.2617047429084778e-02</leafValues></_>
        <_>
          <internalNodes>
            0 -1 312 -2.9210858047008514e-03</internalNodes>
          <leafValues>
            9.4909721612930298e-01 -2.6482842862606049e-02</leafValues></_>
        <_>
          <internalNodes>
            0 -1 426 -8.0702215200290084e-04</internalNodes>
          <leafValues>
            -6.7088592052459717e-01 3.2482549548149109e-02</leafValues></_>
        <_>
          <internalNodes>
            0 -1 423 -2.4402349663432688e-04</internalNodes>
          <leafValues>
            7.0204567909240723e-01 -3.2127339392900467e-02</leafValues></_>
        <_>
          <internalNodes>
            0 -1 374 -1.9283208996057510e-02</internalNodes>
          <leafValues>
            -8.5292285680770874e-01 1.0908090509474277e-02</leafValues></_>
        <_>
          <internalNodes>
            0 -1 331 -3.2140880823135376e-02</internalNodes>
          <leafValues>
            6.6107171773910522e-01 -1.8860908225178719e-02</leafValues></_>
        <_>
          <internalNodes>
            0 -1 229 2.0938725210726261e-03</internalNodes>
          <leafValues>
            1.8559468910098076e-02 -7.8359663486480713e-01</leafValues></_>
        <_>
          <internalNodes>
            0 -1 271 3.5608254838734865e-03</internalNodes>
          <leafValues>
            -8.4278853610157967e-03 8.6976599693298340e-01</leafValues></_>
        <_>
          <internalNodes>
            0 -1 120 1.5652472939109430e-05</internalNodes>
          <leafValues>
            1.1854237876832485e-02 -7.8613215684890747e-01</leafValues></_>
        <_>
          <internalNodes>
            0 -1 243 2.7354888152331114e-03</internalNodes>
          <leafValues>
            -4.6571474522352219e-03 9.2332911491394043e-01</leafValues></_>
        <_>
          <internalNodes>
            0 -1 110 1.2038610875606537e-02</internalNodes>
          <leafValues>
            8.8047515600919724e-03 -9.3291991949081421e-01</leafValues></_>
        <_>
          <internalNodes>
            0 -1 76 -4.0374230593442917e-03</internalNodes>
          <leafValues>
            8.8241112232208252e-01 -1.1582923121750355e-02</leafValues></_>
        <_>
          <internalNodes>
            0 -1 161 -1.5920933801680803e-03</internalNodes>
          <leafValues>
            -9.2831128835678101e-01 6.8876203149557114e-03</leafValues></_>
        <_>
          <internalNodes>
            0 -1 161 -1.6981265507638454e-03</internalNodes>
          <leafValues>
            8.8679420948028564e-01 -6.8182696122676134e-04</leafValues></_>
        <_>
          <internalNodes>
            0 -1 160 -3.3023841679096222e-03</internalNodes>
          <leafValues>
            -9.5542240142822266e-01 -2.9949657618999481e-04</leafValues></_>
        <_>
          <internalNodes>
            0 -1 160 -1.6025220975279808e-03</internalNodes>
          <leafValues>
            8.8061314821243286e-01 -3.0060999561101198e-03</leafValues></_>
        <_>
          <internalNodes>
            0 -1 182 -6.6593725932762027e-05</internalNodes>
          <leafValues>
            -9.1957312822341919e-01 3.5463133826851845e-03</leafValues></_>
        <_>
          <internalNodes>
            0 -1 183 -9.2183596279937774e-05</internalNodes>
          <leafValues>
            9.4135928153991699e-01 -1.4511094195768237e-03</leafValues></_>
        <_>
          <internalNodes>
            0 -1 292 -1.2113667617086321e-04</internalNodes>
          <leafValues>
            -8.3665496110916138e-01 4.5196516439318657e-03</leafValues></_>
        <_>
          <internalNodes>
            0 -1 255 -1.5186631935648620e-04</internalNodes>
          <leafValues>
            1. 2.0226961933076382e-03</leafValues></_>
        <_>
          <internalNodes>
            0 -1 255 -3.2492564059793949e-04</internalNodes>
          <leafValues>
            -1. 6.0847128042951226e-04</leafValues></_>
        <_>
          <internalNodes>
            0 -1 255 -1.5186631935648620e-04</internalNodes>
          <leafValues>
            1. -1.1572485091164708e-03</leafValues></_>
        <_>
          <internalNodes>
            0 -1 255 -1.3287265028338879e-04</internalNodes>
          <leafValues>
            -1. 5.4877990623936057e-04</leafValues></_>
        <_>
          <internalNodes>
            0 -1 255 -1.5186631935648620e-04</internalNodes>
          <leafValues>
            1. 5.5074056426462903e-11</leafValues></_>
        <_>
          <internalNodes>
            0 -1 255 -1.3287265028338879e-04</internalNodes>
          <leafValues>
            -1. 7.6951486361383908e-15</leafValues></_>
        <_>
          <internalNodes>
            0 -1 255 -1.5186631935648620e-04</internalNodes>
          <leafValues>
            1. 7.3203611209338333e-15</leafValues></_>
        <_>
          <internalNodes>
            0 -1 255 -1.3287265028338879e-04</internalNodes>
          <leafValues>
            -1. 6.9044381917996995e-16</leafValues></_>
        <_>
          <internalNodes>
            0 -1 255 -1.5186631935648620e-04</internalNodes>
          <leafValues>
            1. -8.8282085160544706e-15</leafValues></_>
        <_>
          <internalNodes>
            0 -1 255 -1.3287265028338879e-04</internalNodes>
          <leafValues>
            -1. 3.9451601368894161e-15</leafValues></_>
        <_>
          <internalNodes>
            0 -1 255 -1.5186631935648620e-04</internalNodes>
          <leafValues>
            1. 5.9991104254121085e-15</leafValues></_>
        <_>
          <internalNodes>
            0 -1 255 -1.3287265028338879e-04</internalNodes>
          <leafValues>
            -1. 2.8074782628779657e-16</leafValues></_>
        <_>
          <internalNodes>
            0 -1 255 -1.5186631935648620e-04</internalNodes>
          <leafValues>
            1. -9.0527366215808515e-15</leafValues></_>
        <_>
          <internalNodes>
            0 -1 255 -1.3287265028338879e-04</internalNodes>
          <leafValues>
            -1. 3.7719080178580215e-15</leafValues></_>
        <_>
          <internalNodes>
            0 -1 255 -1.5186631935648620e-04</internalNodes>
          <leafValues>
            1. 5.9241895141945184e-15</leafValues></_>
        <_>
          <internalNodes>
            0 -1 255 -1.3287265028338879e-04</internalNodes>
          <leafValues>
            -1. 5.7058966299511132e-16</leafValues></_>
        <_>
          <internalNodes>
            0 -1 255 -1.5186631935648620e-04</internalNodes>
          <leafValues>
            1. -9.2873952411563938e-15</leafValues></_>
        <_>
          <internalNodes>
            0 -1 255 -1.3287265028338879e-04</internalNodes>
          <leafValues>
            -1. 2.9958873482862063e-15</leafValues></_>
        <_>
          <internalNodes>
            0 -1 255 -1.5186631935648620e-04</internalNodes>
          <leafValues>
            1. 5.8954462981623910e-15</leafValues></_>
        <_>
          <internalNodes>
            0 -1 255 -1.3287265028338879e-04</internalNodes>
          <leafValues>
            -1. 1.5016745366384031e-16</leafValues></_>
        <_>
          <internalNodes>
            0 -1 255 -1.5186631935648620e-04</internalNodes>
          <leafValues>
            1. -9.2270814131142041e-15</leafValues></_>
        <_>
          <internalNodes>
            0 -1 255 -1.3287265028338879e-04</internalNodes>
          <leafValues>
            -1. 3.0555811482110059e-15</leafValues></_>
        <_>
          <internalNodes>
            0 -1 255 -1.5186631935648620e-04</internalNodes>
          <leafValues>
            1. 5.8947394491679073e-15</leafValues></_>
        <_>
          <internalNodes>
            0 -1 255 -1.3287265028338879e-04</internalNodes>
          <leafValues>
            -1. 1.4946791032852667e-16</leafValues></_>
        <_>
          <internalNodes>
            0 -1 255 -1.5186631935648620e-04</internalNodes>
          <leafValues>
            1. -9.2873952411563938e-15</leafValues></_>
        <_>
          <internalNodes>
            0 -1 255 -1.3287265028338879e-04</internalNodes>
          <leafValues>
            -1. 2.9958873482862063e-15</leafValues></_>
        <_>
          <internalNodes>
            0 -1 255 -1.5186631935648620e-04</internalNodes>
          <leafValues>
            1. 5.8954462981623910e-15</leafValues></_>
        <_>
          <internalNodes>
            0 -1 255 -1.3287265028338879e-04</internalNodes>
          <leafValues>
            -1. 1.5016745366384031e-16</leafValues></_>
        <_>
          <internalNodes>
            0 -1 255 -1.5186631935648620e-04</internalNodes>
          <leafValues>
            1. -9.2848033203377957e-15</leafValues></_>
        <_>
          <internalNodes>
            0 -1 255 -1.3287265028338879e-04</internalNodes>
          <leafValues>
            -1. 2.9961204941049381e-15</leafValues></_>
        <_>
          <internalNodes>
            0 -1 255 -1.5186631935648620e-04</internalNodes>
          <leafValues>
            1. 5.8956817733217277e-15</leafValues></_>
        <_>
          <internalNodes>
            0 -1 255 -1.3287265028338879e-04</internalNodes>
          <leafValues>
            -1. 1.6765589146289364e-16</leafValues></_>
        <_>
          <internalNodes>
            0 -1 255 -1.5186631935648620e-04</internalNodes>
          <leafValues>
            1. -9.2845678451784590e-15</leafValues></_>
        <_>
          <internalNodes>
            0 -1 255 -1.3287265028338879e-04</internalNodes>
          <leafValues>
            -1. 3.0136089716086608e-15</leafValues></_>
        <_>
          <internalNodes>
            0 -1 255 -1.5186631935648620e-04</internalNodes>
          <leafValues>
            1. 5.8956817733217277e-15</leafValues></_>
        <_>
          <internalNodes>
            0 -1 255 -1.3287265028338879e-04</internalNodes>
          <leafValues>
            -1. 2.2734978403192180e-16</leafValues></_>
        <_>
          <internalNodes>
            0 -1 255 -1.5186631935648620e-04</internalNodes>
          <leafValues>
            1. -9.2242540171362693e-15</leafValues></_>
        <_>
          <internalNodes>
            0 -1 255 -1.3287265028338879e-04</internalNodes>
          <leafValues>
            -1. 3.0136089716086608e-15</leafValues></_>
        <_>
          <internalNodes>
            0 -1 255 -1.5186631935648620e-04</internalNodes>
          <leafValues>
            1. 5.8956817733217277e-15</leafValues></_>
        <_>
          <internalNodes>
            0 -1 255 -1.3287265028338879e-04</internalNodes>
          <leafValues>
            -1. 2.8704368983583977e-16</leafValues></_>
        <_>
          <internalNodes>
            0 -1 255 -1.5186631935648620e-04</internalNodes>
          <leafValues>
            1. -9.2244894922956060e-15</leafValues></_>
        <_>
          <internalNodes>
            0 -1 255 -1.3287265028338879e-04</internalNodes>
          <leafValues>
            -1. 3.0110439440861380e-15</leafValues></_>
        <_>
          <internalNodes>
            0 -1 255 -1.5186631935648620e-04</internalNodes>
          <leafValues>
            1. 5.8353679452795380e-15</leafValues></_>
        <_>
          <internalNodes>
            0 -1 255 -1.3287265028338879e-04</internalNodes>
          <leafValues>
            -1. 2.2758295632043315e-16</leafValues></_>
        <_>
          <internalNodes>
            0 -1 255 -1.5186631935648620e-04</internalNodes>
          <leafValues>
            1. -9.2242540171362693e-15</leafValues></_>
        <_>
          <internalNodes>
            0 -1 255 -1.3287265028338879e-04</internalNodes>
          <leafValues>
            -1. 2.9539149599256244e-15</leafValues></_>
        <_>
          <internalNodes>
            0 -1 255 -1.5186631935648620e-04</internalNodes>
          <leafValues>
            1. 5.8645825351468124e-15</leafValues></_>
        <_>
          <internalNodes>
            0 -1 255 -1.3287265028338879e-04</internalNodes>
          <leafValues>
            -1. 2.3784285465228768e-16</leafValues></_>
        <_>
          <internalNodes>
            0 -1 255 -1.5186631935648620e-04</internalNodes>
          <leafValues>
            1. -9.2138871808948239e-15</leafValues></_>
        <_>
          <internalNodes>
            0 -1 255 -1.3287265028338879e-04</internalNodes>
          <leafValues>
            -1. 2.9546146091400565e-15</leafValues></_>
        <_>
          <internalNodes>
            0 -1 255 -1.5186631935648620e-04</internalNodes>
          <leafValues>
            1. 5.8671740324489369e-15</leafValues></_></weakClassifiers></_>
    <!-- stage 9 -->
    <_>
      <maxWeakCount>65</maxWeakCount>
      <stageThreshold>-1.9306560754776001e+00</stageThreshold>
      <weakClassifiers>
        <_>
          <internalNodes>
            0 -1 220 2.0407140254974365e-05</internalNodes>
          <leafValues>
            -8.1224489212036133e-01 -2.2831050679087639e-02</leafValues></_>
        <_>
          <internalNodes>
            0 -1 220 -4.0323797293240204e-05</internalNodes>
          <leafValues>
            4.5636063814163208e-01 -5.0269043445587158e-01</leafValues></_>
        <_>
          <internalNodes>
            0 -1 339 5.2972820412833244e-05</internalNodes>
          <leafValues>
            -3.0032628774642944e-01 4.9496409296989441e-01</leafValues></_>
        <_>
          <internalNodes>
            0 -1 332 -5.3852312703384086e-05</internalNodes>
          <leafValues>
            4.6772357821464539e-01 -2.2311183810234070e-01</leafValues></_>
        <_>
          <internalNodes>
            0 -1 144 1.6682588466210291e-05</internalNodes>
          <leafValues>
            -1.5839907526969910e-01 4.7368854284286499e-01</leafValues></_>
        <_>
          <internalNodes>
            0 -1 152 2.2349886596202850e-02</internalNodes>
          <leafValues>
            -1.3110838830471039e-01 4.7552919387817383e-01</leafValues></_>
        <_>
          <internalNodes>
            0 -1 6 -2.2052727639675140e-02</internalNodes>
          <leafValues>
            -5.8296924829483032e-01 1.1880174279212952e-01</leafValues></_>
        <_>
          <internalNodes>
            0 -1 20 5.6680358946323395e-02</internalNodes>
          <leafValues>
            6.3896730542182922e-02 -1.</leafValues></_>
        <_>
          <internalNodes>
            0 -1 102 2.7531879022717476e-03</internalNodes>
          <leafValues>
            8.6852133274078369e-02 -6.0729402303695679e-01</leafValues></_>
        <_>
          <internalNodes>
            0 -1 218 -2.1908669732511044e-03</internalNodes>
          <leafValues>
            4.3555122613906860e-01 -1.7449383437633514e-01</leafValues></_>
        <_>
          <internalNodes>
            0 -1 41 -1.8446178874000907e-03</internalNodes>
          <leafValues>
            -3.9172515273094177e-01 1.4850564301013947e-01</leafValues></_>
        <_>
          <internalNodes>
            0 -1 362 5.4767227993579581e-05</internalNodes>
          <leafValues>
            -1.7085176706314087e-01 4.3481850624084473e-01</leafValues></_>
        <_>
          <internalNodes>
            0 -1 363 1.7659217701293528e-04</internalNodes>
          <leafValues>
            -1.5030966699123383e-01 4.1753548383712769e-01</leafValues></_>
        <_>
          <internalNodes>
            0 -1 272 1.1835895478725433e-02</internalNodes>
          <leafValues>
            1.3141430914402008e-01 -5.5205255746841431e-01</leafValues></_>
        <_>
          <internalNodes>
            0 -1 56 -3.8595885038375854e-02</internalNodes>
          <leafValues>
            -3.8284617662429810e-01 1.5392325818538666e-01</leafValues></_>
        <_>
          <internalNodes>
            0 -1 252 -1.8991247998201288e-05</internalNodes>
          <leafValues>
            3.6490046977996826e-01 -1.5180021524429321e-01</leafValues></_>
        <_>
          <internalNodes>
            0 -1 397 -2.3066296707838774e-03</internalNodes>
          <leafValues>
            -4.9035462737083435e-01 1.0088415443897247e-01</leafValues></_>
        <_>
          <internalNodes>
            0 -1 208 5.6448038667440414e-03</internalNodes>
          <leafValues>
            -1.0634931921958923e-01 4.8563122749328613e-01</leafValues></_>
        <_>
          <internalNodes>
            0 -1 119 -4.4565204007085413e-05</internalNodes>
          <leafValues>
            -3.5086455941200256e-01 1.3183288276195526e-01</leafValues></_>
        <_>
          <internalNodes>
            0 -1 422 3.7352140992879868e-02</internalNodes>
          <leafValues>
            -6.2733054161071777e-02 7.7549928426742554e-01</leafValues></_>
        <_>
          <internalNodes>
            0 -1 383 6.6521880216896534e-04</internalNodes>
          <leafValues>
            -7.6518170535564423e-02 4.9797078967094421e-01</leafValues></_>
        <_>
          <internalNodes>
            0 -1 27 -1.6039375914260745e-03</internalNodes>
          <leafValues>
            -4.9338838458061218e-01 1.0600986331701279e-01</leafValues></_>
        <_>
          <internalNodes>
            0 -1 28 6.4409673213958740e-03</internalNodes>
          <leafValues>
            5.5107787251472473e-02 -7.4522227048873901e-01</leafValues></_>
        <_>
          <internalNodes>
            0 -1 368 -1.6338966815965250e-05</internalNodes>
          <leafValues>
            3.7171909213066101e-01 -1.2792268395423889e-01</leafValues></_>
        <_>
          <internalNodes>
            0 -1 40 -2.2963428637012839e-04</internalNodes>
          <leafValues>
            -3.5953369736671448e-01 1.5498492121696472e-01</leafValues></_>
        <_>
          <internalNodes>
            0 -1 338 3.8094498449936509e-05</internalNodes>
          <leafValues>
            -1.1169817298650742e-01 4.5768085122108459e-01</leafValues></_>
        <_>
          <internalNodes>
            0 -1 390 5.1652874797582626e-02</internalNodes>
          <leafValues>
            4.8144761472940445e-02 -8.9668273925781250e-01</leafValues></_>
        <_>
          <internalNodes>
            0 -1 155 2.5830275844782591e-03</internalNodes>
          <leafValues>
            3.8328807801008224e-02 -6.9437170028686523e-01</leafValues></_>
        <_>
          <internalNodes>
            0 -1 364 -1.3483528047800064e-02</internalNodes>
          <leafValues>
            6.1181366443634033e-01 -7.7772408723831177e-02</leafValues></_>
        <_>
          <internalNodes>
            0 -1 465 -1.8275904003530741e-03</internalNodes>
          <leafValues>
            -6.4437830448150635e-01 6.5292879939079285e-02</leafValues></_>
        <_>
          <internalNodes>
            0 -1 49 4.2910620570182800e-02</internalNodes>
          <leafValues>
            -6.3835248351097107e-02 7.1151041984558105e-01</leafValues></_>
        <_>
          <internalNodes>
            0 -1 62 -5.8341637253761292e-02</internalNodes>
          <leafValues>
            -6.0105168819427490e-01 6.6751614212989807e-02</leafValues></_>
        <_>
          <internalNodes>
            0 -1 394 -4.4628530740737915e-03</internalNodes>
          <leafValues>
            3.9694017171859741e-01 -1.1047492176294327e-01</leafValues></_>
        <_>
          <internalNodes>
            0 -1 317 -1.1717485263943672e-02</internalNodes>
          <leafValues>
            -5.4815983772277832e-01 7.7038094401359558e-02</leafValues></_>
        <_>
          <internalNodes>
            0 -1 460 1.8509183079004288e-02</internalNodes>
          <leafValues>
            6.6571205854415894e-02 -5.0218605995178223e-01</leafValues></_>
        <_>
          <internalNodes>
            0 -1 106 4.1978186345659196e-05</internalNodes>
          <leafValues>
            -1.0538894683122635e-01 4.6340173482894897e-01</leafValues></_>
        <_>
          <internalNodes>
            0 -1 63 2.9807179234921932e-03</internalNodes>
          <leafValues>
            4.0739879012107849e-02 -8.2265579700469971e-01</leafValues></_>
        <_>
          <internalNodes>
            0 -1 293 -7.0219278335571289e-02</internalNodes>
          <leafValues>
            -5.0423061847686768e-01 4.8461962491273880e-02</leafValues></_>
        <_>
          <internalNodes>
            0 -1 311 -3.4108066756743938e-05</internalNodes>
          <leafValues>
            4.8384216427803040e-01 -8.4035441279411316e-02</leafValues></_>
        <_>
          <internalNodes>
            0 -1 104 4.3225046247243881e-03</internalNodes>
          <leafValues>
            3.5640485584735870e-02 -9.7701293230056763e-01</leafValues></_>
        <_>
          <internalNodes>
            0 -1 369 2.0062886178493500e-03</internalNodes>
          <leafValues>
            2.8131082653999329e-02 -7.1508240699768066e-01</leafValues></_>
        <_>
          <internalNodes>
            0 -1 121 1.2701335363090038e-02</internalNodes>
          <leafValues>
            -5.3569644689559937e-02 6.1133766174316406e-01</leafValues></_>
        <_>
          <internalNodes>
            0 -1 154 1.8468223512172699e-02</internalNodes>
          <leafValues>
            5.2161328494548798e-02 -5.8951598405838013e-01</leafValues></_>
        <_>
          <internalNodes>
            0 -1 210 7.1691125631332397e-03</internalNodes>
          <leafValues>
            -4.4700715690851212e-02 6.3273173570632935e-01</leafValues></_>
        <_>
          <internalNodes>
            0 -1 234 3.5902818199247122e-03</internalNodes>
          <leafValues>
            2.8237730264663696e-02 -1.</leafValues></_>
        <_>
          <internalNodes>
            0 -1 228 2.2417165338993073e-02</internalNodes>
          <leafValues>
            -3.5576712340116501e-02 9.1232669353485107e-01</leafValues></_>
        <_>
          <internalNodes>
            0 -1 353 1.2549054808914661e-03</internalNodes>
          <leafValues>
            5.1431164145469666e-02 -6.7004114389419556e-01</leafValues></_>
        <_>
          <internalNodes>
            0 -1 91 1.5662595629692078e-02</internalNodes>
          <leafValues>
            -4.5732785016298294e-02 6.6080778837203979e-01</leafValues></_>
        <_>
          <internalNodes>
            0 -1 167 8.7576657533645630e-03</internalNodes>
          <leafValues>
            4.3163284659385681e-02 -6.0446870326995850e-01</leafValues></_>
        <_>
          <internalNodes>
            0 -1 416 3.5243283491581678e-04</internalNodes>
          <leafValues>
            -5.1593199372291565e-02 4.9928575754165649e-01</leafValues></_>
        <_>
          <internalNodes>
            0 -1 89 -4.3665231205523014e-03</internalNodes>
          <leafValues>
            -4.6321928501129150e-01 5.5430244654417038e-02</leafValues></_>
        <_>
          <internalNodes>
            0 -1 212 6.5698195248842239e-03</internalNodes>
          <leafValues>
            -3.7839539349079132e-02 6.6882246732711792e-01</leafValues></_>
        <_>
          <internalNodes>
            0 -1 132 -2.8860010206699371e-03</internalNodes>
          <leafValues>
            -4.0965026617050171e-01 5.1676306873559952e-02</leafValues></_>
        <_>
          <internalNodes>
            0 -1 288 2.2141506895422935e-02</internalNodes>
          <leafValues>
            -2.8474135324358940e-02 7.5974529981613159e-01</leafValues></_>
        <_>
          <internalNodes>
            0 -1 201 -4.5162197202444077e-03</internalNodes>
          <leafValues>
            -1. 1.3002477586269379e-02</leafValues></_>
        <_>
          <internalNodes>
            0 -1 93 3.4891210962086916e-03</internalNodes>
          <leafValues>
            -3.4239333122968674e-02 6.6029846668243408e-01</leafValues></_>
        <_>
          <internalNodes>
            0 -1 436 1.6284061130136251e-03</internalNodes>
          <leafValues>
            3.4248404204845428e-02 -5.4553550481796265e-01</leafValues></_>
        <_>
          <internalNodes>
            0 -1 296 3.3643835922703147e-04</internalNodes>
          <leafValues>
            -3.1595438718795776e-02 4.8625010251998901e-01</leafValues></_>
        <_>
          <internalNodes>
            0 -1 96 -5.3679046686738729e-04</internalNodes>
          <leafValues>
            -5.6574195623397827e-01 3.0462350696325302e-02</leafValues></_>
        <_>
          <internalNodes>
            0 -1 424 -1.1995097622275352e-02</internalNodes>
          <leafValues>
            6.7489260435104370e-01 -1.8835967406630516e-02</leafValues></_>
        <_>
          <internalNodes>
            0 -1 445 2.2983518429100513e-03</internalNodes>
          <leafValues>
            1.7215924337506294e-02 -7.7967870235443115e-01</leafValues></_>
        <_>
          <internalNodes>
            0 -1 406 8.1559328828006983e-04</internalNodes>
          <leafValues>
            -3.5993508994579315e-02 5.9331858158111572e-01</leafValues></_>
        <_>
          <internalNodes>
            0 -1 435 -1.0887308744713664e-03</internalNodes>
          <leafValues>
            -5.9768104553222656e-01 3.9590209722518921e-02</leafValues></_>
        <_>
          <internalNodes>
            0 -1 389 -2.4787075817584991e-02</internalNodes>
          <leafValues>
            6.6138720512390137e-01 -2.0670829340815544e-02</leafValues></_>
        <_>
          <internalNodes>
            0 -1 325 -9.5822960138320923e-03</internalNodes>
          <leafValues>
            -5.0246423482894897e-01 2.6296878233551979e-02</leafValues></_></weakClassifiers></_>
    <!-- stage 10 -->
    <_>
      <maxWeakCount>100</maxWeakCount>
      <stageThreshold>-2.2776932716369629e+00</stageThreshold>
      <weakClassifiers>
        <_>
          <internalNodes>
            0 -1 203 -2.4567877408117056e-03</internalNodes>
          <leafValues>
            7.3750001192092896e-01 -8.8450431823730469e-01</leafValues></_>
        <_>
          <internalNodes>
            0 -1 240 -1.6862181655596942e-04</internalNodes>
          <leafValues>
            9.2174214124679565e-01 -6.9403141736984253e-01</leafValues></_>
        <_>
          <internalNodes>
            0 -1 400 -4.4346685172058642e-05</internalNodes>
          <leafValues>
            8.9816701412200928e-01 -4.3172809481620789e-01</leafValues></_>
        <_>
          <internalNodes>
            0 -1 431 3.6533332604449242e-05</internalNodes>
          <leafValues>
            -1.6736367344856262e-01 9.4648605585098267e-01</leafValues></_>
        <_>
          <internalNodes>
            0 -1 357 -1.2959490413777530e-04</internalNodes>
          <leafValues>
            9.0854144096374512e-01 -8.0927267670631409e-02</leafValues></_>
        <_>
          <internalNodes>
            0 -1 86 -6.2480370979756117e-04</internalNodes>
          <leafValues>
            9.0522956848144531e-01 -5.7364214211702347e-02</leafValues></_>
        <_>
          <internalNodes>
            0 -1 263 -4.3548853136599064e-04</internalNodes>
          <leafValues>
            1. -4.1163235902786255e-02</leafValues></_>
        <_>
          <internalNodes>
            0 -1 457 7.3292264714837074e-03</internalNodes>
          <leafValues>
            9.8565444350242615e-02 -8.7459170818328857e-01</leafValues></_>
        <_>
          <internalNodes>
            0 -1 361 -1.1222853936487809e-04</internalNodes>
          <leafValues>
            8.2460629940032959e-01 -7.1845091879367828e-02</leafValues></_>
        <_>
          <internalNodes>
            0 -1 14 1.2365674600005150e-02</internalNodes>
          <leafValues>
            4.8559583723545074e-02 -8.7398505210876465e-01</leafValues></_>
        <_>
          <internalNodes>
            0 -1 434 -9.7005220595747232e-05</internalNodes>
          <leafValues>
            8.6655747890472412e-01 -4.6676266938447952e-02</leafValues></_>
        <_>
          <internalNodes>
            0 -1 393 2.5967719033360481e-02</internalNodes>
          <leafValues>
            3.9777815341949463e-02 -9.6865051984786987e-01</leafValues></_>
        <_>
          <internalNodes>
            0 -1 214 -4.6896724961698055e-04</internalNodes>
          <leafValues>
            9.4913065433502197e-01 -3.7277076393365860e-02</leafValues></_>
        <_>
          <internalNodes>
            0 -1 193 1.7106682935263962e-04</internalNodes>
          <leafValues>
            4.5066963881254196e-02 -7.6503795385360718e-01</leafValues></_>
        <_>
          <internalNodes>
            0 -1 347 -1.1685518256854266e-04</internalNodes>
          <leafValues>
            8.7508726119995117e-01 -2.2965548560023308e-02</leafValues></_>
        <_>
          <internalNodes>
            0 -1 444 5.4139702115207911e-05</internalNodes>
          <leafValues>
            2.7379689738154411e-02 -9.1922217607498169e-01</leafValues></_>
        <_>
          <internalNodes>
            0 -1 277 -4.1494250763207674e-04</internalNodes>
          <leafValues>
            9.4544810056686401e-01 -9.5354896038770676e-03</leafValues></_>
        <_>
          <internalNodes>
            0 -1 428 1.9077088218182325e-03</internalNodes>
          <leafValues>
            8.8021270930767059e-03 -1.</leafValues></_>
        <_>
          <internalNodes>
            0 -1 163 -1.2683036038652062e-04</internalNodes>
          <leafValues>
            9.0188169479370117e-01 -1.3054745271801949e-02</leafValues></_>
        <_>
          <internalNodes>
            0 -1 257 1.5850630006752908e-04</internalNodes>
          <leafValues>
            1.1804792098701000e-02 -9.4514012336730957e-01</leafValues></_>
        <_>
          <internalNodes>
            0 -1 274 -4.4837786845164374e-05</internalNodes>
          <leafValues>
            9.5738244056701660e-01 -5.0308150239288807e-03</leafValues></_>
        <_>
          <internalNodes>
            0 -1 382 3.5348784876987338e-05</internalNodes>
          <leafValues>
            5.2470597438514233e-03 -1.</leafValues></_>
        <_>
          <internalNodes>
            0 -1 199 -5.5627740221098065e-04</internalNodes>
          <leafValues>
            1. -6.8179733352735639e-04</leafValues></_>
        <_>
          <internalNodes>
            0 -1 128 7.7900029718875885e-03</internalNodes>
          <leafValues>
            2.4041605647653341e-03 -1.</leafValues></_>
        <_>
          <internalNodes>
            0 -1 176 3.6492515937425196e-04</internalNodes>
          <leafValues>
            -2.0439838990569115e-03 1.</leafValues></_>
        <_>
          <internalNodes>
            0 -1 238 4.5474196667782962e-04</internalNodes>
          <leafValues>
            1.0682486463338137e-03 -1.</leafValues></_>
        <_>
          <internalNodes>
            0 -1 237 4.2622098699212074e-03</internalNodes>
          <leafValues>
            -1.7619060236029327e-04 1.</leafValues></_>
        <_>
          <internalNodes>
            0 -1 148 2.4383149866480380e-04</internalNodes>
          <leafValues>
            -1.8108090981544533e-12 -1.</leafValues></_>
        <_>
          <internalNodes>
            0 -1 148 1.2529334344435483e-04</internalNodes>
          <leafValues>
            -1.0859860238724220e-14 1.</leafValues></_>
        <_>
          <internalNodes>
            0 -1 148 2.4383149866480380e-04</internalNodes>
          <leafValues>
            1.7420953731233507e-14 -1.</leafValues></_>
        <_>
          <internalNodes>
            0 -1 148 1.2529334344435483e-04</internalNodes>
          <leafValues>
            -2.0656709375237343e-14 1.</leafValues></_>
        <_>
          <internalNodes>
            0 -1 148 2.4383149866480380e-04</internalNodes>
          <leafValues>
            4.5503279082529345e-15 -1.</leafValues></_>
        <_>
          <internalNodes>
            0 -1 148 1.2529334344435483e-04</internalNodes>
          <leafValues>
            9.5223325345715829e-15 1.</leafValues></_>
        <_>
          <internalNodes>
            0 -1 148 2.4383149866480380e-04</internalNodes>
          <leafValues>
            -6.4861734283246444e-15 -1.</leafValues></_>
        <_>
          <internalNodes>
            0 -1 148 1.2529334344435483e-04</internalNodes>
          <leafValues>
            1.3232027094184519e-16 1.</leafValues></_>
        <_>
          <internalNodes>
            0 -1 148 2.4383149866480380e-04</internalNodes>
          <leafValues>
            1.1325365829612660e-14 -1.</leafValues></_>
        <_>
          <internalNodes>
            0 -1 148 1.2529334344435483e-04</internalNodes>
          <leafValues>
            2.5706512918970115e-16 1.</leafValues></_>
        <_>
          <internalNodes>
            0 -1 148 2.4383149866480380e-04</internalNodes>
          <leafValues>
            -1.3386161414898588e-14 -1.</leafValues></_>
        <_>
          <internalNodes>
            0 -1 148 1.2529334344435483e-04</internalNodes>
          <leafValues>
            1.4838524763842280e-14 1.</leafValues></_>
        <_>
          <internalNodes>
            0 -1 148 2.4383149866480380e-04</internalNodes>
          <leafValues>
            -2.1816480439145088e-14 -1.</leafValues></_>
        <_>
          <internalNodes>
            0 -1 148 1.2529334344435483e-04</internalNodes>
          <leafValues>
            4.3010177362722609e-15 1.</leafValues></_>
        <_>
          <internalNodes>
            0 -1 148 2.4383149866480380e-04</internalNodes>
          <leafValues>
            7.8087196607391947e-15 -1.</leafValues></_>
        <_>
          <internalNodes>
            0 -1 148 1.2529334344435483e-04</internalNodes>
          <leafValues>
            -2.7148471103431498e-15 1.</leafValues></_>
        <_>
          <internalNodes>
            0 -1 148 2.4383149866480380e-04</internalNodes>
          <leafValues>
            1.1147266988057077e-14 -1.</leafValues></_>
        <_>
          <internalNodes>
            0 -1 148 1.2529334344435483e-04</internalNodes>
          <leafValues>
            -1.6445464849396303e-14 1.</leafValues></_>
        <_>
          <internalNodes>
            0 -1 148 2.4383149866480380e-04</internalNodes>
          <leafValues>
            2.4558206234245221e-15 -1.</leafValues></_>
        <_>
          <internalNodes>
            0 -1 148 1.2529334344435483e-04</internalNodes>
          <leafValues>
            -6.2350397002876507e-16 1.</leafValues></_>
        <_>
          <internalNodes>
            0 -1 148 2.4383149866480380e-04</internalNodes>
          <leafValues>
            1.8301106090241924e-15 -1.</leafValues></_>
        <_>
          <internalNodes>
            0 -1 148 1.2529334344435483e-04</internalNodes>
          <leafValues>
            6.1050187664555763e-15 1.</leafValues></_>
        <_>
          <internalNodes>
            0 -1 148 2.4383149866480380e-04</internalNodes>
          <leafValues>
            -8.9952561187472274e-15 -1.</leafValues></_>
        <_>
          <internalNodes>
            0 -1 148 1.2529334344435483e-04</internalNodes>
          <leafValues>
            -9.2826181870921164e-16 1.</leafValues></_>
        <_>
          <internalNodes>
            0 -1 148 2.4383149866480380e-04</internalNodes>
          <leafValues>
            1.5142718012123822e-14 -1.</leafValues></_>
        <_>
          <internalNodes>
            0 -1 148 1.2529334344435483e-04</internalNodes>
          <leafValues>
            -9.9212571006410989e-15 1.</leafValues></_>
        <_>
          <internalNodes>
            0 -1 148 2.4383149866480380e-04</internalNodes>
          <leafValues>
            8.8790652212405660e-15 -1.</leafValues></_>
        <_>
          <internalNodes>
            0 -1 148 1.2529334344435483e-04</internalNodes>
          <leafValues>
            2.8067995247894190e-15 1.</leafValues></_>
        <_>
          <internalNodes>
            0 -1 148 2.4383149866480380e-04</internalNodes>
          <leafValues>
            -5.8276002296367424e-15 -1.</leafValues></_>
        <_>
          <internalNodes>
            0 -1 148 1.2529334344435483e-04</internalNodes>
          <leafValues>
            2.4192595050474743e-16 1.</leafValues></_>
        <_>
          <internalNodes>
            0 -1 148 2.4383149866480380e-04</internalNodes>
          <leafValues>
            -5.6178244734362160e-15 -1.</leafValues></_>
        <_>
          <internalNodes>
            0 -1 148 1.2529334344435483e-04</internalNodes>
          <leafValues>
            4.1127409468224695e-15 1.</leafValues></_>
        <_>
          <internalNodes>
            0 -1 148 2.4383149866480380e-04</internalNodes>
          <leafValues>
            3.9124943112785540e-15 -1.</leafValues></_>
        <_>
          <internalNodes>
            0 -1 148 1.2529334344435483e-04</internalNodes>
          <leafValues>
            -1.1146250548520371e-14 1.</leafValues></_>
        <_>
          <internalNodes>
            0 -1 148 2.4383149866480380e-04</internalNodes>
          <leafValues>
            1.1713973534384619e-14 -1.</leafValues></_>
        <_>
          <internalNodes>
            0 -1 148 1.2529334344435483e-04</internalNodes>
          <leafValues>
            -2.8726125024834204e-15 1.</leafValues></_>
        <_>
          <internalNodes>
            0 -1 148 2.4383149866480380e-04</internalNodes>
          <leafValues>
            6.9976411445134713e-15 -1.</leafValues></_>
        <_>
          <internalNodes>
            0 -1 148 1.2529334344435483e-04</internalNodes>
          <leafValues>
            -1.5615115063071124e-14 1.</leafValues></_>
        <_>
          <internalNodes>
            0 -1 148 2.4383149866480380e-04</internalNodes>
          <leafValues>
            -6.0310461086224374e-16 -1.</leafValues></_>
        <_>
          <internalNodes>
            0 -1 148 1.2529334344435483e-04</internalNodes>
          <leafValues>
            -4.0765095360201405e-15 1.</leafValues></_>
        <_>
          <internalNodes>
            0 -1 148 2.4383149866480380e-04</internalNodes>
          <leafValues>
            5.2421275624836626e-16 -1.</leafValues></_>
        <_>
          <internalNodes>
            0 -1 148 1.2529334344435483e-04</internalNodes>
          <leafValues>
            1.1785806163476520e-14 1.</leafValues></_>
        <_>
          <internalNodes>
            0 -1 148 2.4383149866480380e-04</internalNodes>
          <leafValues>
            -1.1715103476336256e-14 -1.</leafValues></_>
        <_>
          <internalNodes>
            0 -1 148 1.2529334344435483e-04</internalNodes>
          <leafValues>
            8.6157734999160393e-15 1.</leafValues></_>
        <_>
          <internalNodes>
            0 -1 148 2.4383149866480380e-04</internalNodes>
          <leafValues>
            9.1864949824135671e-15 -1.</leafValues></_>
        <_>
          <internalNodes>
            0 -1 148 1.2529334344435483e-04</internalNodes>
          <leafValues>
            -3.8387109653091264e-15 1.</leafValues></_>
        <_>
          <internalNodes>
            0 -1 148 2.4383149866480380e-04</internalNodes>
          <leafValues>
            -1.1089394308968874e-14 -1.</leafValues></_>
        <_>
          <internalNodes>
            0 -1 148 1.2529334344435483e-04</internalNodes>
          <leafValues>
            9.8474178504971525e-15 1.</leafValues></_>
        <_>
          <internalNodes>
            0 -1 148 2.4383149866480380e-04</internalNodes>
          <leafValues>
            -3.9206321803192997e-15 -1.</leafValues></_>
        <_>
          <internalNodes>
            0 -1 148 1.2529334344435483e-04</internalNodes>
          <leafValues>
            8.3571082725494156e-15 1.</leafValues></_>
        <_>
          <internalNodes>
            0 -1 148 2.4383149866480380e-04</internalNodes>
          <leafValues>
            -1.5130059951760054e-14 -1.</leafValues></_>
        <_>
          <internalNodes>
            0 -1 148 1.2529334344435483e-04</internalNodes>
          <leafValues>
            1.5388094986613921e-14 1.</leafValues></_>
        <_>
          <internalNodes>
            0 -1 148 2.4383149866480380e-04</internalNodes>
          <leafValues>
            -1.1718720307021032e-14 -1.</leafValues></_>
        <_>
          <internalNodes>
            0 -1 148 1.2529334344435483e-04</internalNodes>
          <leafValues>
            -6.0756661102178994e-15 1.</leafValues></_>
        <_>
          <internalNodes>
            0 -1 148 2.4383149866480380e-04</internalNodes>
          <leafValues>
            8.3819786421884595e-16 -1.</leafValues></_>
        <_>
          <internalNodes>
            0 -1 148 1.2529334344435483e-04</internalNodes>
          <leafValues>
            -2.5527199220409932e-15 1.</leafValues></_>
        <_>
          <internalNodes>
            0 -1 148 2.4383149866480380e-04</internalNodes>
          <leafValues>
            2.4883716760710313e-15 -1.</leafValues></_>
        <_>
          <internalNodes>
            0 -1 148 1.2529334344435483e-04</internalNodes>
          <leafValues>
            -1.6843090278682968e-15 1.</leafValues></_>
        <_>
          <internalNodes>
            0 -1 148 2.4383149866480380e-04</internalNodes>
          <leafValues>
            2.7948972295728383e-15 -1.</leafValues></_>
        <_>
          <internalNodes>
            0 -1 148 1.2529334344435483e-04</internalNodes>
          <leafValues>
            -1.9594853625966302e-15 1.</leafValues></_>
        <_>
          <internalNodes>
            0 -1 148 2.4383149866480380e-04</internalNodes>
          <leafValues>
            2.9226160337333940e-15 -1.</leafValues></_>
        <_>
          <internalNodes>
            0 -1 148 1.2529334344435483e-04</internalNodes>
          <leafValues>
            -1.9448094579942654e-15 1.</leafValues></_>
        <_>
          <internalNodes>
            0 -1 148 2.4383149866480380e-04</internalNodes>
          <leafValues>
            2.6255848725373603e-15 -1.</leafValues></_>
        <_>
          <internalNodes>
            0 -1 148 1.2529334344435483e-04</internalNodes>
          <leafValues>
            -1.6666518849289521e-15 1.</leafValues></_>
        <_>
          <internalNodes>
            0 -1 148 2.4383149866480380e-04</internalNodes>
          <leafValues>
            2.5821829043200500e-15 -1.</leafValues></_>
        <_>
          <internalNodes>
            0 -1 148 1.2529334344435483e-04</internalNodes>
          <leafValues>
            -1.7106801281316386e-15 1.</leafValues></_>
        <_>
          <internalNodes>
            0 -1 148 2.4383149866480380e-04</internalNodes>
          <leafValues>
            2.4555942538693684e-15 -1.</leafValues></_>
        <_>
          <internalNodes>
            0 -1 148 1.2529334344435483e-04</internalNodes>
          <leafValues>
            -1.7244389078103638e-15 1.</leafValues></_>
        <_>
          <internalNodes>
            0 -1 148 2.4383149866480380e-04</internalNodes>
          <leafValues>
            2.4198782626154436e-15 -1.</leafValues></_>
        <_>
          <internalNodes>
            0 -1 148 1.2529334344435483e-04</internalNodes>
          <leafValues>
            -3.5873831608480931e-15 1.</leafValues></_>
        <_>
          <internalNodes>
            0 -1 148 2.4383149866480380e-04</internalNodes>
          <leafValues>
            2.8606780200148441e-15 -1.</leafValues></_>
        <_>
          <internalNodes>
            0 -1 148 1.2529334344435483e-04</internalNodes>
          <leafValues>
            -3.5151494616556672e-15 1.</leafValues></_>
        <_>
          <internalNodes>
            0 -1 148 2.4383149866480380e-04</internalNodes>
          <leafValues>
            2.9296237490642656e-15 -1.</leafValues></_></weakClassifiers></_>
    <!-- stage 11 -->
    <_>
      <maxWeakCount>100</maxWeakCount>
      <stageThreshold>-2.2924838066101074e+00</stageThreshold>
      <weakClassifiers>
        <_>
          <internalNodes>
            0 -1 200 -2.2385436750482768e-04</internalNodes>
          <leafValues>
            8.6577183008193970e-01 -8.8571429252624512e-01</leafValues></_>
        <_>
          <internalNodes>
            0 -1 190 -1.5111118555068970e-03</internalNodes>
          <leafValues>
            9.0935194492340088e-01 -7.2071534395217896e-01</leafValues></_>
        <_>
          <internalNodes>
            0 -1 415 -3.2608528272248805e-04</internalNodes>
          <leafValues>
            8.7668412923812866e-01 -4.7234278917312622e-01</leafValues></_>
        <_>
          <internalNodes>
            0 -1 303 9.0774199634324759e-05</internalNodes>
          <leafValues>
            -1.3163216412067413e-01 9.3097972869873047e-01</leafValues></_>
        <_>
          <internalNodes>
            0 -1 80 3.9683069189777598e-05</internalNodes>
          <leafValues>
            -8.0528683960437775e-02 9.2677295207977295e-01</leafValues></_>
        <_>
          <internalNodes>
            0 -1 191 1.6055113519541919e-05</internalNodes>
          <leafValues>
            -4.1385281831026077e-02 9.5193773508071899e-01</leafValues></_>
        <_>
          <internalNodes>
            0 -1 446 8.5000973194837570e-03</internalNodes>
          <leafValues>
            8.9890271425247192e-02 -8.9128404855728149e-01</leafValues></_>
        <_>
          <internalNodes>
            0 -1 371 -6.5767215564846992e-03</internalNodes>
          <leafValues>
            9.2200309038162231e-01 -8.8645324110984802e-02</leafValues></_>
        <_>
          <internalNodes>
            0 -1 61 -1.3029194436967373e-02</internalNodes>
          <leafValues>
            -8.9564985036849976e-01 6.5744392573833466e-02</leafValues></_>
        <_>
          <internalNodes>
            0 -1 316 2.1798019297420979e-03</internalNodes>
          <leafValues>
            -4.6814382076263428e-02 1.</leafValues></_>
        <_>
          <internalNodes>
            0 -1 386 2.6598633266985416e-03</internalNodes>
          <leafValues>
            4.5799020677804947e-02 -7.9047465324401855e-01</leafValues></_>
        <_>
          <internalNodes>
            0 -1 334 -1.9566563423722982e-04</internalNodes>
          <leafValues>
            9.1295427083969116e-01 -4.0243759751319885e-02</leafValues></_>
        <_>
          <internalNodes>
            0 -1 310 -4.9035381525754929e-02</internalNodes>
          <leafValues>
            -8.6845147609710693e-01 2.7712989598512650e-02</leafValues></_>
        <_>
          <internalNodes>
            0 -1 164 -1.0520771611481905e-03</internalNodes>
          <leafValues>
            8.8107776641845703e-01 -1.6021735966205597e-02</leafValues></_>
        <_>
          <internalNodes>
            0 -1 256 -4.4742240570485592e-03</internalNodes>
          <leafValues>
            -9.3785345554351807e-01 1.5812866389751434e-02</leafValues></_>
        <_>
          <internalNodes>
            0 -1 241 1.2019336281809956e-04</internalNodes>
          <leafValues>
            -1.2531839311122894e-02 9.6271294355392456e-01</leafValues></_>
        <_>
          <internalNodes>
            0 -1 392 2.9052040190435946e-04</internalNodes>
          <leafValues>
            7.8858258202672005e-03 -1.</leafValues></_>
        <_>
          <internalNodes>
            0 -1 221 -4.6791002387180924e-04</internalNodes>
          <leafValues>
            1. -6.5036267042160034e-03</leafValues></_>
        <_>
          <internalNodes>
            0 -1 231 -4.8285935918102041e-05</internalNodes>
          <leafValues>
            -1. 3.8527743890881538e-03</leafValues></_>
        <_>
          <internalNodes>
            0 -1 200 -3.1918106833472848e-04</internalNodes>
          <leafValues>
            1. -1.9584372639656067e-03</leafValues></_>
        <_>
          <internalNodes>
            0 -1 150 -3.1393405515700579e-04</internalNodes>
          <leafValues>
            -1. 1.2662163935601711e-03</leafValues></_>
        <_>
          <internalNodes>
            0 -1 247 -7.2736863512545824e-04</internalNodes>
          <leafValues>
            1. -1.9928538240492344e-03</leafValues></_>
        <_>
          <internalNodes>
            0 -1 195 -3.5391573328524828e-03</internalNodes>
          <leafValues>
            -1. -2.6381721252022317e-09</leafValues></_>
        <_>
          <internalNodes>
            0 -1 197 -1.0946284746751189e-03</internalNodes>
          <leafValues>
            1. -2.7532668900676072e-04</leafValues></_>
        <_>
          <internalNodes>
            0 -1 136 7.4090133421123028e-04</internalNodes>
          <leafValues>
            -6.9417262736626295e-12 -1.</leafValues></_>
        <_>
          <internalNodes>
            0 -1 136 2.7778148069046438e-04</internalNodes>
          <leafValues>
            -1.6423409106209874e-03 1.</leafValues></_>
        <_>
          <internalNodes>
            0 -1 60 -2.2818708384875208e-04</internalNodes>
          <leafValues>
            -1. -1.4766200484572778e-09</leafValues></_>
        <_>
          <internalNodes>
            0 -1 399 -2.8020338504575193e-04</internalNodes>
          <leafValues>
            1. -5.1521067507565022e-04</leafValues></_>
        <_>
          <internalNodes>
            0 -1 124 2.5081546045839787e-03</internalNodes>
          <leafValues>
            -4.5590566044584335e-11 -1.</leafValues></_>
        <_>
          <internalNodes>
            0 -1 116 4.1059199720621109e-03</internalNodes>
          <leafValues>
            -9.8469341173768044e-04 1.</leafValues></_>
        <_>
          <internalNodes>
            0 -1 23 -1.1402446776628494e-02</internalNodes>
          <leafValues>
            -1. -3.1824962110071908e-10</leafValues></_>
        <_>
          <internalNodes>
            0 -1 23 -1.1573832482099533e-02</internalNodes>
          <leafValues>
            1. -1.6575381068780273e-14</leafValues></_>
        <_>
          <internalNodes>
            0 -1 23 -1.1402446776628494e-02</internalNodes>
          <leafValues>
            -1. 8.2108595638764881e-15</leafValues></_>
        <_>
          <internalNodes>
            0 -1 23 -1.1573832482099533e-02</internalNodes>
          <leafValues>
            1. -2.1393547147702122e-15</leafValues></_>
        <_>
          <internalNodes>
            0 -1 23 -1.1402446776628494e-02</internalNodes>
          <leafValues>
            -1. -6.0786336901486049e-15</leafValues></_>
        <_>
          <internalNodes>
            0 -1 23 -1.1573832482099533e-02</internalNodes>
          <leafValues>
            1. 1.1737792947894357e-14</leafValues></_>
        <_>
          <internalNodes>
            0 -1 23 -1.1402446776628494e-02</internalNodes>
          <leafValues>
            -1. 3.9155885226348740e-15</leafValues></_>
        <_>
          <internalNodes>
            0 -1 23 -5.7196840643882751e-03</internalNodes>
          <leafValues>
            1. 4.8606710392480167e-15</leafValues></_>
        <_>
          <internalNodes>
            0 -1 23 -1.1402446776628494e-02</internalNodes>
          <leafValues>
            -1. -1.4810371082741441e-14</leafValues></_>
        <_>
          <internalNodes>
            0 -1 23 -5.7196840643882751e-03</internalNodes>
          <leafValues>
            1. 6.6952893458592597e-16</leafValues></_>
        <_>
          <internalNodes>
            0 -1 23 -1.1402446776628494e-02</internalNodes>
          <leafValues>
            -1. 1.7879882958319465e-14</leafValues></_>
        <_>
          <internalNodes>
            0 -1 23 -5.7196840643882751e-03</internalNodes>
          <leafValues>
            1. -7.7026804531053761e-16</leafValues></_>
        <_>
          <internalNodes>
            0 -1 23 -1.1402446776628494e-02</internalNodes>
          <leafValues>
            -1. -3.8598202969041245e-15</leafValues></_>
        <_>
          <internalNodes>
            0 -1 23 -5.7196840643882751e-03</internalNodes>
          <leafValues>
            1. -1.3504111599836697e-14</leafValues></_>
        <_>
          <internalNodes>
            0 -1 23 -1.1402446776628494e-02</internalNodes>
          <leafValues>
            -1. 3.7226085827454531e-15</leafValues></_>
        <_>
          <internalNodes>
            0 -1 23 -5.7196840643882751e-03</internalNodes>
          <leafValues>
            1. 6.8807713500995855e-15</leafValues></_>
        <_>
          <internalNodes>
            0 -1 23 -1.1402446776628494e-02</internalNodes>
          <leafValues>
            -1. -1.4178336273323964e-14</leafValues></_>
        <_>
          <internalNodes>
            0 -1 23 -5.7196840643882751e-03</internalNodes>
          <leafValues>
            1. 3.5897883638413809e-16</leafValues></_>
        <_>
          <internalNodes>
            0 -1 23 -1.1402446776628494e-02</internalNodes>
          <leafValues>
            -1. 1.3639380220414367e-14</leafValues></_>
        <_>
          <internalNodes>
            0 -1 23 -5.7196840643882751e-03</internalNodes>
          <leafValues>
            1. 3.3506967443968239e-15</leafValues></_>
        <_>
          <internalNodes>
            0 -1 23 -1.1402446776628494e-02</internalNodes>
          <leafValues>
            -1. -1.5561653731572221e-14</leafValues></_>
        <_>
          <internalNodes>
            0 -1 23 -5.7196840643882751e-03</internalNodes>
          <leafValues>
            1. 1.3499425813572486e-14</leafValues></_>
        <_>
          <internalNodes>
            0 -1 23 -1.1402446776628494e-02</internalNodes>
          <leafValues>
            -1. -5.2887208332088719e-15</leafValues></_>
        <_>
          <internalNodes>
            0 -1 23 -5.7196840643882751e-03</internalNodes>
          <leafValues>
            1. -3.0293252444284907e-15</leafValues></_>
        <_>
          <internalNodes>
            0 -1 23 -1.1402446776628494e-02</internalNodes>
          <leafValues>
            -1. -1.5016634193309704e-15</leafValues></_>
        <_>
          <internalNodes>
            0 -1 23 -5.7196840643882751e-03</internalNodes>
          <leafValues>
            1. 1.2823634129132799e-14</leafValues></_>
        <_>
          <internalNodes>
            0 -1 23 -1.1402446776628494e-02</internalNodes>
          <leafValues>
            -1. 3.4502104102049954e-15</leafValues></_>
        <_>
          <internalNodes>
            0 -1 23 -5.7196840643882751e-03</internalNodes>
          <leafValues>
            1. -1.1614388717808878e-14</leafValues></_>
        <_>
          <internalNodes>
            0 -1 23 -1.1402446776628494e-02</internalNodes>
          <leafValues>
            -1. -1.2414155532540494e-14</leafValues></_>
        <_>
          <internalNodes>
            0 -1 23 -5.7196840643882751e-03</internalNodes>
          <leafValues>
            1. 2.5789947570098795e-14</leafValues></_>
        <_>
          <internalNodes>
            0 -1 23 -1.1402446776628494e-02</internalNodes>
          <leafValues>
            -1. -2.4199080781751869e-14</leafValues></_>
        <_>
          <internalNodes>
            0 -1 23 -5.7196840643882751e-03</internalNodes>
          <leafValues>
            1. 2.0804929976611479e-14</leafValues></_>
        <_>
          <internalNodes>
            0 -1 23 -1.1402446776628494e-02</internalNodes>
          <leafValues>
            -1. -1.7318421875276032e-15</leafValues></_>
        <_>
          <internalNodes>
            0 -1 23 -5.7196840643882751e-03</internalNodes>
          <leafValues>
            1. -1.4320747075712882e-14</leafValues></_>
        <_>
          <internalNodes>
            0 -1 23 -1.1402446776628494e-02</internalNodes>
          <leafValues>
            -1. 1.6355487927541268e-14</leafValues></_>
        <_>
          <internalNodes>
            0 -1 23 -5.7196840643882751e-03</internalNodes>
          <leafValues>
            1. -2.1242541078480941e-14</leafValues></_>
        <_>
          <internalNodes>
            0 -1 23 -1.1402446776628494e-02</internalNodes>
          <leafValues>
            -1. 2.0502073346320704e-14</leafValues></_>
        <_>
          <internalNodes>
            0 -1 23 -5.7196840643882751e-03</internalNodes>
          <leafValues>
            1. -1.6667441691685554e-14</leafValues></_>
        <_>
          <internalNodes>
            0 -1 23 -1.1402446776628494e-02</internalNodes>
